svm_type c_svc
kernel_type rbf
gamma 5.50297e-05
nr_class 2
total_sv 10660
rho 0.843077
label 1 0
nr_sv 5330 5330
SV
1 0:1 1:1 2:1 3:1 4:1 5:1 6:1 7:1 8:1 9:1 10:1 11:1 
1 19:1 64:1 65:1 66:1 67:1 68:1 69:1 70:1 71:1 72:1 73:1 74:1 
1 75:1 76:1 77:1 78:1 79:1 80:1 81:1 
1 17:1 19:1 100:1 121:1 122:1 123:1 124:1 125:1 126:1 127:1 128:1 129:1 130:1 131:1 132:1 
1 30:1 139:1 140:1 141:1 
1 142:1 143:1 144:1 145:1 146:1 147:1 148:1 
1 30:1 149:1 150:1 151:1 152:1 153:1 154:1 155:1 156:1 157:1 158:1 159:1 160:1 161:1 162:1 163:1 164:1 165:1 166:1 167:1 168:2 
1 8:1 169:1 170:1 171:1 172:1 173:1 174:1 175:1 176:1 
1 156:1 188:1 189:1 190:1 191:1 192:1 193:1 194:1 195:1 196:1 
1 57:1 100:1 115:1 197:1 198:1 199:1 200:1 201:1 202:1 203:1 204:1 
1 81:1 205:1 206:1 207:1 208:1 209:1 210:1 211:1 212:1 213:1 214:1 215:1 216:1 
1 217:1 218:1 219:1 220:1 221:1 222:1 223:1 224:1 
1 19:1 225:1 226:1 227:1 228:1 229:1 230:1 231:1 232:1 233:1 234:1 235:1 236:1 237:1 238:1 
1 30:1 39:1 42:1 249:1 250:1 251:1 252:1 253:1 254:1 255:1 256:1 
1 19:1 39:1 268:1 269:1 270:1 271:1 272:1 273:1 274:1 275:1 
1 276:1 277:1 278:1 279:1 
1 87:1 303:1 304:1 305:1 306:1 307:1 308:1 309:1 310:1 
1 115:1 236:2 311:1 312:1 313:1 314:1 315:1 316:1 317:1 318:1 319:1 320:1 321:1 322:1 
1 331:1 336:1 337:1 338:1 339:1 340:1 
1 341:1 342:1 343:1 344:1 345:1 346:1 347:1 
1 115:1 344:1 360:1 361:1 362:1 363:1 364:1 
1 13:1 115:1 210:1 224:1 414:1 415:1 416:1 417:1 418:1 419:1 420:1 421:1 422:1 423:1 424:1 
1 19:1 176:1 436:1 437:1 438:1 439:1 440:1 441:1 442:1 
1 259:1 481:1 482:1 483:1 484:1 485:1 
1 486:1 487:1 488:1 
1 122:1 256:1 494:1 495:1 496:1 
1 87:1 176:1 256:1 517:1 518:1 519:1 520:1 521:1 522:1 523:1 524:1 525:1 526:1 527:1 528:1 529:1 530:1 531:1 532:1 533:1 534:1 535:1 
1 21:1 40:1 256:1 368:1 384:1 564:1 565:1 566:1 567:1 568:1 569:1 570:1 
1 183:1 344:1 571:1 572:1 573:1 574:1 575:1 576:1 577:1 
1 603:1 604:1 605:1 606:1 607:1 608:1 609:1 610:1 611:1 612:1 613:1 614:1 
1 176:1 316:1 406:1 619:1 620:1 621:1 622:1 
1 642:1 643:1 644:1 645:1 646:1 
1 42:1 80:2 313:1 647:1 648:1 649:1 650:1 651:1 652:1 653:1 654:1 655:1 656:1 657:1 658:1 659:1 660:1 661:1 662:1 
1 26:1 203:1 256:1 326:1 487:1 663:1 664:1 665:1 666:1 667:1 668:1 669:1 670:1 
1 93:1 671:1 672:1 673:1 674:1 675:1 676:1 
1 19:1 238:1 463:1 677:1 678:1 
1 577:1 602:1 679:1 680:1 681:1 682:1 683:1 684:1 685:1 686:1 687:1 688:1 689:1 
1 92:1 577:1 678:1 698:1 699:1 700:1 701:1 702:1 703:1 704:1 705:1 
1 87:1 447:1 657:1 670:1 746:1 747:1 748:1 749:1 750:1 751:1 752:1 753:1 754:1 755:1 756:2 757:1 
1 0:1 309:1 339:1 758:1 759:1 760:1 761:1 762:1 763:1 764:1 765:1 766:1 767:1 768:1 769:1 
1 256:1 414:1 791:1 792:1 793:1 794:1 795:2 796:1 
1 797:1 798:1 799:1 800:1 801:1 
1 0:1 643:1 816:1 817:1 818:1 819:1 820:1 821:1 822:1 
1 670:1 831:1 832:1 833:1 834:1 835:1 836:1 
1 153:1 856:1 857:1 858:1 859:1 860:1 861:1 862:1 863:1 864:1 
1 447:1 906:4 907:1 908:1 909:2 910:1 911:1 912:2 913:2 914:1 915:1 916:1 917:1 918:1 919:1 920:1 921:1 
1 173:1 210:1 684:1 693:1 932:1 942:1 952:1 953:1 954:1 955:1 956:1 
1 4:1 142:1 235:1 727:1 765:1 957:1 958:1 959:1 960:1 961:1 962:1 963:1 964:1 965:1 966:1 967:1 968:1 969:1 970:1 971:1 
1 148:1 429:1 530:1 835:1 931:1 991:1 992:1 993:1 994:1 995:1 996:1 997:1 
1 13:1 139:1 342:1 1011:1 1012:1 1013:1 1014:1 1015:1 1016:1 1017:1 1018:1 
1 19:1 707:1 1019:1 1020:1 1021:1 1022:1 1023:1 1024:1 1025:1 1026:1 1027:1 1028:1 1029:1 
1 126:1 183:1 799:1 1034:1 1035:1 1036:1 1037:1 1038:1 1039:1 1040:1 1041:1 1042:1 1043:1 1044:1 1045:1 
1 92:1 193:1 310:1 605:1 1046:1 1047:1 1048:1 1049:1 1050:1 1051:1 1052:1 1053:1 1054:1 
1 19:1 96:1 239:1 343:1 1055:1 1056:1 1057:1 1058:1 1059:1 
1 26:1 793:1 1060:1 1061:1 
1 15:1 92:1 623:1 636:1 979:1 1062:1 1063:1 1064:1 1065:1 1066:1 1067:1 1068:1 1069:1 1070:1 1071:1 
1 377:1 548:1 645:1 924:1 1141:1 
1 183:1 1142:1 1143:1 1144:1 1145:1 
1 19:1 123:1 650:1 1146:1 1147:1 1148:1 
1 42:2 594:1 1149:1 1150:1 1151:1 1152:1 1153:1 1154:1 1155:1 
1 40:1 42:1 97:1 115:1 189:1 210:1 284:1 726:1 898:1 989:1 1156:1 1157:1 1158:1 1159:1 1160:1 1161:1 
1 570:1 635:1 1162:1 1163:1 1164:1 1165:1 1166:1 1167:1 1168:1 1169:1 1170:1 1171:1 1172:1 
1 500:1 998:1 1201:1 1202:1 1203:1 
1 19:1 525:1 536:1 548:1 624:1 641:1 862:1 1047:1 1204:1 1205:1 1206:1 1207:1 1208:1 1209:1 
1 405:1 988:1 1210:1 1211:1 1212:1 1213:1 1214:1 1215:1 1216:1 
1 19:1 650:1 903:1 1228:1 1229:1 
1 129:1 534:1 1246:1 1247:1 1248:1 1249:1 1250:1 1251:1 1252:1 
1 39:1 40:1 42:1 256:1 310:1 736:1 863:1 1257:1 1258:1 1259:1 1260:1 
1 13:1 142:1 1273:1 1274:1 1275:1 1276:1 1277:1 1278:1 1279:1 
1 99:1 777:1 1280:1 1281:1 1282:1 1283:1 1284:1 1285:1 
1 126:1 461:1 758:1 1193:1 1289:1 1290:1 1291:1 1292:1 1293:1 1294:1 
1 1206:1 1295:1 
1 19:1 1170:1 1206:1 1296:1 1297:1 1298:1 1299:1 1300:1 
1 123:1 126:1 343:1 478:1 629:1 1301:1 1302:1 1303:1 1304:1 1305:1 1306:1 1307:1 1308:1 
1 19:1 384:1 488:1 1329:1 1330:1 
1 54:1 510:1 562:1 853:1 899:1 1206:1 1335:1 1336:1 1337:1 1338:1 1339:1 1340:1 1341:1 1342:1 1343:1 1344:1 
1 15:1 19:1 196:1 324:1 468:1 789:1 795:1 1361:1 1362:1 1363:1 1364:1 1365:1 1366:1 1367:1 
1 15:1 21:1 54:1 235:1 256:1 896:1 928:1 1370:1 1371:1 1372:1 
1 26:1 100:1 261:1 750:1 836:1 876:1 1373:1 1374:1 1375:1 1376:1 1377:1 1378:1 1379:1 1380:1 
1 20:1 577:1 1381:1 1382:1 1383:1 1384:1 
1 141:1 639:1 1125:1 1393:1 1394:1 1395:1 1396:1 1397:1 1398:1 
1 219:1 789:1 1399:1 
1 402:1 473:1 691:1 1353:1 1400:1 
1 15:1 47:1 93:1 263:1 881:1 1047:1 1403:1 1404:1 1405:1 1406:1 1407:1 1408:1 1409:1 1410:1 1411:1 
1 40:1 188:1 263:1 862:1 1021:1 1418:1 1419:1 
1 97:1 373:1 1122:1 1337:1 1434:1 1435:1 1436:1 1437:1 1438:1 1439:1 
1 3:1 19:1 153:1 331:1 386:1 469:1 583:1 641:1 892:1 987:1 1450:1 1451:1 1452:1 1453:1 1454:1 1455:1 1456:1 1457:1 1458:1 
1 126:1 1375:1 1459:1 1460:1 1461:1 1462:1 
1 19:1 55:1 228:1 341:1 344:1 345:1 1468:1 1469:1 1470:1 1471:1 1472:1 1473:1 
1 19:1 21:1 142:1 210:1 307:1 550:1 1021:1 1483:1 1484:1 1485:1 1486:1 
1 99:1 153:1 693:1 928:1 957:1 1487:1 1488:1 1489:1 1490:1 1491:1 1492:1 1493:1 1494:1 
1 42:1 233:1 255:1 485:1 1446:1 1507:1 1508:1 1509:1 1510:1 1511:1 1512:1 1513:1 1514:1 1515:1 1516:1 
1 153:1 176:1 256:1 1517:1 1518:1 1519:1 1520:1 1521:1 
1 13:1 39:1 99:1 153:1 827:1 862:1 1522:1 1523:1 1524:1 1525:1 
1 19:1 30:1 42:1 122:1 173:1 309:1 529:1 857:1 1526:1 1527:1 1528:1 1529:1 1530:1 1531:1 1532:1 1533:1 
1 182:1 233:1 237:1 344:1 380:1 439:1 568:1 991:1 1540:1 1541:1 1542:1 1543:1 
1 134:1 338:1 375:1 446:1 929:1 997:1 1115:1 1381:1 1544:1 1545:1 1546:1 1547:1 
1 338:1 654:1 876:1 987:1 1192:1 1553:1 1554:1 1555:1 1556:1 1557:1 1558:1 
1 13:1 39:1 78:1 115:1 582:1 786:1 951:1 996:1 1164:1 1375:1 1564:1 1565:1 1566:1 1567:1 1568:1 1569:1 1570:1 1571:1 1572:1 1573:1 1574:1 1575:1 
1 7:1 19:1 54:1 562:1 1582:1 1583:1 1584:1 1585:1 
1 495:1 929:1 989:1 1113:1 1604:1 1605:1 1606:1 1607:1 1608:1 
1 1609:1 1610:1 1611:1 
1 4:1 13:1 55:1 146:1 405:1 431:1 572:1 966:1 1204:1 1612:1 1613:1 
1 176:1 572:1 1299:1 
1 19:1 42:1 343:1 1605:1 1637:1 1638:1 
1 204:1 478:1 707:1 1644:1 1645:1 
1 40:1 1656:1 1657:1 1658:1 1659:1 1660:1 1661:1 1662:1 1663:1 1664:1 1665:1 1666:1 
1 183:1 516:1 961:1 1211:1 1503:1 1667:1 1668:1 1669:1 1670:1 1671:1 
1 75:1 428:1 574:1 993:1 1398:1 1672:1 1673:1 1674:1 1675:1 1676:1 1677:1 1678:1 
1 4:1 670:1 1344:1 1459:1 1679:1 1680:1 1681:1 1682:1 1683:1 1684:1 1685:1 1686:1 
1 27:1 176:1 326:1 467:1 478:1 546:1 960:1 1442:1 1502:1 1687:1 1688:1 1689:1 1690:1 1691:1 1692:1 
1 131:1 406:1 473:1 679:1 1693:1 1694:1 1695:1 1696:1 
1 204:1 450:1 485:1 574:1 605:1 1655:1 1721:1 1722:1 
1 21:1 75:1 115:1 646:1 662:1 1477:1 1723:1 1724:1 1725:1 1726:1 1727:1 1728:1 1729:1 1730:1 
1 2:1 26:1 40:1 54:1 188:1 342:2 384:1 425:1 650:1 795:1 862:1 935:1 1070:1 1130:1 1132:1 1725:1 1733:1 1734:1 1735:1 1736:1 1737:1 1738:1 1739:1 1740:1 
1 183:1 196:1 210:1 239:1 735:1 1267:1 1747:1 1748:1 1749:1 1750:1 1751:1 1752:1 1753:1 1754:1 
1 21:1 193:1 342:1 426:1 1758:1 1759:1 1760:1 1761:1 
1 259:1 473:1 855:1 1324:1 1394:1 1626:1 1764:1 1765:1 1766:1 1767:1 1768:1 
1 19:1 42:1 236:1 341:1 375:1 758:1 1769:1 1770:1 1771:1 1772:1 1773:1 1774:1 1775:1 1776:1 
1 19:1 23:1 141:1 256:1 541:1 548:1 724:1 989:1 1170:1 1787:1 1788:1 1789:1 1790:1 1791:1 1792:1 
1 23:1 40:1 332:1 597:1 1483:1 1793:1 1794:1 
1 132:1 862:1 1653:1 1795:1 1796:1 1797:1 
1 639:1 856:1 1459:2 1809:2 
1 54:1 176:1 679:1 882:1 1810:1 1811:1 1812:1 1813:1 1814:1 1815:1 1816:1 
1 42:1 271:1 594:1 659:1 759:1 876:1 1655:1 1817:1 1818:1 1819:1 1820:1 1821:1 
1 256:1 599:1 989:1 1822:1 1823:1 1824:1 1825:1 1826:1 1827:1 1828:1 
1 156:1 350:1 679:1 842:1 1016:1 1363:1 1768:1 1830:1 1831:1 1832:1 1833:1 1834:1 
1 44:1 99:1 203:1 381:1 647:1 669:1 1577:1 1838:1 1839:1 1840:1 1841:1 1842:1 1843:1 
1 259:1 473:1 998:1 1324:1 1563:1 1844:1 1845:1 1846:1 
1 30:1 55:1 75:1 188:1 360:1 760:1 882:1 975:1 1264:1 1439:1 1859:1 1860:1 1861:1 1862:1 1863:1 1864:1 
1 42:1 188:1 548:1 1352:1 1669:1 1867:1 1868:1 1869:1 1870:1 1871:1 1872:1 1873:1 
1 15:1 40:1 100:1 261:1 480:1 663:1 1365:1 1367:1 1906:1 1907:1 1908:1 
1 0:1 376:1 932:1 997:1 1928:1 1929:1 1930:1 1931:1 1932:1 1933:1 1934:1 1935:1 
1 13:1 197:1 331:1 418:1 766:1 1667:1 1937:1 1938:1 1939:1 1940:1 1941:1 1942:1 1943:1 1944:1 
1 139:1 447:1 670:1 686:1 1952:1 1953:1 1954:1 1955:1 1956:1 1957:1 1958:1 
1 251:1 406:1 481:1 1524:1 1772:1 1978:1 1979:1 1980:1 1981:1 1982:1 1983:1 1984:1 1985:1 1986:1 1987:1 1988:1 1989:1 
1 1048:1 1994:1 1995:1 
1 485:1 525:1 637:1 1723:1 1996:1 1997:1 1998:1 1999:1 
1 210:1 250:1 876:1 1055:1 1259:1 1669:1 2020:1 2021:1 
1 641:1 892:1 1655:1 2022:1 2023:1 2024:1 2025:1 2026:1 2027:1 2028:1 2029:1 2030:1 
1 285:1 991:1 1206:1 1533:1 1609:1 2034:1 2035:1 
1 128:1 1443:1 1497:1 1914:1 2051:1 
1 28:1 87:1 418:1 480:1 862:1 873:1 1171:1 2057:1 2058:1 2059:1 
1 256:1 605:2 1131:1 1159:1 1298:1 1475:1 2060:1 2061:1 2062:1 2063:1 2064:1 
1 39:1 40:1 259:1 469:1 480:1 1113:1 1282:1 1357:1 1381:1 1790:1 2069:1 2070:1 2071:1 2072:1 2073:1 2074:1 2075:1 2076:1 
1 193:1 307:1 808:1 899:1 2082:1 2083:1 2084:1 2085:1 2086:1 2087:1 2088:1 2089:1 
1 376:1 853:1 2096:1 
1 131:1 153:1 286:1 510:1 516:1 534:1 703:1 862:1 1518:1 2097:1 2098:1 2099:1 2100:1 
1 377:1 661:1 1055:1 1362:1 1450:1 2101:1 2102:1 2103:1 2104:1 2105:1 2106:1 2107:1 
1 862:1 1170:1 2108:1 2109:1 
1 19:1 122:1 1324:1 1708:1 2110:1 2111:1 2112:1 
1 21:1 139:1 368:1 635:1 1275:1 1286:1 2113:1 2114:1 2115:1 2116:1 2117:1 2118:1 2119:1 2120:1 2121:1 2122:1 2123:1 
1 91:2 126:1 439:1 1443:1 1446:1 2124:1 2125:1 
1 19:1 95:1 931:1 1363:1 2138:1 
1 54:1 453:1 478:1 1251:1 1819:1 2094:1 2146:1 2147:1 2148:1 2149:1 
1 92:1 656:1 736:1 2159:1 2160:1 2161:1 2162:1 
1 132:1 254:1 256:1 577:1 605:1 611:1 693:1 758:1 1669:1 2179:1 2180:1 2181:1 2182:1 2183:1 
1 193:1 341:1 431:1 750:1 997:1 1357:1 1417:1 1529:1 1568:1 2211:1 2212:1 2213:1 2214:1 2215:2 2216:1 2217:1 2218:1 
1 210:1 991:1 1302:1 2219:1 2220:1 2221:1 2222:1 2223:1 
1 837:1 2224:1 2225:1 2226:1 2227:1 2228:1 
1 176:1 263:1 418:1 929:1 2264:1 2265:1 2266:1 2267:1 2268:1 2269:1 2270:1 2271:1 
1 256:1 446:1 463:1 929:1 1170:1 1583:1 1797:1 2274:1 2275:1 2276:1 2277:1 2278:1 2279:1 2280:1 2281:1 2282:1 2283:1 2284:1 
1 19:1 1382:1 1483:1 2285:1 2286:1 
1 233:1 256:1 1135:1 1537:1 1653:1 2298:1 2299:1 
1 19:1 55:1 126:1 138:1 756:1 1299:1 1823:1 2300:1 2301:1 2302:1 2303:1 
1 439:1 712:1 716:1 750:1 975:1 1164:1 2304:1 2305:1 
1 327:1 624:1 663:1 2323:1 
1 4:1 2104:1 2327:1 2328:1 
1 323:1 472:1 906:2 912:2 919:1 2156:1 2343:1 2344:1 2345:1 2346:1 2347:1 2348:1 2349:1 2350:1 2351:1 2352:1 2353:1 
1 473:1 2359:1 2360:1 2361:1 2362:1 2363:1 
1 123:1 158:1 641:1 1983:1 2072:1 2364:1 2365:1 2366:1 2367:1 2368:1 
1 256:1 1718:1 2374:1 2375:1 2376:1 2377:1 
1 26:1 2383:1 2384:1 
1 670:1 1715:1 2387:1 2388:1 2389:1 
1 6:1 75:1 153:1 221:1 573:1 1010:1 1305:1 1475:1 1853:1 2390:1 2391:1 2392:1 2393:1 2394:1 2395:1 2396:1 2397:1 2398:1 
1 13:1 21:1 461:1 661:1 1171:1 1596:1 1905:1 2399:1 2400:1 2401:1 2402:1 2403:1 2404:1 2405:1 2406:1 
1 271:1 514:1 627:1 724:1 932:1 1760:1 1904:1 2407:1 2408:1 2409:1 2410:1 2411:1 2412:1 2413:1 2414:1 2415:1 2416:1 
1 141:1 362:1 447:1 672:1 724:1 876:1 960:1 1170:1 1197:1 1333:1 1761:1 2417:1 2418:1 2419:1 
1 210:1 405:1 578:1 594:1 990:1 1164:1 1212:1 2062:1 2420:1 2421:1 
1 26:1 1732:1 2422:1 2423:1 
1 42:1 480:1 636:1 1372:1 2374:1 2424:1 2425:1 2426:1 2427:1 
1 19:1 176:1 332:1 368:1 376:1 624:1 1267:1 2023:1 2428:1 2429:1 
1 158:1 180:1 516:1 581:1 611:1 1074:1 1264:1 1757:1 2431:1 
1 480:1 869:1 896:1 1012:1 1725:1 1772:1 1963:1 1984:1 2432:1 2433:1 2434:1 2435:1 2436:1 
1 304:1 316:1 344:1 571:1 1324:1 2441:1 2442:1 2443:1 
1 19:1 2444:1 2445:1 2446:1 2447:1 
1 42:1 119:1 546:1 2448:1 2449:1 2450:1 2451:1 2452:1 2453:1 2454:1 2455:1 
1 42:1 132:1 662:1 713:1 988:1 1296:1 2146:1 2456:1 2457:1 2458:1 2459:1 2460:1 2461:1 2462:1 
1 2463:1 2464:1 2465:1 
1 30:1 40:1 99:1 439:1 670:1 882:1 1222:1 2478:1 
1 100:1 321:1 2479:1 2480:1 
1 19:1 100:1 105:1 115:1 132:1 228:1 578:1 1159:1 1421:1 1591:1 1710:1 2010:1 2481:1 2482:1 2483:1 2484:1 2485:1 2486:1 2487:1 2488:1 2489:1 2490:1 
1 4:1 13:1 92:1 134:1 368:1 468:1 480:1 638:1 654:1 979:1 1136:1 1447:1 2119:1 2491:1 2492:1 2493:1 2494:1 2495:1 2496:1 
1 198:1 657:1 908:1 1170:1 1276:1 2497:1 2498:1 2499:1 2500:1 2501:1 
1 362:1 939:1 1264:1 1310:1 2505:1 2506:1 2507:1 2508:1 2509:1 2510:1 2511:1 2512:1 
1 100:1 109:1 759:1 922:1 987:1 1605:1 2294:1 2513:1 2514:1 2515:1 
1 510:1 636:1 862:1 975:1 1211:1 1831:1 2522:1 2523:1 2524:1 2525:1 2526:1 2527:1 
1 19:1 30:1 223:1 650:1 654:1 1269:1 1310:1 1627:1 2398:1 2528:1 2529:1 
1 614:1 695:1 827:1 1059:1 1363:1 1422:1 1611:1 2270:1 2534:1 2535:1 2536:1 2537:1 
1 54:1 112:1 115:1 223:1 718:1 731:1 936:1 1049:1 1554:1 2549:1 2550:1 2551:1 2552:1 2553:1 
1 176:1 184:1 351:1 414:1 731:1 862:1 1194:1 1772:1 2043:2 2554:1 2555:1 2556:1 2557:1 2558:1 2559:1 2560:1 2561:1 
1 40:1 183:1 795:1 876:3 1041:1 1357:1 1359:1 1606:1 2562:1 2563:1 2564:1 2565:1 2566:1 2567:1 2568:1 2569:1 
1 15:1 87:1 541:1 658:1 1197:1 1280:1 1547:1 1756:1 2579:1 2580:1 2581:1 2582:1 2583:1 2584:1 2585:1 
1 19:1 47:1 736:1 1403:1 2299:1 2549:1 2586:1 2587:1 2588:1 
1 196:1 1099:1 1206:1 1715:1 2589:1 2590:1 2591:1 2592:1 2593:1 
1 30:1 40:1 98:1 267:1 1904:1 2145:1 2516:1 2594:1 2595:1 2596:1 
1 362:1 629:1 1031:1 1306:1 2091:1 2115:1 2602:1 2603:1 2604:1 2605:1 2606:1 
1 19:1 336:1 357:1 478:1 859:1 960:1 1062:1 1219:1 1259:1 1534:1 1582:1 2409:1 2506:1 2607:1 2608:1 2609:1 2610:1 2611:1 2612:1 
1 214:1 239:1 2616:1 2617:1 2618:1 2619:1 2620:1 
1 309:1 313:1 1169:1 1523:1 2621:1 2622:1 2623:1 2624:1 2625:1 2626:1 2627:1 2628:1 2629:1 
1 254:1 458:1 691:1 812:1 1222:1 1503:1 1574:1 2630:1 2631:1 2632:1 2633:1 2634:1 2635:1 2636:1 2637:1 
1 176:1 368:1 983:1 2638:1 2639:1 2640:1 
1 221:1 275:1 635:1 1078:1 1772:1 2641:1 2642:1 2643:1 2644:1 
1 66:1 261:1 767:1 795:1 1181:1 1800:1 2657:1 2658:1 2659:1 2660:1 
1 40:1 206:1 406:1 473:1 580:1 658:1 695:1 936:1 1363:1 2592:1 2663:1 2664:1 2665:1 2666:1 2667:1 2668:1 2669:1 2670:1 2671:1 
1 203:1 384:1 638:1 758:1 2318:1 2672:1 2673:1 
1 54:1 100:1 244:1 530:1 1725:1 1732:1 1953:1 2230:1 2683:1 2684:1 2685:1 2686:1 
1 41:1 480:1 634:1 1053:1 1250:1 2560:1 2699:1 2700:1 
1 2706:1 2707:1 2708:1 2709:1 2710:1 
1 57:1 153:1 363:1 416:1 695:1 1212:1 1877:1 2675:1 2711:1 2712:1 2713:1 2714:1 2715:1 2716:1 
1 19:1 153:1 156:1 602:1 733:1 1372:1 2722:1 2723:1 
1 67:1 239:1 581:1 2731:1 2732:1 
1 1269:1 2733:1 2734:1 
1 183:1 587:1 641:1 1366:1 1533:1 1741:1 2138:1 2741:2 2742:1 2743:1 
1 153:1 528:1 822:1 1173:1 1633:1 1720:1 2714:1 2751:1 2752:1 2753:1 2754:1 2755:1 2756:1 
1 600:1 
1 256:1 345:1 480:1 2048:1 2757:1 2758:1 
1 42:1 256:1 286:1 546:1 1792:1 2667:1 2762:1 2763:1 2764:1 2765:1 
1 374:1 375:1 876:1 1300:1 1301:2 1363:1 2562:1 2695:1 
1 231:1 622:1 1502:1 2795:1 
1 439:1 896:1 1612:1 1998:1 2796:1 
1 173:1 431:1 795:1 1596:1 2797:1 
1 139:1 693:1 762:1 767:1 1016:1 1399:1 1831:1 2715:1 2779:1 2802:1 2803:1 
1 261:1 494:1 604:1 1333:1 1667:1 2819:1 
1 100:1 2478:1 2686:1 2820:1 
1 13:1 176:1 233:1 236:1 256:2 263:1 624:1 641:1 1516:3 2076:1 2821:1 
1 494:1 605:1 987:1 1533:1 1626:1 2828:1 2829:1 2830:1 2831:1 2832:1 2833:1 
1 193:1 1363:1 1388:1 1611:1 1669:1 1914:1 2834:1 2835:1 2836:1 2837:1 2838:1 2839:1 
1 374:1 520:1 548:1 731:1 2840:1 2841:2 2842:1 2843:1 2844:1 2845:1 
1 19:1 183:1 722:1 731:1 1164:1 1219:1 2398:1 2828:1 2846:1 2847:1 2848:1 2849:1 2850:1 2851:1 2852:1 2853:1 2854:1 
1 19:1 143:1 144:1 1297:1 1397:1 2150:1 2756:1 2855:1 2856:1 
1 4:1 142:1 876:1 882:1 1564:1 1761:1 2523:1 2577:1 2857:1 2858:1 2859:1 
1 1027:1 1357:1 1379:1 2507:1 2860:1 2861:1 2862:1 2863:1 
1 13:1 19:1 418:1 487:1 577:1 1129:1 2206:1 2556:1 2864:1 
1 361:1 501:1 670:1 1976:1 2884:1 2885:1 2886:1 
1 13:1 19:1 99:1 222:1 331:1 645:1 657:1 758:1 2279:1 2891:1 2892:1 2893:1 
1 126:1 581:1 1091:1 1987:1 2895:1 2896:1 2897:1 2898:1 
1 317:1 362:1 467:1 512:1 1297:1 1604:1 2746:1 2899:1 2900:1 2901:1 2902:1 2903:1 
1 594:1 624:1 662:2 869:1 1170:1 1212:1 2904:1 2905:1 
1 345:1 1333:1 1362:1 1976:1 1991:1 2907:1 2910:1 2911:1 2912:1 2913:1 
1 1:1 40:1 500:1 1589:1 2292:1 2523:1 2931:1 2932:1 2933:1 
1 368:1 2938:1 
1 13:1 100:1 193:1 259:1 578:1 1156:1 1210:1 2939:1 2940:1 2941:1 2942:1 2943:1 2944:1 2945:1 2946:1 2947:1 2948:1 
1 44:1 227:1 475:1 726:1 779:1 1503:1 1772:1 2963:2 2964:1 2965:1 2966:1 2967:1 2968:1 2969:1 2970:1 
1 19:1 345:1 666:1 1541:1 2992:1 
1 256:1 548:1 599:2 2447:1 2900:1 2993:1 
1 377:2 523:1 641:1 1057:1 1096:1 2994:1 2995:1 2996:1 2997:1 
1 40:1 210:1 217:1 469:1 638:1 1021:1 1450:1 3011:1 3012:1 3013:1 3014:1 3015:1 3016:1 3017:1 3018:1 3019:1 
1 256:2 1181:1 2402:1 3020:1 
1 239:1 468:1 1055:1 1164:1 1212:1 3026:1 3027:1 3028:1 3029:1 3030:1 3031:1 3032:1 3033:1 
1 2110:1 3037:1 3038:1 
1 13:1 424:1 509:1 688:1 1112:1 1157:1 3039:1 3040:1 
1 87:1 139:1 375:1 713:1 718:1 1037:1 1596:1 1703:1 3041:1 3042:1 3043:1 3044:1 3045:1 3046:1 3047:1 3048:1 3049:1 3050:1 3051:1 
1 256:1 360:1 461:1 475:1 562:1 602:1 754:1 971:1 1103:2 1367:2 1403:1 1559:1 2043:1 3052:1 3053:2 3054:1 3055:1 3056:1 
1 40:1 99:1 206:1 256:1 351:1 439:1 562:1 592:1 679:1 3063:1 3064:1 3065:1 3066:1 3067:1 3068:1 
1 19:1 256:1 314:1 1306:1 3085:1 3086:1 3087:1 3088:1 3089:1 
1 548:1 862:1 1162:1 1542:1 1675:1 1834:1 2635:1 3087:1 3100:1 
1 7:1 15:1 256:1 647:1 790:1 795:1 1170:1 1776:1 2059:1 3101:1 3102:1 3103:1 3104:1 
1 17:1 26:1 68:1 87:2 115:1 256:1 662:1 862:1 923:1 981:1 1235:1 1350:1 1357:1 1467:1 1723:1 1917:1 2374:1 2667:1 3111:1 
1 196:1 255:1 439:1 558:1 714:1 1399:1 1843:1 2919:1 3112:1 3113:1 
1 13:1 112:1 314:2 624:1 1963:2 3120:1 
1 19:1 326:1 336:1 362:1 663:1 929:1 2264:1 3054:1 3055:1 3121:1 3122:1 3123:1 3124:1 3125:1 
1 162:1 664:1 2538:1 3127:1 3128:1 3129:1 
1 23:1 40:1 42:1 698:1 3130:1 3131:1 
1 1704:1 1722:1 3132:1 3133:1 3134:1 3135:1 3136:1 3137:1 3138:1 3139:1 3140:1 
1 398:1 1772:1 3074:1 3152:1 3153:1 3154:1 3155:1 3156:1 3157:1 3158:1 
1 126:1 1653:1 2374:1 3166:1 3167:1 3168:1 3169:1 
1 100:1 261:1 262:1 264:1 265:1 266:1 574:1 577:1 2379:1 2994:1 3013:1 3175:1 
1 13:1 19:1 2273:1 3176:1 3177:1 3178:1 
1 26:1 2522:1 
1 19:1 42:1 57:1 203:1 283:1 439:1 561:1 655:1 1288:1 3198:1 
1 42:1 97:1 203:2 405:1 1142:1 1251:1 1653:1 3199:1 3200:1 3201:1 3202:1 3203:1 3204:1 
1 68:1 305:1 342:1 534:1 
1 339:1 439:1 461:1 475:1 1250:1 1276:1 2730:1 3227:1 3228:1 3229:1 
1 19:1 99:1 406:1 762:1 3230:1 3231:1 3232:1 
1 99:1 122:1 149:1 153:1 183:1 316:1 635:1 3233:1 3234:1 3235:1 3236:1 3237:1 
1 28:1 183:1 251:1 651:1 1118:1 3243:1 3244:1 3245:1 3246:1 3247:1 
1 40:1 84:1 86:1 115:1 263:1 362:1 639:1 731:1 832:1 836:1 998:1 1129:1 1552:1 3248:1 3249:1 3250:1 
1 680:1 1964:1 3251:1 3252:1 
1 1164:1 2098:1 2658:1 3136:1 3253:1 
1 548:1 733:1 1355:1 2633:1 2957:1 
1 525:1 661:1 1118:1 3261:1 3262:1 3263:1 3264:1 3265:1 3266:1 3267:1 3268:1 
1 13:1 40:1 153:1 255:1 263:1 378:1 439:1 1182:1 1428:1 1761:1 2596:1 3276:1 3277:1 3278:1 3279:1 3280:1 3281:1 
1 94:1 762:1 2522:1 3282:1 3283:1 3284:1 
1 42:1 406:1 516:1 536:1 573:1 750:1 827:1 990:1 1170:1 1357:1 1653:1 1703:1 2049:1 2054:1 3285:1 3286:1 3287:1 
1 19:1 30:1 92:1 198:1 385:1 485:1 487:1 3259:1 3292:1 3293:1 3294:1 
1 278:1 624:1 816:1 1276:1 1981:1 2165:1 3304:1 3305:1 3306:1 3307:1 
1 52:1 1433:1 3308:1 
1 129:1 198:1 237:1 807:1 990:1 1136:1 1554:1 1627:1 1665:1 3315:1 3316:1 3317:1 3318:1 
1 155:1 316:1 605:1 1422:1 2133:1 3319:1 3320:1 
1 142:1 485:1 702:1 828:1 1722:1 2051:1 3329:1 3330:1 3331:1 
1 4:1 132:1 2384:1 
1 126:1 139:1 294:1 645:1 743:1 833:1 837:1 1100:1 1450:1 1590:1 1591:1 2307:1 2551:1 3150:1 3352:1 3353:1 3354:1 3355:1 3356:1 3357:1 3358:1 3359:1 3360:1 
1 26:1 87:1 139:1 384:1 461:1 488:1 641:1 814:1 1467:1 2628:1 3200:1 3361:1 3362:1 3363:1 3364:1 3365:1 3366:1 
1 26:1 126:1 210:1 494:1 2957:1 3367:1 3368:1 3369:1 
1 19:1 304:1 1194:1 1675:1 1819:1 2108:1 3370:1 3371:1 3372:1 3373:1 
1 19:1 39:1 42:1 126:1 182:1 217:1 251:1 294:1 314:1 378:1 480:1 641:1 759:1 931:1 1419:1 1554:1 2809:1 3374:1 3375:1 3376:1 3377:1 3378:1 3379:1 
1 28:1 239:1 263:1 610:1 1212:1 1216:1 1960:1 3380:2 3381:1 3382:1 3383:1 3384:1 3385:1 3386:1 3387:1 
1 19:1 568:1 759:1 1250:1 1367:1 1395:1 3398:1 3399:1 3400:1 
1 30:1 42:1 126:1 475:1 865:1 929:1 953:1 1849:1 2870:1 3406:1 3407:1 3408:1 3409:1 3410:1 3411:1 3412:1 
1 30:1 176:1 183:1 231:1 431:1 546:1 1596:1 
1 180:1 183:1 320:1 540:1 862:1 1363:2 1675:1 3377:1 3413:1 3414:1 3415:1 
1 40:1 92:1 765:1 1429:1 3421:1 3422:1 3423:1 3424:1 3425:1 3426:1 3427:1 3428:1 
1 13:1 256:1 1641:1 3429:1 3430:1 
1 6:1 15:1 27:1 176:1 223:1 386:1 662:1 936:1 1925:1 3431:1 3432:1 3433:1 3434:1 
1 19:1 99:1 578:1 598:1 775:1 862:1 1280:1 1549:1 1995:1 2498:1 3438:1 3439:1 
1 13:1 117:1 808:1 862:1 1170:1 1417:1 2374:1 2507:1 2555:1 2577:1 2599:1 3453:1 3454:1 3455:1 3456:1 
1 148:1 577:1 650:1 2220:1 3457:1 3458:1 3459:1 
1 13:1 294:1 406:1 577:1 726:1 1382:1 1655:1 1793:1 1998:1 3460:1 3461:1 3462:1 3463:1 
1 1021:1 1542:1 3132:1 3464:1 3465:1 3466:1 3467:1 3468:1 3469:1 
1 4:1 132:1 3470:1 3471:1 
1 795:1 1772:1 3212:1 3472:1 3473:1 
1 431:1 664:1 1170:1 1459:1 1574:1 2525:1 3486:1 3487:1 3488:1 
1 42:1 341:1 3501:1 3502:1 
1 1:1 405:1 1066:1 1576:1 2088:1 3102:1 3186:1 3508:1 3509:1 
1 19:1 332:1 612:1 1118:1 1229:1 1612:1 1668:1 1722:1 2759:1 2855:1 3524:1 3525:1 3526:1 3527:1 3528:1 3529:1 
1 19:1 142:1 206:1 294:1 1229:1 1483:1 2481:1 3530:1 
1 13:1 58:1 480:1 496:1 765:1 845:1 1538:1 1833:1 3531:1 3532:1 3533:1 3534:1 3535:1 
1 473:1 635:1 1353:1 3538:1 
1 75:1 99:1 126:1 1092:1 1135:1 1170:1 1974:1 2596:1 3539:1 3540:1 3541:1 3542:1 3543:1 3544:1 
1 18:1 255:1 1206:1 1239:1 2748:1 
1 13:1 132:1 193:1 254:1 641:1 789:1 876:1 990:1 1041:1 1190:1 1537:1 1998:1 2043:1 3045:1 3112:1 3551:1 
1 13:1 176:1 263:1 480:1 3557:1 3558:1 
1 259:1 339:1 570:2 590:1 594:1 795:1 882:1 1382:1 3176:1 3178:1 3248:1 3563:1 3564:1 
1 19:1 525:1 837:1 1206:1 3565:2 3566:1 
1 15:1 40:1 148:1 1375:1 2863:1 3589:1 3590:1 3591:1 
1 331:1 713:1 758:1 759:1 806:1 1304:1 1744:1 2271:1 2490:1 3085:1 3592:1 3593:1 3594:1 
1 316:1 837:1 876:1 1131:1 1849:1 2038:1 2231:1 3498:1 3596:1 3597:1 
1 99:1 294:1 574:1 759:1 864:1 1401:1 1576:1 2723:1 2996:1 3598:1 3599:1 
1 15:1 863:1 1162:1 2231:1 
1 236:1 594:1 1891:1 2863:1 3614:1 3615:1 
1 19:1 176:1 341:1 524:1 1156:1 
1 203:1 316:1 362:1 385:1 504:1 679:1 1037:1 1322:1 1975:1 3616:1 3617:1 3618:1 3619:1 
1 222:1 318:1 496:1 883:1 3620:1 
1 375:1 439:1 480:1 1131:1 1399:1 1576:1 
1 19:1 320:1 1157:1 1209:1 1306:1 1324:1 2386:1 3470:1 3635:1 3636:1 3637:1 3638:1 3639:1 
1 1004:1 1191:1 1576:1 2380:1 3644:1 3645:1 3646:1 3647:1 
1 17:1 193:1 345:1 551:1 929:1 1450:1 2010:1 2118:1 3648:1 3649:1 3650:1 3651:1 3652:1 3653:1 
1 39:1 242:1 368:1 2001:1 3656:1 3657:1 3658:1 
1 314:1 570:1 624:1 1165:1 2490:1 3212:1 3214:1 3667:1 3668:1 3669:1 3670:1 3671:1 
1 40:1 534:1 664:1 1483:1 1609:1 2377:1 2525:1 2560:1 3293:1 3486:1 3678:1 3679:1 3680:1 3681:1 3682:1 
1 26:1 54:1 256:1 258:1 343:1 759:1 912:1 2138:1 3683:1 3684:1 3685:1 3686:1 
1 285:1 583:1 603:1 768:1 1408:1 1718:1 1816:1 1980:1 2184:1 3687:1 3688:1 3689:1 3690:1 
1 505:1 876:1 1030:1 1538:1 1609:1 1786:1 1956:1 2561:1 3170:1 3701:1 3702:1 3703:1 3704:1 3705:1 
1 305:1 341:1 643:1 1162:1 1212:1 1609:1 1914:1 2610:1 3706:1 3707:1 3708:1 3709:1 3710:1 
1 87:1 200:1 267:1 654:1 3711:1 3712:1 3713:1 
1 118:1 176:1 326:1 404:1 470:1 740:1 768:1 985:1 1257:1 1277:1 1344:1 1502:1 1640:1 3552:1 3719:1 3720:1 3721:1 3722:1 3723:1 3724:1 3725:1 
1 1088:1 1405:1 
1 26:1 574:1 898:1 2049:1 2141:1 
1 128:1 132:1 156:1 998:1 2010:1 3726:1 3727:1 3728:1 3729:1 3730:1 
1 26:1 228:1 605:1 662:1 1723:1 1904:1 1999:1 3390:1 3741:1 3742:1 3743:1 
1 21:1 272:1 534:1 574:1 862:1 1533:1 1831:1 2104:1 2203:1 2292:1 2932:1 3573:1 3744:1 3745:1 3746:1 3747:1 3748:1 3749:1 3750:1 
1 99:1 115:1 210:1 256:1 895:1 1363:1 1399:1 2204:1 2774:1 3395:1 3766:1 3767:1 3768:1 
1 471:1 1596:1 1772:1 2170:1 2172:1 3769:1 
1 190:1 251:1 309:1 1092:1 1669:1 2624:1 2988:1 3025:1 3424:1 3770:1 3771:1 3772:1 
1 26:1 548:1 702:1 2645:1 3773:1 
1 13:1 26:1 100:1 115:1 256:1 259:1 439:1 594:1 663:1 1170:1 1534:1 2556:1 3774:1 3775:1 3776:1 
1 6:1 475:1 561:1 624:1 997:1 1459:1 2186:1 2577:1 3176:1 3777:1 3778:1 3779:1 3780:1 
1 4:1 40:1 2909:1 3788:1 
1 40:1 99:1 119:1 206:1 294:1 796:1 936:1 1232:1 1310:1 1334:1 2269:1 2673:1 3790:1 3791:1 3792:1 3793:1 3794:1 3795:1 
1 19:1 276:1 341:1 2131:1 2147:1 3796:1 3797:1 3798:1 
1 173:1 210:1 341:1 1212:1 1554:1 1830:1 2171:1 2700:1 3176:1 3799:1 3800:1 3801:1 
1 19:1 228:1 605:1 637:1 814:1 1051:1 1522:1 1609:1 1722:1 1725:1 3802:1 3803:1 3804:1 
1 183:1 376:1 713:1 887:1 2498:1 3088:1 3805:1 3806:1 3807:1 3808:1 
1 310:1 650:1 1282:1 2618:1 3813:1 
1 19:1 26:1 50:1 54:1 202:1 256:1 502:1 2189:1 3773:1 3816:1 3817:1 3818:1 3819:1 
1 13:1 91:1 105:1 783:1 3476:1 3822:1 3823:1 
1 20:1 120:1 250:1 1131:1 3348:1 3831:1 3832:1 3833:1 3834:1 
1 80:1 100:1 377:1 747:1 1324:1 1367:1 1599:1 1959:1 2384:1 3332:1 3835:1 3836:1 
1 19:1 135:1 401:1 639:1 987:1 1324:1 1576:1 3837:1 3838:1 3839:1 3840:1 3841:1 3842:1 
1 239:1 271:1 285:1 912:1 1425:1 1538:1 2374:1 2523:1 2605:1 3843:1 3844:1 
1 19:1 115:1 251:1 327:1 473:1 480:1 794:1 814:1 1078:1 1163:1 1171:1 2112:1 2667:1 3845:1 3846:1 
1 23:1 42:1 594:1 693:1 902:1 2001:1 2341:1 3161:1 3859:1 3860:1 3861:1 3862:1 3863:1 3864:1 3865:1 
1 87:1 206:1 679:1 1164:1 2202:1 2304:1 3870:1 3871:1 3872:1 
1 512:1 523:1 1012:1 1096:1 1522:1 3873:1 3874:1 3875:1 
1 206:1 447:1 795:1 1077:1 1669:1 2372:1 3138:1 3876:1 3877:1 3878:1 3879:1 
1 168:1 176:1 439:1 990:1 2304:1 3880:1 3881:1 3882:1 3883:1 3884:1 
1 148:1 731:1 734:1 789:1 1550:1 3885:1 3886:1 3887:1 3888:1 3889:1 3890:1 3891:1 
1 13:1 183:1 326:1 384:1 602:1 736:2 1353:1 1399:1 2314:1 2573:1 3892:1 3893:1 3894:1 
1 13:1 28:1 492:1 702:1 1324:1 1408:1 1534:1 3032:1 3690:1 3895:1 3896:1 3897:1 3898:1 3899:1 3900:1 3901:1 
1 91:1 529:1 649:1 795:1 1363:1 2635:1 3407:1 3904:1 3905:1 3906:1 
1 180:1 183:1 316:1 695:1 882:1 1286:1 1398:1 1576:1 2038:1 3907:1 3908:1 3909:1 3910:1 3911:1 
1 1112:1 3912:1 3913:1 3914:1 3915:1 3916:1 
1 13:1 384:1 892:1 3297:1 3459:1 3922:1 
1 75:1 369:1 750:1 791:1 824:1 1132:1 2161:1 3926:1 3927:1 3928:1 3929:1 
1 42:1 57:1 81:1 203:1 256:1 351:1 374:1 478:1 789:1 1428:1 1442:1 1655:1 2072:1 3930:1 3931:1 
1 775:1 912:1 3932:1 3933:1 3934:1 
1 40:1 142:1 442:1 731:1 1276:1 3944:1 3945:1 
1 100:1 1994:1 3952:1 3953:1 
1 482:1 963:1 2610:1 2971:1 3959:1 3960:1 3961:1 3962:1 
1 72:1 385:1 577:1 3569:1 3963:1 3964:1 3965:1 3966:1 3967:1 
1 148:1 1170:1 1446:1 3968:1 3969:1 
1 19:1 226:1 294:1 1021:1 1098:2 1534:1 3972:1 3973:1 3974:1 3975:1 3976:1 
1 19:1 294:1 480:1 1375:1 3293:1 3980:1 3981:1 3982:1 
1 132:1 259:1 2709:1 3139:1 3991:1 
1 701:1 760:1 1107:1 1194:1 1324:1 2977:1 3996:1 
1 210:1 231:1 344:1 571:1 572:1 1477:1 1522:1 3832:1 3997:1 3998:1 3999:1 4000:1 4001:1 4002:1 
1 339:1 670:1 834:1 836:1 1276:1 3229:1 3653:1 4003:1 4004:1 4005:1 4006:1 
1 42:1 203:1 439:2 516:1 577:1 1165:1 3056:1 4009:1 4010:1 4011:1 
1 68:1 256:1 377:1 534:1 548:1 570:1 713:1 806:1 929:1 984:1 1069:1 1641:1 2091:1 2982:1 3297:1 3593:1 3594:1 4012:1 4013:1 4014:1 
1 19:1 1559:1 2044:1 3161:1 4015:1 4016:1 
1 15:1 245:1 647:1 711:1 715:1 1118:1 1229:1 1576:1 1698:1 1793:1 4017:1 4018:1 4019:1 4020:1 4021:1 
1 15:1 397:1 685:1 1078:1 1139:1 3367:1 3458:1 4022:1 4023:1 4024:1 
1 369:1 376:1 604:1 1209:1 2721:1 4025:1 4026:1 4027:1 
1 14:1 15:1 54:1 126:1 196:1 239:1 406:1 426:1 624:1 795:1 1050:1 1357:1 1864:1 1917:1 2299:1 4036:1 4037:1 4038:1 4039:1 4040:1 4041:1 
1 67:1 344:1 447:1 1761:1 4056:1 4057:1 4058:1 4059:1 4060:1 4061:1 
1 13:1 19:1 54:1 177:1 278:1 468:1 605:1 657:1 814:1 1204:1 1340:1 1404:1 3493:1 4062:1 4063:1 4064:1 
1 21:1 58:1 139:1 4065:1 4066:1 4067:1 
1 87:1 112:1 119:1 500:1 1004:1 1391:1 1590:1 1987:1 3894:1 3959:1 4068:1 4069:1 4070:1 
1 13:1 310:1 377:1 605:1 2110:1 4071:1 
1 19:1 52:1 54:1 126:1 176:1 525:1 929:1 1202:1 1381:1 1477:1 4072:1 4073:1 
1 263:1 345:2 360:1 362:1 405:1 439:1 701:1 838:1 989:1 1062:1 1078:1 1212:1 1408:1 1564:1 4078:1 
1 314:1 384:1 461:1 1450:1 1477:1 2710:1 3855:1 4079:1 4080:1 4081:1 4082:1 
1 30:1 210:1 500:1 635:1 4092:1 4093:1 4094:1 
1 4100:1 4101:1 
1 156:1 327:1 568:1 1263:1 3575:1 4102:1 4103:1 4104:1 4105:1 4106:1 
1 13:1 19:1 226:1 263:1 547:1 862:1 997:1 1790:1 2215:1 2284:1 4111:1 
1 321:1 572:1 725:1 2563:1 3076:1 3959:1 4138:1 4139:1 4140:1 4141:1 4142:1 4143:1 4144:1 4145:1 4146:1 4147:1 
1 57:1 360:1 536:1 1068:1 3140:1 4148:1 4149:1 4150:1 4151:1 4152:1 
1 0:1 40:1 256:1 1618:1 2702:1 
1 183:1 239:1 4163:1 4164:1 
1 118:1 153:1 198:1 384:1 480:1 525:1 570:1 736:1 876:1 985:1 1204:1 4166:1 4167:1 4168:1 
1 19:1 26:1 129:1 446:1 447:1 841:1 1212:1 1576:1 1583:1 1732:1 2194:1 2374:1 4157:1 4169:1 4170:1 4171:1 
1 13:1 39:1 40:1 112:1 162:1 203:1 310:1 316:1 344:1 362:1 385:1 473:1 480:1 590:1 644:1 862:1 1192:1 2133:1 4177:1 4178:1 4179:1 4180:1 4181:1 
1 19:1 126:1 351:1 660:1 1170:1 2072:1 3891:1 4197:1 4198:1 4199:1 
1 368:1 384:1 1353:1 1761:1 2074:1 2900:1 4203:1 4204:1 4205:1 
1 99:1 256:1 1324:1 1576:1 2036:1 
1 13:1 57:1 81:1 94:1 122:1 316:1 509:1 624:1 638:1 646:1 657:1 703:1 795:1 1282:1 1447:1 1844:1 2231:1 2792:1 3297:1 3652:1 4211:1 4212:1 4213:1 4214:1 4215:1 4216:1 4217:1 4218:1 4219:1 
1 126:1 903:1 924:1 1118:1 2896:1 3853:1 4220:1 
1 439:1 594:1 695:1 3493:1 4231:1 
1 597:1 1647:1 3986:1 4232:1 4233:1 
1 898:1 4234:1 4235:1 4236:1 4237:1 4238:1 
1 21:1 39:1 68:1 233:1 259:1 478:1 611:1 1350:1 1365:1 1403:1 1441:1 1723:1 4244:1 4245:1 4246:1 
1 188:1 3592:1 4247:1 
1 144:1 1459:2 4250:1 
1 44:1 115:1 126:1 184:1 405:1 475:1 499:1 510:1 574:1 990:1 1170:1 1182:1 1417:1 3555:1 4251:1 4252:1 4253:1 4254:1 4255:1 4256:1 4257:1 
1 223:1 1819:1 2928:1 3498:1 4214:1 
1 81:1 249:1 375:1 750:1 790:1 1342:1 1363:1 3697:1 4295:1 4296:1 4297:1 4298:1 4299:1 4300:1 4301:1 
1 193:1 285:1 375:1 396:1 431:1 446:1 469:1 882:1 1347:1 1741:1 2091:1 2303:1 2715:1 3902:1 3905:1 4308:1 
1 30:1 131:1 251:1 263:1 819:1 1068:1 2971:1 4309:1 4310:1 4311:1 4312:1 4313:1 
1 21:1 316:1 1171:1 1362:1 1942:1 2653:1 2977:1 4321:1 4322:1 4323:1 
1 256:1 316:1 902:1 1078:1 1235:1 1363:1 2730:1 2957:1 3204:1 3810:1 4324:1 
1 19:1 134:1 155:1 326:1 525:1 702:1 996:1 1182:1 1381:1 1410:1 1421:1 2977:1 3599:1 4256:1 4325:1 
1 19:1 92:1 123:1 153:1 184:1 369:1 469:1 624:1 1667:1 3235:1 3354:1 4330:1 4331:1 4332:1 
1 605:1 862:1 1098:1 1366:1 1408:1 4333:1 4334:1 4335:1 4336:1 
1 23:1 42:1 126:1 153:1 451:1 473:1 519:1 641:1 660:1 736:1 1627:1 1809:1 2523:1 4014:1 4337:1 4338:1 4339:1 4340:1 4341:1 4342:1 
1 1660:1 1994:1 3728:1 4343:1 
1 40:1 316:1 1277:1 2605:1 2756:1 4180:1 4344:1 4345:1 4346:1 4347:1 4348:1 
1 173:1 789:1 855:1 1088:1 2170:1 3768:1 4349:1 4350:1 4351:1 4352:1 4353:1 4354:1 4355:1 
1 162:1 384:1 485:1 534:1 577:1 2715:1 2855:1 2935:1 4364:1 4365:1 4366:1 4367:1 4368:1 4369:1 4370:1 4371:1 
1 28:1 30:1 414:1 500:1 2516:1 4017:1 4388:1 4389:1 
1 15:1 19:1 173:1 206:1 210:1 360:1 563:1 605:1 624:1 1521:1 1603:1 1637:1 2043:1 2533:1 2977:1 4390:1 4391:1 4392:1 4393:1 4394:1 
1 100:1 261:1 321:1 4395:1 
1 30:1 611:1 1399:1 3766:1 4404:1 
1 40:1 42:2 210:1 272:1 362:1 736:1 1103:1 1554:1 2930:1 4405:1 4406:1 4407:1 
1 876:1 3530:1 4425:1 4426:1 4427:1 4428:1 4429:1 4430:1 4431:1 4432:1 4433:1 
1 19:1 931:1 1576:1 2816:1 3348:1 3551:1 4434:1 4435:1 4436:1 
1 54:1 243:1 259:1 1168:1 2062:1 4437:1 4438:1 
1 261:1 485:1 819:1 1554:1 2455:1 2780:1 4451:1 4452:1 4453:1 4454:1 4455:1 4456:1 4457:1 4458:1 
1 231:1 256:1 499:1 679:1 869:1 1990:1 4459:1 4460:1 4461:1 4462:1 
1 19:1 469:1 650:1 764:1 1047:1 1259:1 1288:1 3697:1 4310:1 4463:1 4464:1 
1 28:1 39:1 578:1 594:1 658:1 908:1 997:1 1486:1 1503:1 1692:1 3190:1 4475:1 
1 54:1 971:1 1258:1 1640:1 2292:2 2390:1 2561:1 3721:1 4476:1 4477:1 4478:1 4479:1 4480:1 
1 30:1 176:1 256:1 332:1 783:1 912:1 1483:1 1740:1 2138:1 2987:1 3685:1 4481:1 4482:1 
1 95:1 256:1 823:1 1403:1 1574:1 1765:1 3750:1 3905:1 4206:1 4491:1 4492:1 
1 1198:1 1297:1 2054:1 4504:1 
1 19:1 876:1 997:1 1131:1 1288:1 1380:1 1430:1 1987:1 3719:1 4197:1 4510:1 4511:1 4512:1 4513:1 4514:1 4515:1 4516:1 4517:1 4518:1 
1 1259:1 1667:1 2658:1 4014:1 4523:1 4524:1 4525:1 4526:1 4527:1 
1 119:1 233:1 414:1 862:1 1609:1 1698:1 4530:1 4531:1 4532:1 4533:1 
1 44:1 866:1 1367:1 2941:1 4538:1 4539:1 4540:1 
1 115:1 119:1 183:1 795:1 882:1 1212:1 1408:1 1422:1 1722:1 2973:1 3061:1 3492:1 3710:1 4541:1 4542:1 4543:1 
1 30:1 87:1 119:1 385:1 406:1 478:1 511:1 581:1 1163:1 2906:1 2973:1 3140:1 4544:1 4545:1 
1 87:1 206:1 210:1 233:1 512:1 1975:1 2426:1 4551:1 4552:1 4553:1 
1 15:1 58:1 126:1 210:1 316:1 971:1 1399:1 1809:1 2046:1 2220:1 4560:1 4561:1 4562:1 4563:1 4564:1 4565:1 
1 19:1 62:1 345:1 1636:1 2443:1 3018:1 3719:1 3927:1 4578:1 4579:1 4580:1 
1 30:1 206:1 236:1 278:1 478:1 570:1 1212:1 1352:1 1387:1 1477:1 2420:1 3115:1 4584:1 4585:1 4586:1 4587:1 4588:1 4589:1 4590:1 
1 30:1 87:1 622:1 876:1 1246:1 2715:1 3773:1 4591:1 4592:1 4593:1 4594:1 
1 142:1 862:1 975:1 1408:1 
1 99:1 484:1 664:1 1095:1 2146:1 4094:1 4464:1 4605:1 4606:1 4607:1 
1 3:1 599:1 750:1 795:1 1290:1 1357:1 2147:1 2200:1 3113:1 3151:1 3468:1 3784:1 3851:1 4099:1 4612:1 4613:1 4614:1 4615:1 4616:1 4617:1 4618:1 
1 236:1 641:2 666:1 2837:1 3812:1 4619:1 4620:1 
1 35:1 36:1 41:1 46:1 231:1 971:1 991:1 1096:1 1168:1 1185:1 1282:1 1653:1 2620:1 4615:1 4622:1 4623:1 4624:1 4625:1 4626:1 
1 40:1 210:1 252:1 256:1 461:1 713:1 3779:1 4646:1 4647:1 4648:1 4649:1 4650:1 
1 256:1 981:1 1718:1 4652:1 4653:1 
1 236:1 614:1 820:1 1046:1 1489:1 1775:1 2218:1 2869:1 3017:1 3383:1 3566:1 3701:1 4387:1 4654:1 4655:1 4656:1 
1 231:1 573:1 597:1 1016:1 1212:1 1445:1 1831:1 2099:1 4659:1 4660:1 4661:1 
1 256:1 377:1 384:1 641:1 713:1 998:1 1020:1 1409:1 4134:1 4663:1 4664:1 4665:1 4666:1 4667:1 4668:1 4669:1 
1 197:1 256:1 3298:1 4676:1 
1 26:1 39:1 869:2 1653:1 2197:1 2433:1 3918:1 4683:1 4684:1 4685:1 4686:1 4687:1 
1 19:1 139:1 478:1 1675:1 3039:1 3689:1 3691:1 3969:1 4688:1 4689:1 4690:1 4691:1 4692:1 4693:1 4694:1 4695:1 
1 87:1 115:1 256:1 790:1 971:1 1372:1 1507:1 1664:1 1733:1 1760:1 4715:1 
1 13:1 23:1 40:1 183:1 278:1 663:1 2940:1 3367:1 4723:1 4724:1 
1 15:1 259:1 672:1 750:1 837:1 1202:1 1324:1 3986:1 4555:2 4725:1 4726:1 4727:1 
1 26:1 256:1 377:1 
1 75:1 678:1 2829:1 4730:1 4731:1 
1 30:1 126:1 141:1 176:1 450:1 773:1 1118:1 1162:1 1533:1 4741:1 4742:1 4743:1 4744:1 
1 4:1 19:1 42:1 222:1 245:1 385:1 406:1 795:1 991:1 1554:1 2374:1 2797:1 4745:1 4746:1 4747:1 
1 331:1 384:1 463:1 534:1 1383:1 1987:1 2175:1 2744:1 4748:1 4749:1 4750:1 4751:1 4752:1 4753:1 4754:1 4755:1 4756:1 4757:1 
1 3783:1 4173:1 4758:1 4759:1 4760:1 4761:1 4762:1 
1 475:1 1147:1 3155:1 
1 94:1 703:1 2070:1 3701:1 4785:1 4786:1 
1 13:1 40:1 473:1 1941:1 3216:1 3435:1 4788:1 4789:1 4790:1 
1 15:1 19:1 134:1 182:1 473:1 480:1 624:1 771:1 783:1 1025:1 1381:1 1627:1 1781:1 2062:1 2377:1 3631:1 
1 176:1 384:1 605:1 624:1 826:1 987:1 4793:1 4794:1 
1 19:1 56:1 309:1 512:1 1080:1 1259:1 1286:1 1534:1 1596:1 2988:1 3225:1 4799:1 4800:1 4801:1 4802:1 4803:1 
1 13:1 75:1 99:1 639:1 1037:1 1350:1 1718:1 1890:1 2645:1 3167:1 4812:1 4813:1 4814:1 
1 19:1 100:1 132:1 261:1 342:1 377:1 3722:1 4817:1 4818:1 
1 13:1 39:1 263:1 1324:1 1761:1 1790:1 2533:1 3298:1 3837:1 3922:1 4819:1 4820:1 4821:1 
1 13:1 15:1 23:1 126:1 641:1 768:1 790:2 795:1 1578:1 1790:1 4822:1 
1 39:1 42:1 118:1 228:1 256:1 368:1 564:1 1363:1 1633:1 2935:1 3370:1 4825:1 4826:1 4827:1 4828:1 4829:1 4830:1 4831:1 
1 26:1 123:1 190:1 256:1 1297:1 1553:1 3743:1 4832:1 4833:1 
1 256:1 750:1 759:1 762:1 862:1 1118:1 1418:1 1772:1 4096:1 4834:1 4835:1 4836:1 4837:1 
1 42:1 344:1 1549:1 1667:1 1765:1 2516:1 4804:1 4838:1 4839:1 4840:1 4841:1 4842:1 4843:1 4844:1 4845:1 
1 42:1 176:1 203:1 331:1 1443:1 1815:1 1816:1 2715:1 4846:1 
1 4:1 13:1 39:1 40:1 42:1 229:1 534:1 641:1 989:1 1997:1 2781:1 4847:1 4848:1 4849:1 4850:1 
1 13:1 98:1 368:1 1212:1 1781:1 3906:1 4616:1 4671:1 4851:1 4852:1 4853:1 4854:1 
1 15:1 23:1 95:1 139:1 363:1 439:1 990:1 1107:1 1414:1 2175:1 2686:1 3365:1 3582:1 4857:1 4858:1 4859:1 4860:1 4861:1 4862:1 
1 19:1 39:1 210:1 324:1 599:1 647:1 651:1 1449:1 1554:1 2009:1 2373:1 4181:1 4405:1 4872:1 4873:1 4874:1 4875:1 
1 824:1 4876:1 
1 23:1 40:1 115:1 263:1 2170:1 2172:1 4877:1 4878:1 
1 13:1 19:1 256:1 768:1 1204:1 1280:1 1609:1 2299:1 3385:1 
1 1229:1 1680:1 3825:1 
1 487:1 663:1 2971:1 4883:1 4884:1 4885:1 
1 92:1 256:1 314:1 616:1 672:1 762:1 1946:1 1951:1 4886:1 4887:1 4888:1 
1 40:1 666:1 852:1 1334:1 1772:1 3414:1 3424:1 4895:1 
1 183:1 238:1 1667:1 1984:1 3207:1 3785:1 4904:1 4905:1 4906:1 4907:1 4908:1 4909:1 4910:1 4911:1 
1 263:1 447:2 3603:1 4912:1 4913:1 
1 13:1 239:1 602:1 611:1 815:1 1107:1 1206:1 1277:1 1809:1 2381:1 2660:1 3533:1 4679:1 4914:1 
1 153:1 183:1 203:1 369:1 1209:1 1252:1 4915:1 4916:1 4917:1 4918:1 
1 55:1 99:1 203:1 406:1 869:1 1470:1 1477:1 1732:1 4922:1 
1 87:1 701:1 842:1 2526:1 2605:1 2991:1 4923:1 
1 710:1 715:1 983:1 1118:1 1704:1 4927:1 4928:1 
1 23:1 40:1 200:1 210:1 236:1 322:1 473:1 654:1 661:1 1596:1 2797:1 3783:1 4582:1 4820:1 4933:1 
1 316:2 1197:1 4941:1 4942:1 4943:1 4944:1 4945:1 4946:1 
1 1:1 4:1 126:1 286:1 991:1 1567:1 4947:1 4948:1 4949:1 4950:1 4951:1 4952:1 
1 15:1 158:1 208:1 256:1 389:1 1229:1 3298:1 3370:1 3691:1 4954:1 4955:1 4956:1 4957:1 4958:1 4959:1 4960:1 
1 447:1 2304:1 3253:1 4965:1 4966:1 
1 15:1 19:1 54:1 210:1 643:1 1229:1 2744:1 3138:1 3592:1 3689:1 3951:1 4716:1 4967:1 4968:1 4969:1 4970:1 
1 0:1 57:1 285:1 316:1 500:1 602:1 644:1 859:1 3213:1 4164:1 4180:1 4690:1 4806:1 4977:1 4978:1 4979:1 4980:1 
1 13:1 368:1 369:1 458:1 641:1 654:1 1716:1 2154:1 3399:1 4027:1 4981:1 4982:1 4983:1 
1 184:1 196:1 345:1 786:1 1774:1 2147:1 2393:1 2828:1 2915:1 3026:1 3486:1 3700:1 4353:1 4985:1 4986:1 4987:1 4988:1 4989:1 4990:1 4991:1 4992:1 
1 568:1 605:1 931:1 1324:1 2374:1 3770:1 4993:1 
1 40:1 494:1 834:1 1204:1 2781:1 3628:1 3936:1 4464:1 4999:1 5000:1 5001:1 
1 263:1 384:1 718:1 2202:1 5010:1 5011:1 5012:1 5013:2 5014:1 
1 100:1 129:1 342:1 359:1 530:1 647:1 813:1 895:1 1298:1 1367:1 1389:1 1834:1 2516:1 4325:1 4659:1 4671:1 5015:1 5016:1 5017:1 5018:1 5019:1 
1 142:1 525:1 3423:1 5024:1 5025:1 5026:1 5027:1 
1 40:1 42:1 196:1 724:1 1041:1 1088:1 2988:1 3320:1 3543:1 3715:1 5028:1 5029:1 5030:1 5031:1 
1 23:1 40:1 68:1 534:1 1129:1 2730:1 
1 57:1 198:1 687:1 736:1 1129:1 1477:1 3543:1 4947:1 5030:1 5036:1 5037:1 
1 40:1 99:1 153:1 256:1 341:1 510:1 641:1 646:1 665:1 1409:1 1564:1 2138:1 2326:1 3357:1 3702:1 4531:1 4830:1 5038:1 5039:1 5040:1 5041:1 5042:1 
1 13:1 87:1 256:1 380:1 594:1 5043:1 
1 105:1 210:1 310:1 424:1 990:1 1206:1 3741:1 5044:1 5045:1 5046:1 5047:1 
1 23:1 99:1 239:1 255:1 256:1 342:1 471:1 574:1 623:1 650:1 1104:1 1333:1 1400:1 1596:1 5053:1 5054:1 5055:1 5056:1 5057:1 
1 19:1 470:1 1361:1 1430:1 2054:1 3137:1 5058:1 5059:1 
1 27:1 239:1 514:1 713:1 1170:1 4504:1 5066:1 5067:1 5068:1 5069:1 
1 510:2 641:1 1372:1 5049:2 5070:2 
1 480:1 2072:1 2123:1 2525:1 2588:1 2605:1 
1 19:1 54:1 256:1 342:1 534:1 1096:1 2146:1 3262:1 3605:1 3631:1 4533:1 5073:1 5074:1 5075:1 5076:1 5077:1 5078:1 5079:1 5080:1 5081:1 
1 13:1 638:1 643:1 655:1 733:1 5082:1 5083:1 5084:1 
1 26:1 256:1 605:1 998:1 1036:1 1609:1 2327:1 3305:1 4577:1 5085:1 
1 42:1 862:1 987:1 1403:1 1857:1 5086:1 5087:1 5088:1 5089:1 5090:1 
1 461:1 480:1 534:1 3722:1 5092:1 5093:1 
1 99:1 342:1 629:1 787:1 1459:1 2634:1 3166:1 3587:1 5098:1 5099:1 5100:1 5101:1 5102:1 
1 1048:1 5103:1 
1 762:1 783:1 1016:1 1260:1 1377:1 2168:1 4775:1 4860:1 4968:1 5105:1 5106:1 5107:1 
1 91:1 273:1 578:1 641:1 650:1 769:1 1170:1 4623:1 5108:1 5109:1 5110:1 
1 87:1 256:1 321:1 645:1 646:1 2980:1 5111:1 
1 42:1 184:1 508:1 516:1 654:1 701:1 869:1 2689:1 4201:1 5101:1 5112:1 5113:1 5114:1 5115:1 5116:1 5117:1 5118:1 5119:1 5120:1 5121:1 5122:1 
1 239:1 2164:1 4993:1 5123:1 5124:1 
1 41:1 255:1 480:1 1164:1 1809:1 3277:1 5131:1 5132:1 5133:1 5134:1 
1 81:1 126:1 203:1 480:1 990:1 1051:1 1653:1 1772:1 5135:1 5136:1 
1 15:1 129:1 156:1 339:1 666:1 731:1 760:1 1408:1 3886:1 5025:1 5137:1 5138:1 5139:1 5140:1 
1 65:1 87:1 1294:1 2645:1 4127:1 4378:1 5141:1 5142:1 5143:1 5144:1 
1 15:1 203:1 256:1 336:1 473:1 577:1 642:1 786:1 1211:1 1403:1 1428:1 1732:1 2117:1 3126:1 3349:1 3678:1 3770:1 5130:1 5145:1 5146:1 5147:1 5148:1 
1 19:1 55:1 754:1 1141:1 2505:1 5149:1 5150:1 
1 153:1 414:1 439:2 663:1 845:1 5151:1 5152:1 5153:1 
1 270:1 764:1 796:1 991:1 1523:1 5184:1 
1 0:1 23:1 40:1 62:1 228:1 431:1 880:1 1768:1 3017:1 4781:1 5185:1 
1 368:1 480:1 2138:1 5196:1 
1 19:1 310:1 343:1 447:1 713:1 806:1 991:2 1164:1 2151:1 2333:1 3593:1 3594:1 
1 119:1 250:1 636:1 1551:1 4268:1 5201:1 5202:1 5203:1 
1 5204:1 5205:1 
1 285:1 730:1 1363:1 1399:1 5029:1 
1 494:1 573:1 641:1 1480:1 1552:1 5220:1 
1 19:1 604:1 859:1 1300:1 5230:1 5231:1 5232:1 
1 13:1 884:1 1206:1 1298:1 1306:1 3204:1 5239:1 5240:1 
1 428:1 439:1 646:1 876:1 1275:1 1279:1 1564:1 1790:1 2228:1 3029:1 3030:1 3371:1 4629:1 4693:1 5248:1 
1 321:1 1134:1 1216:1 1304:1 1550:1 1817:1 2744:1 2980:1 5260:1 
1 412:1 461:1 479:1 736:1 856:1 1015:1 2202:1 5264:1 5265:1 
1 26:1 525:1 598:1 605:1 1259:1 1669:1 1732:1 1873:1 4711:1 5270:1 5271:1 5272:1 
1 6:1 70:1 
1 19:1 55:1 87:1 624:1 629:1 652:1 789:1 1118:1 1206:1 1302:1 5273:1 
1 19:1 57:1 93:1 100:1 118:1 134:1 176:1 203:1 363:1 998:1 2147:1 2506:1 2588:1 5274:1 5275:1 
1 13:1 55:1 122:1 324:1 383:1 578:1 641:1 1164:1 2210:1 2792:1 5278:1 5279:1 
1 228:1 256:2 1250:1 1439:1 2279:1 2393:1 2634:1 5285:1 
1 375:1 581:1 629:1 1306:1 4314:1 4504:1 
1 19:1 582:1 859:1 1122:1 2269:1 3986:1 5286:1 
1 40:1 228:1 259:1 1209:1 1363:1 2035:1 2573:1 3352:1 4496:1 5289:1 5290:1 
1 15:1 40:1 236:1 314:1 336:1 461:1 713:1 783:1 987:1 1047:1 1653:1 3579:1 4192:1 4193:1 5193:1 5292:1 5293:1 5294:1 
1 733:1 1770:1 5295:1 
1 13:1 21:1 47:1 87:1 98:1 210:1 425:1 565:1 662:1 731:1 1012:1 1340:1 1988:1 4607:1 4926:1 5301:1 
1 126:1 641:1 1450:1 1574:1 2051:1 4012:1 5311:1 5312:1 5313:1 5314:1 5315:1 
1 6:1 119:1 182:1 1259:1 2015:1 5322:1 5323:1 5324:1 
1 285:1 569:1 3330:1 3785:1 5329:1 5330:1 
1 129:1 485:1 1131:1 1987:1 2712:1 5097:1 5105:1 5181:1 5331:1 5332:1 5333:1 
1 100:1 198:1 214:1 629:1 1324:1 5339:1 5340:1 
1 23:1 30:1 47:1 99:1 115:2 256:1 344:1 534:1 731:1 783:1 882:1 1596:1 3043:1 3853:1 5345:1 
1 402:1 529:1 661:1 786:1 3126:1 3592:1 4835:1 5350:1 5351:1 5352:1 
1 122:1 360:1 974:1 1918:1 3093:1 4918:1 5075:1 5259:1 5356:1 5357:1 5358:1 5359:1 
1 99:1 362:1 650:1 892:1 1428:1 2268:1 4012:1 4214:1 5360:1 
1 120:1 252:1 602:1 643:1 1171:1 3063:1 5365:1 
1 19:2 153:1 197:1 226:1 987:1 1037:1 1258:1 3017:1 3464:1 3750:1 3986:1 5366:1 5367:1 5368:1 5369:1 
1 469:1 989:1 1669:1 1975:1 2748:1 5370:1 
1 13:1 286:1 316:1 499:1 1125:1 1282:1 1338:1 2170:1 3483:1 3737:1 3743:1 5384:1 5385:1 5386:1 5387:1 5388:1 5389:1 5390:1 
1 15:1 812:1 1126:1 2064:1 5391:1 5392:1 5393:1 5394:1 
1 42:1 259:1 795:1 5395:1 5396:1 
1 41:1 301:1 470:1 480:1 623:1 1107:1 1294:1 1333:1 1627:1 5123:1 
1 13:1 184:1 932:1 1564:1 1799:1 1914:1 2856:1 2915:1 3700:1 3969:1 5408:1 
1 4:1 7:1 2241:1 5410:1 
1 322:1 473:1 505:1 514:1 1251:1 1324:1 1809:1 3264:1 5416:1 
1 105:1 546:1 578:1 663:1 876:1 931:1 1067:1 1091:1 1436:1 1442:1 1908:1 2341:1 3018:1 3271:1 5417:1 5418:1 5419:1 5420:1 5421:1 5422:1 5423:1 
1 19:1 534:1 1718:1 2376:1 
1 85:1 126:1 568:1 865:1 990:1 1541:1 1775:1 2624:1 2869:1 2896:1 3065:1 4571:1 5424:1 5425:1 5426:1 5427:1 
1 5428:1 5429:1 5430:1 
1 4:1 42:1 99:1 431:1 475:1 1157:1 1382:1 1879:1 2746:1 3055:1 4060:1 5441:1 5442:1 
1 42:1 47:1 203:1 271:2 629:1 2043:1 2181:1 3237:1 5443:1 
1 6:1 13:1 19:1 42:1 251:1 414:1 590:1 695:1 1066:1 1963:1 2730:1 3519:1 4178:1 5444:1 5445:1 5446:1 5447:1 5448:1 
1 122:1 862:1 975:1 1275:1 1408:1 1627:1 4680:1 5451:1 5452:1 5453:1 5454:1 5455:1 5456:1 
1 42:1 193:1 255:1 343:1 363:1 590:1 701:1 795:1 842:1 1760:1 2189:1 2443:1 2706:1 3092:1 4040:1 5467:1 5468:1 
1 40:1 46:1 310:1 376:1 673:1 1553:1 1574:1 4626:1 5469:1 5470:1 5471:1 5472:1 
1 13:1 406:1 5480:1 5481:1 
1 641:1 5483:1 
1 231:1 256:1 1353:1 1421:1 1533:1 1944:1 2457:1 4462:1 5486:1 
1 257:1 572:2 703:1 862:1 3406:1 5494:1 5495:1 5496:1 5497:1 5498:1 5499:1 
1 13:1 284:1 1953:1 3207:1 5070:1 5500:1 5501:1 5502:1 5503:1 5504:1 
1 40:1 228:1 310:1 1165:1 2715:1 3089:1 3670:1 3835:1 4021:1 4124:1 5505:1 5506:1 5507:1 
1 579:1 686:1 932:1 1131:1 1437:1 1477:1 1627:1 2730:1 3653:1 3950:1 5512:1 
1 0:1 189:1 1134:1 1522:1 1765:1 1776:1 5513:1 
1 266:1 344:1 374:1 1543:1 1980:1 2147:1 2231:1 5514:1 5515:1 5516:1 5517:1 5518:1 
1 105:1 381:1 507:1 1533:1 1880:1 2561:1 4226:1 
1 41:1 210:1 256:1 605:1 1206:1 1399:1 5519:1 5520:1 
1 42:1 271:1 1154:1 2814:1 5442:1 5521:1 5522:1 
1 524:1 3270:1 
1 19:1 203:1 236:1 414:1 447:1 559:1 1170:1 1310:1 2089:1 4542:1 5523:1 
1 19:1 129:1 193:1 210:1 386:1 587:1 1132:1 1159:1 1301:1 1533:1 1724:1 2420:1 2584:1 5527:1 5528:1 5529:1 5530:1 5531:1 5532:1 5533:1 
1 15:1 548:1 1263:1 1363:1 1898:1 2929:1 3207:1 3663:1 5543:1 5544:1 5545:1 5546:1 5547:1 
1 534:1 743:1 1107:1 1718:1 5565:1 5566:1 
1 19:1 256:1 310:1 331:1 480:1 908:1 1408:1 1576:1 1640:1 2443:1 2459:1 3082:1 3111:1 3950:1 4008:1 5569:1 5570:1 5571:1 
1 447:1 480:1 1012:1 5572:1 
1 13:1 176:1 219:1 259:1 482:1 657:1 971:1 991:1 992:1 1372:1 5582:1 5583:1 5584:1 
1 132:1 228:1 516:1 644:1 795:1 1140:1 1775:1 2869:1 3773:1 5063:1 5607:1 5608:1 5609:1 
1 43:1 256:1 827:1 4918:1 
1 19:1 100:1 385:1 404:1 480:1 936:1 1223:1 2015:1 5612:1 5613:1 5614:1 5615:1 
1 23:1 183:1 285:1 431:1 447:1 469:1 580:1 632:1 989:1 998:1 1555:1 2070:1 3857:1 5616:1 5617:1 5618:1 
1 363:1 598:1 605:1 839:1 1363:1 2059:1 2161:1 2715:1 5619:1 5620:1 5621:1 
1 13:1 100:2 105:1 196:1 263:2 552:1 783:1 795:1 1164:1 1212:1 1477:1 1984:1 5624:1 5625:1 5626:1 
1 23:1 42:1 105:1 299:1 599:1 775:1 783:1 1477:1 3212:1 3214:1 5592:1 
1 30:1 40:1 87:1 119:1 255:1 350:1 381:1 795:1 1357:1 1918:1 2653:1 3225:1 4583:1 5579:1 5638:1 5639:1 5640:1 5641:1 
1 13:1 55:1 115:1 132:1 271:1 605:1 662:1 886:1 1282:1 1355:1 1817:1 1834:1 3204:1 4116:1 5651:1 5652:1 5653:1 5654:1 
1 177:1 246:1 316:1 867:1 1363:1 5668:1 5669:1 
1 19:1 40:1 310:1 327:1 561:1 605:1 1365:1 1722:1 5672:1 
1 204:1 1669:1 1904:1 2710:1 3780:1 5680:1 5681:1 
1 27:1 30:1 57:1 87:1 249:1 251:1 294:1 384:1 624:1 750:1 795:1 1267:1 1334:1 1641:1 2633:1 2816:1 5695:1 5696:1 5697:1 
1 13:1 87:1 115:1 384:1 663:1 883:1 984:1 1201:2 2671:1 3076:1 3468:1 5702:1 5703:1 5704:1 
1 447:1 906:1 908:1 910:1 912:1 1009:1 2252:1 2347:1 5705:1 5706:1 5707:1 5708:1 5709:1 5710:1 5711:1 5712:1 5713:1 5714:1 5715:1 5716:1 5717:1 5718:1 5719:1 5720:1 5721:1 
1 21:1 341:1 581:1 1450:1 1549:1 1632:1 2953:1 3416:1 3463:1 3513:1 3770:1 4555:1 5722:1 5723:1 5724:1 5725:1 
1 578:1 641:1 945:1 1120:1 1357:1 1627:1 2043:1 2081:1 3792:1 3880:1 5726:1 5727:1 
1 19:1 924:1 1675:1 2241:1 2633:1 3480:1 3689:1 
1 183:1 270:1 344:1 1780:1 1919:1 2523:1 2977:1 5728:1 5729:1 
1 115:1 629:1 1302:1 2982:1 4758:1 4760:1 4761:1 4762:1 5115:1 5735:1 
1 236:1 285:1 384:1 499:1 604:1 637:1 673:1 1363:1 5736:1 
1 0:1 17:1 30:1 256:1 641:1 647:1 670:1 769:1 876:1 1357:1 1604:1 1673:1 2138:1 4643:1 5737:1 5738:1 5739:1 
1 650:1 660:1 3189:1 5740:1 5741:1 
1 190:1 654:1 837:1 1163:1 2863:1 2953:1 3783:1 5746:1 
1 100:1 331:1 774:1 793:1 1206:1 2592:1 2744:1 5747:1 
1 251:1 750:1 3272:1 3969:1 5750:1 5751:1 
1 30:1 40:1 57:1 439:1 882:1 1206:1 5754:1 5755:1 
1 105:1 129:1 340:1 575:1 587:1 740:1 789:1 1031:1 1843:1 2050:1 3052:1 3714:1 5588:1 5761:1 5762:1 5763:1 5764:1 
1 15:1 40:1 514:1 516:1 707:1 1298:1 1333:1 1761:1 1868:1 5776:1 5777:1 5778:1 
1 480:1 509:1 1770:1 2213:1 3015:1 3017:1 4086:1 5554:1 5779:1 5780:1 
1 20:1 153:1 212:1 228:1 310:1 318:1 594:2 931:1 1041:1 1120:1 1486:1 3264:1 3597:1 5164:1 5788:1 5789:1 
1 19:1 90:1 146:1 703:1 777:1 859:1 1198:1 2872:1 3905:1 5790:1 5791:1 
1 19:1 206:1 294:1 534:1 750:1 902:1 1148:1 1206:1 1790:1 3480:1 3551:1 3860:1 3862:1 3863:1 3864:1 5807:1 5808:1 5809:1 
1 42:1 183:1 256:1 1170:1 1382:1 1447:1 2229:1 5813:1 5814:1 
1 19:1 153:1 418:1 458:1 789:1 997:1 2769:1 5815:1 5816:1 5817:1 
1 57:1 736:1 816:1 2930:1 3592:1 
1 335:1 657:1 784:1 795:1 1324:1 1722:1 1806:1 2323:1 2698:1 2758:1 3959:1 4371:1 4381:1 5818:1 5819:1 5820:1 5821:1 
1 13:1 19:1 40:1 469:1 475:1 1259:1 
1 1430:1 5011:1 5826:1 
1 87:1 92:1 256:1 267:1 331:1 605:1 989:1 1206:1 1475:1 2855:1 3322:1 5827:1 
1 42:1 301:1 659:1 1068:1 1626:1 1772:1 4012:1 5828:1 5829:1 5830:1 5831:1 5832:1 
1 19:1 153:1 419:1 1245:1 1449:1 2179:1 5105:1 5841:1 5842:1 5843:1 
1 99:1 259:1 5440:1 5846:1 
1 42:1 255:1 912:1 1170:1 1363:1 5864:1 5865:1 5866:1 
1 221:1 988:1 1154:1 1222:1 1277:1 3367:1 5885:1 5886:1 5887:1 
1 987:1 1419:1 1873:1 2095:1 3722:1 3728:1 5888:1 5889:1 
1 285:1 1297:1 5391:1 5890:1 
1 19:1 286:1 466:1 657:1 947:1 985:1 1021:1 1118:1 1257:1 2231:1 3986:1 4106:1 5898:1 5899:1 5900:1 
1 525:1 528:1 1732:1 5903:1 5904:1 5905:1 
1 15:1 198:1 204:1 418:1 789:1 1149:1 1251:1 1264:1 3324:1 3559:1 4691:1 5906:1 5907:1 5908:1 
1 112:1 119:1 132:1 1532:1 3521:1 3697:1 4127:1 5675:1 5916:1 5917:1 5918:1 
1 611:1 2443:1 5919:1 5920:1 
1 4:1 2127:1 5921:1 
1 344:1 447:1 602:1 795:1 1914:1 2730:1 5922:1 5923:1 5924:1 
1 500:1 670:1 1021:1 1372:1 1790:1 2089:1 2863:1 
1 19:1 321:1 377:1 534:1 1605:1 1760:1 2710:1 4247:1 5938:1 5939:1 
1 68:1 140:1 239:1 1069:1 1408:1 1410:1 3227:1 3712:1 4098:1 5942:1 
1 578:1 1156:1 1436:1 1576:1 2316:1 3204:1 
1 41:1 42:1 624:1 1873:1 5077:1 5943:1 5944:1 
1 119:1 450:2 604:1 2369:1 4275:1 5945:1 5946:1 5947:1 
1 19:1 100:1 590:1 1640:1 1832:1 1868:1 1957:1 2144:1 3656:1 3753:1 3936:1 5420:1 5948:1 
1 156:1 376:1 495:1 500:1 758:1 1157:1 1353:1 1609:1 1809:1 3304:1 3899:1 4771:1 5949:1 5950:1 
1 19:1 193:1 495:1 1565:1 2971:1 
1 42:1 386:1 439:1 1015:1 1125:1 1162:1 1342:1 1975:1 2104:1 2408:1 2753:1 4180:1 4300:1 
1 100:2 363:1 369:1 386:1 979:1 1206:1 1412:1 3163:1 3299:1 4280:1 5973:1 
1 142:1 496:1 1041:1 1529:1 5974:1 5975:1 5976:1 
1 9:1 131:1 162:1 203:1 529:1 605:1 1016:1 1206:1 2144:1 2523:1 2710:1 3013:1 3520:1 5980:1 
1 176:1 259:1 795:1 862:1 1078:1 1229:1 1483:1 2233:1 5983:1 
1 1346:1 3599:1 3964:1 5984:1 
1 707:1 1015:1 3047:1 3221:1 3773:1 4607:1 
1 19:1 30:1 40:1 173:1 271:1 414:1 468:1 700:1 903:1 1381:1 1467:1 2523:1 2988:1 3352:1 4615:1 5990:1 5991:1 5992:1 
1 349:1 384:1 406:1 892:1 1073:1 1074:1 1450:1 1612:1 1718:1 1760:1 1981:1 2967:1 3281:1 4956:1 5286:1 5994:1 5995:1 5996:1 5997:1 5998:1 5999:1 6000:1 
1 256:1 597:1 859:1 1051:1 1120:1 2049:1 2634:1 2659:1 4216:1 6005:1 6006:1 
1 702:1 2009:1 5497:1 6013:1 6014:1 
1 15:1 263:1 332:1 405:1 482:1 497:1 506:1 1055:1 1667:1 2523:1 2746:1 6015:1 6016:1 6017:1 
1 222:1 301:1 803:1 876:1 880:1 979:1 1032:1 1363:1 1699:1 1809:1 1980:1 2323:1 3200:1 3773:1 4615:1 5077:1 6018:1 6019:1 6020:1 6021:1 
1 256:1 259:1 341:1 344:1 572:1 795:1 5017:1 5924:1 6026:1 6027:1 
1 13:1 662:1 1633:1 1734:1 3111:1 3643:1 5304:1 6033:1 6034:1 6035:1 
1 62:1 348:1 577:1 605:1 759:1 4003:1 6038:1 6039:1 6040:1 
1 57:1 1191:1 
1 95:1 384:1 397:1 823:1 1164:1 1403:1 1655:1 2646:1 
1 117:1 651:1 763:1 3368:1 3797:1 6044:1 
1 841:1 1004:1 2379:1 3319:1 6048:1 6049:1 
1 139:1 239:1 263:1 348:1 484:1 1523:1 2635:1 2930:1 4183:1 6056:1 6057:1 6058:1 6059:1 6060:1 6061:1 
1 814:1 6062:1 6063:1 6064:1 
1 360:1 534:1 641:1 650:1 1031:1 2282:1 2528:1 2667:1 2953:1 4557:1 5668:1 6073:1 6074:1 6075:1 
1 13:1 99:1 172:1 880:1 1160:1 1282:1 6076:1 6077:1 6078:1 
1 13:1 210:1 267:1 316:1 332:1 958:1 1310:1 1467:1 1675:1 1772:1 3448:1 4408:1 5204:1 6080:1 6081:1 
1 87:1 987:1 1223:1 1459:1 1772:1 2043:1 2162:1 2182:1 2341:1 2454:1 2756:1 2927:1 3696:1 3780:1 6082:1 6083:1 6084:1 
1 183:1 239:1 1706:1 2059:1 2548:1 3505:1 4423:1 4531:1 5513:1 6085:1 6086:1 6087:1 
1 42:1 99:1 129:1 153:1 406:1 605:1 624:1 695:1 985:1 1596:1 1816:1 2559:1 2560:1 2717:1 3652:1 4310:1 6090:1 6091:1 6092:1 6093:1 6094:1 6095:1 6096:1 
1 19:1 203:2 357:1 2374:1 3204:2 6097:1 6098:1 6099:1 6100:1 
1 19:1 94:1 153:1 236:1 256:1 433:1 838:1 1772:1 1831:1 1984:1 2674:1 4046:1 6101:1 6102:1 6103:1 
1 641:1 670:1 960:1 998:1 1814:1 3403:1 4197:1 4922:1 6109:1 6110:1 6111:1 
1 39:1 42:1 75:1 206:1 229:1 577:1 641:1 2287:1 3166:1 3592:1 6115:1 6116:1 6117:1 
1 256:1 1357:1 2010:1 2082:1 3175:1 6118:1 6119:1 6120:1 
1 256:1 2051:1 2292:1 2932:1 3119:1 6126:1 
1 30:1 233:1 264:1 377:1 1963:1 3207:1 3964:1 5140:1 6127:1 6128:1 
1 684:1 820:1 875:1 4922:1 5853:1 6112:1 6129:1 6130:1 6131:2 
1 1365:2 4103:1 5442:1 
1 0:1 30:1 42:1 75:1 176:1 236:1 688:1 2611:1 2733:1 5436:1 
1 40:1 92:1 122:1 478:1 731:1 3018:1 3226:1 4061:1 4464:1 4890:1 5640:1 6135:1 6136:1 6137:1 6138:1 6139:1 6140:1 6141:1 6142:1 
1 473:1 514:1 534:1 644:1 1146:1 2220:1 2231:1 2326:1 2723:1 3433:1 4843:1 5693:1 5833:1 6143:1 6144:1 
1 19:1 142:1 210:1 336:1 510:1 562:1 688:1 1182:1 1310:1 1908:1 2645:1 3065:1 3304:1 4016:1 4256:1 4833:1 5549:1 6148:1 6149:1 6150:1 
1 30:1 80:1 231:1 256:1 263:1 876:1 3500:1 3998:1 3999:1 
1 30:1 284:1 1156:1 1353:1 1399:1 1564:1 1724:1 6162:1 6163:1 
1 182:1 862:1 975:1 1539:1 2104:1 2212:1 3087:1 4848:1 5345:1 6182:1 6183:1 6184:1 6185:1 
1 13:1 42:2 91:1 105:1 256:1 368:1 990:1 4852:1 
1 19:1 605:1 1069:1 1206:1 1251:1 1722:1 2374:1 2744:1 6190:1 6191:1 
1 19:1 1834:2 1915:1 2162:1 2730:1 5006:1 
1 0:1 162:1 198:1 349:1 758:1 2679:1 3204:1 3281:1 4676:1 5123:1 5418:1 6080:1 6211:1 6212:1 6213:1 6214:1 6215:1 
1 39:1 353:1 376:1 862:1 985:1 1269:1 1299:1 1804:1 1942:1 2210:1 2634:1 2733:1 3271:1 5232:1 6216:1 6217:1 6218:1 6219:1 6220:1 
1 19:1 172:1 534:1 592:1 666:1 837:1 1340:1 6221:1 6222:1 
1 572:1 647:1 1164:1 1633:1 2233:1 3902:1 4683:1 6223:1 6224:1 6225:1 6226:1 6227:1 
1 26:1 40:1 1715:1 2935:1 
1 1790:1 3748:1 
1 19:1 473:1 707:1 927:1 6240:1 
1 473:1 2443:1 4363:1 4952:1 5693:1 6243:1 6244:1 
1 1660:1 2184:1 3056:1 6245:1 
1 15:1 251:1 796:1 2123:1 2231:1 4493:1 5099:1 6246:1 6247:1 6248:1 6249:1 6250:1 
1 100:1 261:1 1475:1 
1 13:1 40:1 115:1 153:1 263:1 2614:1 4003:1 6254:1 
1 368:1 2980:1 3728:1 6256:1 6257:1 
1 19:1 256:1 263:1 446:1 570:1 1475:1 1609:1 1715:1 1905:1 2474:1 2488:1 2935:1 4159:1 4203:1 6262:1 6263:1 6264:1 6265:1 
1 19:1 198:1 1080:1 1983:1 4531:1 
1 1068:1 2930:1 4531:1 4792:1 6267:1 
1 42:1 374:1 1015:1 1516:1 1718:1 2377:1 3090:1 3365:1 3573:1 3691:1 4233:1 4280:1 6268:1 6269:1 6270:1 6271:1 
1 44:1 624:1 663:1 707:1 761:1 1719:1 2730:1 3795:1 6272:1 
1 134:1 251:1 657:1 707:2 990:1 1300:1 1306:1 2187:1 2200:1 6274:1 6275:1 6276:1 6277:2 6278:1 
1 26:1 478:1 2118:1 2374:1 
1 13:1 198:1 256:1 605:1 989:1 1239:1 1445:1 2942:1 2947:1 3357:1 3761:1 6288:1 6289:1 6290:1 
1 26:1 447:1 1160:1 2919:1 3766:1 6291:1 6292:2 
1 176:1 1324:1 1845:1 
1 991:1 1170:1 1250:1 2067:1 2971:1 3879:1 4890:1 5898:1 6296:1 6297:1 6298:1 
1 198:1 516:1 600:1 679:1 759:1 760:1 6299:1 6300:1 
1 119:1 271:1 876:1 1118:1 1356:1 1357:1 2657:1 6301:1 6302:1 
1 623:1 862:1 1170:1 2370:1 3499:1 6304:1 6305:1 
1 30:2 285:1 406:1 523:1 525:1 581:1 750:1 795:1 1627:1 2635:1 3242:1 3875:1 4928:1 6308:1 6309:1 6310:1 6311:1 6312:1 6313:1 
1 92:1 115:1 1306:1 
1 170:4 362:1 512:1 654:1 912:1 4106:1 4247:1 5864:1 6179:1 6333:1 
1 285:1 530:1 1967:1 2586:1 5056:1 6343:1 6344:1 
1 168:1 256:1 1251:1 1423:1 1809:1 2744:1 3032:1 3330:1 6345:1 
1 256:1 259:2 562:1 736:1 931:1 1056:1 1197:1 1206:1 1761:1 2437:1 3493:1 
1 126:1 183:1 458:1 580:1 2048:1 2596:1 2949:1 2953:1 5066:1 5156:1 6361:1 6362:1 
1 75:1 582:1 686:1 2525:1 2556:1 2706:1 
1 199:1 261:1 823:1 1403:1 1914:1 6365:1 
1 20:1 318:1 519:1 2047:1 2673:1 3321:1 4947:1 5394:1 6367:1 6368:1 
1 19:1 285:1 837:1 1554:1 2054:1 2868:1 2869:1 6380:1 6381:1 6382:1 6383:1 
1 1283:1 1413:1 2406:1 6384:1 
1 198:1 210:1 650:1 990:1 995:1 2925:1 3056:1 3105:1 4497:1 5754:1 6385:1 
1 227:1 256:1 294:1 654:1 702:1 765:1 4019:1 4623:1 6388:1 6389:1 
1 19:2 439:1 480:1 886:1 892:1 1029:1 1611:1 2088:1 2269:1 2967:1 4693:1 5250:1 6396:1 6397:1 6398:1 
1 193:1 271:1 377:1 2972:1 4495:1 5654:1 6400:1 6401:1 
1 439:1 1718:1 3175:1 6404:1 6405:1 6406:1 6407:1 
1 39:1 140:1 256:1 766:1 923:1 1165:1 1382:1 2686:1 2935:1 3439:1 6423:1 6424:1 6425:1 
1 651:1 2415:1 2560:1 2596:1 3514:1 4820:1 6426:1 6427:1 
1 17:1 39:2 176:1 324:1 663:2 701:1 783:1 931:1 1377:1 1382:1 1403:1 4036:1 5761:1 6433:1 6434:1 6435:1 6436:1 6437:1 6438:1 
1 13:1 139:1 931:1 1158:1 2108:1 3039:1 3594:1 3839:1 4050:1 4846:1 6439:1 6440:1 6441:1 6442:1 6443:1 6444:1 
1 19:1 303:1 691:1 795:1 1091:1 2780:1 3741:1 6459:1 6460:1 
1 19:1 131:1 375:1 605:1 1159:1 1572:1 1693:1 1724:1 6461:1 
1 19:1 87:1 188:1 480:1 500:1 1363:1 1685:1 1868:1 6465:1 
1 2049:1 4014:1 
1 1:1 67:1 467:1 623:1 864:1 2971:1 4380:1 6466:1 6467:1 6468:1 
1 87:1 320:1 480:1 624:2 2767:1 3480:1 4266:1 5480:1 6473:1 
1 57:1 487:1 494:1 604:1 1198:1 
1 13:1 263:1 305:1 344:1 384:1 449:1 1283:1 1828:1 2035:1 5204:1 6477:1 6478:1 6479:1 6480:1 6481:1 
1 19:1 110:1 173:1 272:1 1667:1 2204:1 2377:1 2605:1 2759:1 5728:1 
1 15:1 28:1 206:1 406:1 743:1 809:1 2322:1 2422:1 2785:1 5049:1 6482:1 6483:1 6484:1 6485:1 
1 210:1 650:1 1089:1 3705:1 4963:1 5065:1 6489:1 
1 19:1 40:1 384:1 439:1 475:1 862:1 1170:1 1484:1 1552:1 2667:1 3785:1 6500:1 6501:1 6502:1 
1 87:1 105:2 657:1 1703:1 2925:1 6434:1 6503:1 6504:1 
1 263:1 577:1 624:1 1107:1 2110:1 6505:1 6506:1 6507:1 
1 42:1 256:1 578:1 735:1 928:1 1802:1 2869:1 3676:1 4746:1 6508:1 6509:1 6510:1 
1 480:1 2605:1 4103:1 6511:1 
1 27:1 1564:1 
1 23:1 42:1 226:1 271:1 341:1 570:1 710:2 1908:1 2340:1 3858:1 4480:1 6512:1 6513:1 6514:1 
1 28:2 43:1 190:1 466:1 658:1 4615:1 6525:1 6526:1 6527:1 
1 91:1 928:1 1371:1 3198:1 
1 644:1 645:1 931:1 1324:1 4504:1 6543:1 6544:1 
1 862:1 1675:1 3592:1 
1 28:1 87:1 99:1 664:1 809:1 1013:1 1687:1 1724:1 1736:1 1790:1 1795:1 2076:1 3592:1 3681:1 6548:1 6549:1 6550:1 
1 58:1 200:1 480:1 1107:1 2159:1 3605:1 3773:1 5581:1 6555:1 6556:1 6557:1 6558:1 6559:1 6560:1 
1 17:1 6563:1 6564:1 
1 19:1 87:1 263:1 309:1 369:1 1639:1 1669:1 2112:1 2679:1 5044:1 5515:1 6565:1 
1 4:1 775:1 903:1 1353:1 2073:1 3414:1 6566:1 6567:1 6568:1 
1 126:1 236:1 480:1 534:1 578:1 883:1 1025:1 1660:1 1778:1 2051:1 4380:1 4485:1 6219:1 6578:1 
1 808:1 1165:1 3590:1 4580:1 6579:1 6580:1 6581:1 6582:1 6583:1 
1 30:1 473:1 1212:1 1392:1 1394:1 1788:1 1891:1 1963:1 6584:1 6585:1 
1 259:1 1051:1 1381:1 2705:1 5023:1 6594:1 
1 912:1 919:1 2256:1 2347:1 6595:1 6596:1 6597:1 6598:1 6599:2 6600:1 6601:1 6602:1 6603:1 6604:1 6605:1 6606:1 6607:1 6608:1 6609:1 
1 129:1 1048:1 1732:1 3416:1 
1 446:1 1100:1 1341:1 3813:1 4098:1 4190:1 6611:1 6612:1 6613:1 
1 40:1 255:1 307:1 663:1 1053:1 1169:1 1282:1 6619:1 
1 55:1 87:1 93:1 119:1 294:1 478:1 641:1 795:1 862:1 1096:1 1210:1 1724:1 2516:1 2601:1 3959:1 4214:1 6625:1 
1 28:1 42:1 210:1 475:1 478:1 1178:1 1342:1 5442:1 6546:1 6626:1 6627:1 
1 13:1 143:1 336:1 480:1 857:1 859:1 1914:1 3195:1 6635:1 
1 19:1 4005:1 
1 13:1 26:1 30:1 228:1 313:1 377:1 384:1 644:1 758:1 928:1 1057:1 2231:1 5275:1 6410:1 6640:1 
1 9:1 30:1 183:1 374:1 463:1 941:1 1761:1 2064:1 2299:1 2756:1 2814:1 5015:1 6641:1 6642:1 6643:1 
1 13:1 19:1 182:1 321:1 516:1 643:1 649:1 1399:1 1404:1 3189:1 3951:1 6644:1 6645:1 6646:1 
1 236:1 368:1 991:1 2144:1 2377:1 2394:1 5077:1 5234:1 6457:1 6647:1 
1 27:1 40:1 259:1 713:1 1061:1 1069:1 2963:1 4073:1 4305:1 4417:1 4985:1 5238:1 5506:1 6648:1 6649:1 6650:1 6651:1 6652:1 6653:1 
1 1206:1 2523:1 3470:1 3664:1 
1 13:1 15:1 19:1 862:1 1399:1 1564:1 1627:1 1920:1 4746:1 6654:1 6655:1 6656:1 
1 1330:1 4086:1 4761:2 5098:1 6106:1 6470:2 6599:1 6661:1 6662:1 6663:1 6664:1 6665:1 6666:1 6667:1 6668:1 6669:1 6670:1 6671:1 6672:1 6673:1 6674:1 6675:1 6676:1 6677:1 
1 6678:1 
1 40:1 88:1 115:1 259:1 418:1 504:1 534:1 786:1 895:1 1609:1 1919:1 3052:1 5616:1 6679:1 
1 68:1 131:1 367:1 639:1 641:1 831:1 1627:1 2147:1 2209:1 2407:1 3077:1 3215:1 6682:1 6683:1 6684:1 6685:1 6686:1 
1 20:1 310:1 318:1 731:1 736:1 1159:1 1724:1 1803:1 2078:1 2104:1 2686:1 4996:1 
1 1362:1 1496:1 2401:1 4193:1 4357:1 4852:1 5115:1 5306:1 5761:1 6687:1 6688:1 6689:1 
1 19:1 55:1 256:1 339:1 480:1 654:1 665:1 670:1 1298:1 1667:1 2635:1 3680:1 3712:1 3767:1 4454:1 5397:1 5625:1 6700:1 6701:2 6702:1 6703:1 
1 193:1 480:1 931:1 987:1 2966:1 2967:1 4008:1 5362:1 6704:1 6705:1 6706:1 
1 13:2 23:1 601:1 1206:1 1834:1 2449:1 2476:1 2477:1 2686:1 5825:1 6265:1 6707:1 6708:1 6709:1 6710:1 
1 100:1 643:1 923:1 981:1 1304:1 1669:1 2327:1 3881:1 6711:1 6712:1 6713:1 
1 13:1 405:1 480:1 2963:1 3211:1 3346:1 6714:1 
1 19:1 629:1 1342:1 1641:1 2059:1 2959:1 4907:1 6683:1 6732:1 6733:1 
1 534:1 1583:1 6734:2 6735:1 
1 988:1 1212:1 1680:1 3079:1 3574:1 
1 256:1 384:1 2645:1 6742:1 
1 13:1 28:1 112:1 492:1 523:1 559:1 663:1 1083:1 1831:1 2150:1 3123:1 3278:1 4092:1 4706:1 5354:1 5397:1 6750:1 6751:1 
1 1250:1 1276:1 1611:1 1665:1 2059:1 3012:1 4779:1 4902:1 
1 686:1 1113:1 1607:1 1626:1 3453:1 5973:1 6752:1 6753:1 6754:1 6755:1 
1 13:1 15:1 19:1 87:1 406:1 654:1 1107:1 1395:1 2387:1 2644:1 3369:1 4208:1 6080:1 
1 126:1 156:1 210:1 256:1 345:1 775:1 1037:1 1162:1 1459:1 1477:1 3103:1 4178:1 4923:1 6759:1 6760:1 
1 15:1 39:1 153:1 342:1 344:1 624:1 3332:1 3608:1 5959:1 6761:1 6762:1 
1 5305:1 5902:1 6259:1 6763:1 
1 534:1 743:1 862:1 975:1 1015:1 1264:1 2814:1 2856:1 6766:1 
1 126:1 487:1 650:1 795:1 1276:1 1649:1 2846:1 3235:1 4268:1 6780:1 6781:1 6782:1 6783:1 6784:1 6785:1 
1 105:1 173:1 259:1 275:1 384:1 447:2 853:1 1156:1 3200:1 3766:1 5094:1 6730:1 6786:1 6787:1 
1 26:1 276:1 661:1 1522:1 1596:1 1942:1 2271:1 2406:1 4388:1 5728:1 6186:1 6187:1 6794:1 6795:1 6796:1 
1 40:2 87:1 222:1 587:1 657:1 713:1 1382:1 1462:1 1722:1 1998:1 2184:1 2304:1 6797:1 6798:1 
1 26:1 120:1 574:1 795:1 1637:1 
1 17:1 19:1 42:1 478:1 793:1 880:1 881:1 1170:1 1655:1 2104:1 2808:1 3803:1 4738:1 6803:1 6804:1 
1 143:1 561:1 1399:1 3842:1 6809:1 
1 989:1 1641:1 1697:1 4226:1 6810:1 
1 446:1 529:1 936:1 1041:1 1113:1 1115:1 1149:1 1436:1 2442:1 3161:1 4008:1 6820:1 6821:1 
1 19:1 312:1 345:1 819:1 985:1 1047:1 1120:1 1198:1 1716:1 2977:1 3140:1 5162:1 6828:1 6829:1 6830:1 6831:1 
1 184:1 198:1 316:1 321:1 611:1 1132:1 1436:1 1623:1 1951:1 3199:1 3526:1 4404:1 4496:1 5273:1 6841:1 6842:1 6843:1 6844:1 6845:1 6846:1 
1 228:1 1162:1 3407:1 6852:1 6853:1 
1 19:2 54:1 57:1 225:1 232:1 480:1 534:1 929:1 2062:1 2730:1 3170:1 4831:1 6103:1 6486:1 6856:1 6857:1 
1 26:1 654:1 1355:1 1477:1 2528:1 3904:1 5260:1 6828:1 6859:1 
1 707:1 834:1 865:1 1100:1 1813:1 3407:1 3759:1 3775:1 5735:1 6829:1 6860:1 6861:1 
1 4:1 126:1 814:1 6862:1 6863:1 6864:1 6865:1 
1 67:1 4913:1 6112:1 6875:1 6876:1 6877:1 6878:1 
1 92:1 100:1 261:1 406:1 1283:1 4014:1 4404:1 4817:1 5039:1 6882:1 6883:1 
1 1477:1 5023:1 5525:1 
1 310:1 501:1 1689:1 2715:1 3013:1 3719:1 6063:1 6892:1 6893:1 
1 40:1 310:1 414:1 1333:1 1699:1 2323:1 2925:1 6896:1 6897:1 
1 4:1 6:1 360:1 761:1 1981:1 2443:1 4232:1 4854:1 6898:1 6899:1 
1 50:1 493:1 1068:1 1282:1 2314:1 2586:1 3050:1 3289:1 4211:1 6903:1 6904:1 6905:1 
1 42:1 183:1 256:1 316:1 546:1 1372:1 1445:1 1667:1 3212:1 3712:1 4154:1 6798:1 6906:1 
1 429:1 736:1 929:1 1477:1 1609:1 1639:1 2421:1 2971:1 3180:1 6908:1 
1 177:1 246:1 535:1 695:1 867:1 988:1 1324:1 3689:1 3986:1 5668:1 6909:1 
1 1170:1 1640:1 2211:1 3953:1 6912:1 6913:1 6914:1 
1 42:1 119:1 351:1 384:1 534:1 570:1 623:1 960:1 1381:1 1817:1 4959:1 5637:1 6916:1 
1 912:1 2605:1 3843:1 4504:1 5123:1 5899:1 6191:1 
1 92:1 148:1 156:1 193:1 208:1 642:1 651:1 1346:1 1772:1 1885:1 4993:1 6647:1 6919:1 6920:1 6921:1 
1 173:1 254:1 256:1 480:1 599:1 882:1 1066:1 6922:1 
1 164:1 239:1 323:1 352:1 815:1 840:1 883:1 1475:1 1981:1 2357:1 2725:1 3222:1 4023:1 4280:1 4444:1 5626:1 6923:1 6924:1 6925:1 
1 285:1 2184:1 3304:1 3323:1 3649:1 3653:1 3754:1 4648:1 4688:1 6926:1 
1 19:1 424:1 1021:1 1132:1 1259:1 3186:1 4591:1 4624:1 5046:1 6059:1 6826:1 
1 723:1 733:1 2175:1 2220:1 2744:1 6927:1 6928:1 
1 40:2 68:1 119:1 548:1 981:1 2653:1 3121:1 6468:1 
1 30:1 55:1 134:1 316:1 1324:1 1381:1 2977:1 5198:1 6271:1 6929:1 
1 19:1 239:1 509:1 641:1 713:1 1340:1 1891:1 2110:1 2645:1 4647:2 6061:1 6930:1 6931:1 6932:1 6933:1 
1 256:1 509:1 587:1 866:1 989:1 1330:1 1382:1 2184:1 3104:1 
1 40:1 42:1 75:1 252:1 516:1 637:1 983:1 1135:1 1556:1 2212:1 2387:1 2686:1 4710:1 5941:1 6266:1 6934:1 6935:1 6936:1 6937:1 
1 19:1 428:1 572:1 1047:1 1399:1 2083:1 
1 19:1 26:1 30:1 99:1 183:1 296:1 324:1 679:1 786:1 790:1 1157:1 1404:1 1572:1 1609:1 3294:1 6938:1 6939:1 6940:1 6941:1 6942:1 6943:1 6944:1 
1 213:1 259:1 345:1 558:1 713:1 827:1 869:1 978:1 1834:1 2147:1 6945:1 6946:1 6947:1 6948:1 
1 23:1 320:1 647:1 714:1 1164:1 1168:1 1478:1 1703:1 3088:1 3722:1 4045:1 4615:1 4636:1 6954:1 6955:1 6956:1 
1 19:1 40:1 93:1 193:1 431:1 731:2 862:1 892:1 1062:1 1802:1 3777:1 3902:1 3959:1 6961:1 6962:1 6963:1 6964:1 6965:1 
1 19:1 40:1 43:1 701:1 975:1 1162:1 1204:1 1552:1 1574:1 1983:1 2525:1 6971:1 6972:1 
1 278:1 490:1 1276:1 1956:1 2366:1 
1 1016:1 1831:1 2200:1 2483:1 6982:1 6983:1 
1 482:1 516:2 832:1 1021:1 1966:1 2398:1 3468:1 3986:1 6985:1 6986:1 
1 129:1 473:1 658:1 767:1 1409:1 1549:2 2175:1 2228:2 2368:1 4252:1 
1 30:1 261:1 524:1 2715:1 6982:1 6988:1 6989:1 6990:1 
1 91:1 129:1 316:1 1251:1 1761:1 1767:1 6999:1 7000:1 7001:1 7002:1 7003:1 7004:1 7005:1 
1 19:1 62:1 88:1 99:1 221:1 273:1 531:1 572:1 1350:1 1534:1 1549:1 2001:1 4463:1 6147:1 7006:1 7007:1 
1 750:1 824:1 1395:1 1794:1 1944:1 2179:1 2533:1 3928:1 4876:1 5376:1 5379:1 5669:1 7008:1 7009:1 
1 42:1 259:1 383:1 643:1 1160:1 2387:1 2504:1 5497:1 7019:1 
1 661:1 1357:1 4634:1 6305:1 7022:1 7023:1 7024:1 7025:1 7026:1 7027:1 
1 19:1 119:1 374:1 478:1 1170:1 2730:1 2746:1 2977:1 3479:1 5388:1 5447:1 6147:1 7030:1 7031:1 7032:1 
1 75:1 439:1 873:1 983:1 3100:1 5373:1 7036:1 7037:1 
1 19:1 42:1 57:1 252:1 534:1 611:2 1206:1 2955:1 7038:1 7039:1 
1 99:1 256:1 384:1 997:1 2001:1 2036:1 2054:1 2341:1 2452:1 3750:1 7042:1 
1 723:1 4504:1 7043:1 
1 7044:1 7045:1 
1 19:1 39:1 57:1 332:1 352:1 1206:1 3885:1 4268:1 
1 148:1 760:1 814:1 2081:1 6682:1 
1 183:1 574:1 623:1 1229:1 1675:1 3689:1 
1 362:1 509:1 1206:1 6548:1 7047:1 
1 13:1 15:1 1047:1 1324:1 1522:2 1765:1 2498:1 4462:1 5448:1 6097:1 6098:1 6099:1 6100:1 6931:1 7048:1 7049:1 7050:1 
1 19:1 105:1 525:1 657:1 1355:1 1470:1 1533:1 1627:1 2155:1 4504:1 4555:1 5556:1 6356:1 
1 42:1 259:1 609:1 1414:2 1857:1 3203:2 3216:1 4124:1 4417:1 4488:1 4926:1 7051:1 7052:1 
1 0:1 55:1 134:1 743:1 997:1 1107:1 1427:1 1730:1 2209:1 2756:1 4462:1 4992:1 7055:1 7056:1 7057:1 
1 19:1 190:1 198:1 883:1 1355:1 3722:1 4016:1 4017:1 5454:1 7062:1 7063:1 7064:1 7065:1 
1 176:1 256:1 272:1 736:1 882:1 1164:1 6873:1 
1 377:1 1333:1 2744:1 6905:1 
1 19:1 1118:1 1357:1 7072:1 7073:1 7074:1 7075:1 
1 19:1 42:1 228:1 485:1 573:1 641:1 819:1 987:1 1069:1 1485:1 1795:1 2377:1 2634:1 2834:1 3468:1 5288:1 5478:1 5569:1 6637:1 6704:1 7076:2 7077:1 
1 13:1 105:1 203:1 256:2 368:1 447:1 536:1 538:1 991:1 1953:1 2523:1 3858:1 4846:1 7078:1 7079:1 
1 28:1 100:1 105:1 500:1 1005:1 1030:1 1118:1 3062:1 4097:1 5265:1 7085:1 7086:1 
1 21:1 30:1 256:1 262:1 264:1 500:1 794:1 895:1 1442:1 2991:1 4214:1 7052:1 7087:1 7088:1 
1 360:1 421:1 439:1 494:1 662:1 731:1 990:1 1198:1 1250:1 2971:1 3077:1 3229:1 3297:1 3597:1 3773:1 3891:1 3959:1 7089:1 7090:1 
1 195:1 1022:1 3180:1 3470:1 7091:1 7092:1 
1 183:1 2588:1 3882:1 6082:1 7093:1 
1 126:1 183:1 470:1 473:1 1552:1 1572:1 3032:1 4504:1 
1 13:1 623:1 838:1 3566:1 3885:1 
1 928:1 1206:1 2459:1 7098:1 7099:1 7100:1 
1 273:1 504:1 565:1 783:1 925:1 961:1 3394:1 4090:1 7112:1 7113:1 7114:1 7115:1 7116:1 7117:1 7118:1 
1 285:1 447:1 910:1 912:1 919:2 1009:1 2252:1 2263:1 2347:1 2354:1 7123:1 7124:1 7125:2 7126:1 7127:1 7128:1 7129:1 7130:1 7131:1 7132:1 7133:1 7134:1 7135:1 
1 100:1 115:1 534:1 795:1 997:1 1866:1 4515:1 
1 139:1 475:1 981:1 2908:1 4459:1 7144:1 7145:1 7146:1 
1 97:1 203:1 389:1 828:1 1668:1 2759:1 3168:1 6066:1 7147:1 7148:1 
1 39:1 40:1 182:1 384:1 611:1 614:1 724:1 758:1 827:1 1091:1 1543:1 2551:1 2997:1 3130:1 3880:1 4226:1 4545:1 5678:1 7149:1 7150:1 7151:1 
1 21:1 139:1 153:1 193:1 348:1 362:1 529:1 655:1 673:1 1258:1 1291:1 1465:1 2797:1 5741:1 7152:1 7153:1 
1 39:1 129:1 1037:1 1078:1 1832:1 1833:1 3032:1 
1 13:1 516:1 654:1 707:1 840:1 882:1 1148:1 3816:1 6936:1 7162:1 7163:1 7164:1 
1 42:1 126:1 439:1 461:1 876:1 1047:1 1129:1 1382:1 1450:1 1984:1 2165:1 3367:1 7170:1 7171:1 7172:1 7173:1 
1 23:1 40:1 80:1 494:1 572:1 649:1 862:1 1304:1 1367:1 3270:1 5445:1 7174:1 7175:1 
1 98:1 99:1 122:1 143:1 144:1 439:1 594:1 1041:1 1916:1 2573:1 4196:1 5870:1 7177:1 7178:1 
1 662:1 1962:1 2556:1 4660:1 
1 256:1 646:1 1367:2 3167:1 5017:1 7180:1 
1 30:1 156:1 492:1 679:1 1025:1 2488:1 3360:1 3982:1 7187:1 
1 13:1 75:1 636:1 673:1 1357:1 1650:1 2565:1 5382:1 7114:1 7188:1 7189:1 7190:1 7191:1 7192:1 7193:1 7194:1 7195:1 7196:1 
1 19:1 129:1 1074:1 1312:1 1633:1 2110:1 2233:1 7197:1 7198:1 7199:1 7200:1 7201:1 7202:1 
1 19:1 132:1 345:1 523:1 1891:1 
1 19:1 42:1 759:1 800:1 1302:1 1736:1 2941:1 3397:1 4305:1 6652:1 
1 168:1 728:1 2112:1 2147:1 3514:1 4822:1 5357:1 5525:1 7206:1 7207:1 7208:1 7209:1 
1 480:1 1162:1 2977:1 3472:1 
1 405:1 439:1 641:1 743:1 1623:1 1718:1 2304:1 2481:1 2808:1 3721:1 4086:1 7216:1 7217:1 
1 228:1 458:1 478:1 510:1 1202:1 1334:1 1724:1 1768:1 1942:1 2160:1 2516:1 2967:1 3573:1 3633:1 4148:1 5394:1 6126:1 7218:1 7219:1 7220:1 7221:1 7222:1 
1 19:1 39:1 110:1 134:1 314:1 789:1 984:1 1408:1 
1 256:1 318:1 701:1 2672:1 7227:1 
1 0:1 100:1 103:1 184:1 548:1 6252:1 7229:1 
1 26:1 27:1 28:1 115:1 402:1 410:1 525:1 582:1 989:1 1974:1 3161:1 3332:1 4463:1 5554:1 5632:1 6543:1 7233:1 7234:1 7235:1 
1 119:1 577:1 956:1 1342:1 1627:1 2686:1 2715:1 3254:1 5480:1 7238:1 7239:1 7240:1 7241:1 7242:1 7243:1 
1 75:1 94:1 256:1 1295:1 2206:1 3516:1 5997:1 7097:1 7249:1 
1 19:1 30:1 249:1 641:1 733:1 987:1 1980:1 3356:1 5105:1 7250:1 7251:1 
1 0:1 15:1 126:1 188:1 197:1 876:1 1069:1 1653:1 2896:1 5549:1 7270:1 7271:1 7272:1 
1 13:1 335:2 441:1 855:1 1004:1 1926:1 3186:1 3882:1 5004:1 6685:1 7273:1 7274:1 7275:1 7276:1 
1 480:1 862:1 1170:1 1655:1 2712:1 2927:1 4275:1 4662:1 5240:1 6218:1 7285:1 7286:1 7287:1 7288:1 
1 13:1 39:1 42:1 1357:1 1667:1 1790:1 2160:1 3377:1 3644:1 4148:1 7296:1 7297:1 7298:1 7299:1 7300:1 
1 94:1 173:1 362:1 1280:1 1450:1 4623:1 4671:1 5525:1 7301:1 
1 176:1 258:1 439:1 469:1 473:1 572:1 929:1 932:1 988:1 1283:1 1621:1 1699:1 7302:1 7303:1 7304:1 
1 15:1 19:1 30:1 658:1 702:1 882:1 2720:1 4671:1 5448:1 7305:1 
1 99:1 210:1 473:1 598:1 702:1 758:1 766:1 1191:1 1534:1 2927:1 6440:1 7309:1 7310:1 
1 7075:1 
1 255:1 256:1 882:1 988:1 2814:1 3042:1 4072:1 4582:1 7314:1 7315:1 7316:1 
1 509:1 1250:1 1283:1 2299:1 3235:1 7317:1 
1 19:1 3795:1 7321:1 
1 30:1 182:1 183:1 272:1 428:1 641:1 783:1 898:1 1212:1 1355:1 1633:1 1737:1 2640:1 4323:1 7334:1 7335:1 
1 91:1 663:1 775:1 789:1 1191:1 1732:1 7336:1 7337:1 
1 510:1 1219:1 1300:1 1730:1 2062:1 2390:1 3575:1 3980:1 5015:1 5108:1 7338:1 
1 376:1 384:1 581:1 670:1 862:1 1170:1 2165:1 2522:1 2733:1 6382:1 7342:1 7343:1 7344:1 
1 26:1 91:1 352:1 2240:1 7345:1 
1 19:1 40:1 256:1 263:1 362:1 624:1 1170:1 1718:1 2419:1 2781:1 6365:1 
1 139:1 1206:1 2852:1 
1 156:1 361:1 679:1 899:1 1223:1 1790:1 1960:1 2437:1 3211:1 3213:1 3324:1 7353:1 
1 19:1 1609:1 1914:1 2494:1 
1 126:1 190:1 2971:1 7361:1 7362:1 
1 40:1 115:1 327:1 478:1 516:1 538:1 541:1 766:1 795:1 882:1 1372:1 2967:1 7363:1 
1 13:1 87:1 115:1 876:1 1088:1 1339:1 1777:1 2156:1 2541:1 2800:1 4211:1 5279:1 7371:1 7372:1 7373:1 7374:1 7375:1 7376:1 
1 126:1 338:1 1165:1 1564:1 4988:1 7377:1 
1 19:1 100:1 156:1 172:1 256:1 344:1 494:1 548:1 634:1 686:1 718:1 760:1 777:1 1357:1 1618:1 2939:1 3453:1 7380:1 7381:1 7382:1 
1 0:1 40:1 126:1 256:1 429:1 439:1 475:1 480:1 613:1 971:1 1053:1 1165:1 1280:1 1574:1 5661:1 5902:1 7388:1 
1 991:1 2144:1 
1 75:1 261:1 574:1 1349:1 
1 565:1 724:1 1210:1 2959:1 3766:1 7243:1 7389:1 7390:1 7391:1 
1 256:1 656:1 713:2 758:1 806:1 880:1 1170:1 1333:1 2516:1 2737:1 2980:1 3272:1 3593:1 3594:1 6707:1 
1 28:1 203:1 210:1 256:1 441:1 774:1 857:1 1267:1 2043:1 2816:1 3117:1 3760:1 6513:1 7394:1 7395:1 
1 19:1 78:1 99:2 126:1 129:1 363:1 384:1 651:1 1276:1 1350:1 1428:1 1429:1 3175:1 5066:1 5360:1 6704:1 7396:1 7397:1 7398:1 7399:1 
1 228:1 256:1 263:1 353:1 1080:1 1212:1 1347:1 1537:1 1722:1 2634:1 5252:1 7416:1 7417:1 
1 23:1 81:1 414:1 932:1 1350:1 1718:1 1804:1 2271:1 2561:1 3800:1 5407:1 6183:1 7423:1 7424:1 
1 6:1 210:1 1100:1 3155:1 3348:1 3951:1 4526:1 4617:1 4734:1 5726:1 6537:1 7426:1 7427:1 7428:1 7429:1 7430:1 
1 19:1 26:1 786:1 899:1 1269:1 1582:1 2160:1 2327:1 2967:1 4695:1 7431:1 7432:1 
1 469:1 747:1 929:1 1259:1 1480:1 2213:1 2327:1 7434:1 7435:1 7436:1 7437:1 7438:1 7439:1 
1 87:1 92:1 100:1 203:1 261:1 623:1 649:1 814:1 1908:1 1944:1 2374:1 3426:1 4283:1 7440:1 7441:1 
1 54:1 193:1 384:1 494:1 641:1 1025:1 1536:1 1652:1 1772:1 2225:1 4208:1 7444:1 7445:1 
1 256:1 1298:1 1608:1 5442:2 7447:1 
1 388:1 461:1 1055:1 1324:1 1592:1 1941:1 4980:1 5031:1 7344:1 7448:1 7449:1 7450:1 7451:1 
1 1013:1 7452:1 
1 15:1 183:1 285:1 558:1 1069:1 1669:1 6223:1 7458:1 7459:1 
1 19:1 129:1 304:1 310:1 635:1 853:1 1564:1 7146:1 7460:1 7461:1 
1 21:1 43:1 466:1 862:1 1170:1 1554:1 1609:1 1687:1 2522:1 3412:1 3687:1 3911:1 
1 285:1 316:1 1198:1 2610:1 5669:1 7464:1 
1 11:1 13:1 19:1 360:1 624:1 769:1 865:1 1181:1 1277:1 2231:1 3652:1 3702:1 7114:1 7471:1 
1 3130:1 3950:1 4012:1 7472:1 
1 173:1 502:1 604:1 1165:1 2184:1 2270:1 7473:1 7474:1 7475:1 
1 54:1 126:1 1324:1 1417:1 2633:1 2975:1 4190:1 4192:1 4193:1 4194:1 7476:1 
1 13:1 119:1 176:1 475:1 537:1 1212:1 1583:1 1647:1 3494:1 4830:1 7483:1 
1 58:1 657:1 862:1 971:1 1259:1 7484:1 
1 183:1 1202:1 1251:1 1324:1 3012:1 3608:1 3964:1 4235:1 6193:1 6206:1 7093:1 7485:1 7486:1 7487:1 7488:1 7489:1 7490:1 
1 19:1 239:1 301:1 572:1 1170:1 1609:1 1689:1 2501:1 2649:1 3283:1 4380:1 5375:1 7491:1 7492:1 
1 228:1 237:1 639:1 862:1 882:1 1264:1 1699:1 7493:1 
1 180:1 256:1 672:1 1650:1 3779:1 3811:1 7495:1 7496:1 7497:1 7498:1 
1 15:1 176:1 190:1 219:1 478:1 713:1 736:1 823:1 931:1 1131:1 1229:1 1301:1 1655:1 2608:1 3986:1 4269:1 7499:1 7500:1 7501:1 7502:1 7503:1 
1 15:1 1255:1 2379:1 4602:1 7504:1 7505:1 
1 42:1 120:1 271:1 502:1 662:1 1732:1 7506:1 7507:1 7508:1 7509:1 
1 19:1 210:1 318:1 658:1 670:1 1554:1 1682:1 2044:1 3721:1 3891:1 6201:1 7513:1 7514:1 7515:1 
1 577:1 684:1 1047:1 7516:1 
1 93:1 239:1 754:1 794:1 1168:1 1964:1 3614:1 5204:1 5527:1 7517:1 7518:1 
1 36:1 176:1 387:1 447:1 771:1 1078:1 1353:1 2156:1 3032:1 7519:2 7520:1 7521:1 7522:1 7523:1 
1 1574:1 1655:1 4012:1 
1 40:1 256:1 548:1 578:1 731:1 989:1 1398:1 3583:1 4380:1 7538:1 7539:1 7540:1 7541:1 7542:1 
1 19:1 193:1 650:1 899:1 1338:1 2437:1 3332:1 7547:1 
1 20:1 42:1 880:1 945:1 1304:1 1475:1 2162:1 
1 477:1 577:1 628:1 643:1 703:1 2457:1 2459:1 5442:1 6312:1 7555:1 7556:1 7557:1 7558:1 7559:1 7560:1 7561:1 
1 750:1 1202:1 1324:1 2847:1 3986:1 4690:1 
1 0:1 636:1 704:1 747:1 847:1 1667:1 4330:1 
1 87:1 256:1 377:1 524:1 1333:1 1772:1 1981:1 5587:1 6431:1 7563:1 
1 512:1 1098:1 1169:1 3635:1 7569:1 7570:1 7571:1 
1 985:1 1502:1 1790:1 2072:2 2594:1 2650:1 3348:1 3620:1 3725:1 7579:1 
1 4:1 87:1 273:1 688:1 1053:1 2398:1 2852:1 2971:1 7580:1 7581:1 7582:1 7583:1 7584:1 
1 30:1 198:1 502:1 510:1 644:1 816:1 1627:1 3301:1 5011:1 5697:1 6521:1 7585:1 7586:1 7587:1 
1 42:1 55:1 93:2 1547:1 4016:1 4215:1 6524:1 7588:1 7589:1 7590:1 
1 19:1 40:1 1258:1 1718:1 3689:1 3951:1 7450:1 7591:1 
1 377:1 516:1 590:1 1202:1 1324:1 2657:1 3204:1 
1 19:1 30:1 244:1 582:1 1997:1 2409:1 7606:1 7607:1 7608:1 
1 386:1 862:1 975:1 1172:1 
1 19:1 39:1 203:1 204:1 256:2 1305:1 1408:1 2010:1 4348:1 5148:1 5401:1 7609:1 
1 1122:2 1408:1 
1 30:1 52:1 118:1 196:1 568:1 743:1 987:1 1206:1 1257:1 1272:1 1477:1 1807:1 1981:1 3565:1 7610:1 
1 795:1 862:1 1300:1 2206:1 2460:1 2975:1 3168:1 3226:1 6437:1 7097:1 
1 304:1 1098:1 1162:1 1250:1 1257:1 1549:1 1609:1 3543:1 
1 28:1 485:1 774:1 5151:1 5153:1 7646:1 
1 132:1 1355:1 1483:1 3585:1 
1 50:1 66:1 75:1 153:1 475:1 480:1 649:1 1953:1 2123:1 2610:1 2627:1 3155:1 3305:1 3464:1 4061:1 4229:1 5257:1 6271:1 7648:1 7649:1 
1 13:1 42:1 188:1 213:1 439:1 795:1 816:1 1257:1 3514:1 4730:1 7655:1 7656:1 
1 53:1 256:1 322:1 384:1 552:1 1428:1 7586:1 7657:1 7658:1 
1 203:1 594:1 599:1 1403:1 1437:1 2779:1 2925:1 3205:1 7680:1 
1 21:1 611:1 686:1 963:1 2048:1 6307:1 7683:1 7684:1 7685:1 
1 256:1 259:1 1530:1 3761:1 4633:1 4820:1 6916:1 7442:1 
1 99:1 385:1 487:1 997:2 1165:1 1282:1 1551:1 2716:1 2799:1 3360:1 4084:1 6020:1 7687:1 7688:1 7689:1 7690:1 7691:1 
1 15:1 126:1 331:1 684:1 1274:1 1337:1 2528:1 2953:1 6509:1 7172:1 7696:1 
1 19:1 385:1 624:1 638:1 639:1 701:1 853:1 1408:1 1417:1 7697:1 7698:1 
1 99:1 469:1 775:1 1296:1 2847:1 4830:1 6230:1 7699:1 7700:1 7701:1 7702:1 
1 19:1 99:1 134:1 789:1 1790:1 3076:1 7703:1 
1 19:1 115:1 312:1 345:1 663:1 1940:1 3061:1 3532:1 5278:1 
1 40:1 122:1 548:1 723:1 760:1 1591:1 1732:1 2485:1 3766:1 5646:1 
1 19:1 414:1 580:1 1074:1 2706:1 3282:1 4211:1 7711:1 7712:1 
1 42:1 659:1 882:1 1022:1 1574:1 2781:1 3673:1 4502:1 7713:1 7714:1 7715:1 7716:1 
1 795:1 1521:1 1725:1 1732:1 2051:1 3119:1 5130:1 7717:1 
1 858:1 1047:1 2522:1 
1 360:1 666:1 892:1 990:1 1365:1 1445:1 2421:1 5503:1 7718:1 7719:1 
1 13:1 480:1 903:1 1078:1 1761:1 7722:1 7723:1 
1 42:1 238:1 255:1 335:1 381:1 525:1 661:1 1363:1 2323:1 4040:1 6042:1 7724:1 7725:1 7726:1 7727:1 
1 210:1 360:1 562:1 605:1 641:1 882:1 928:1 1211:1 3052:1 3676:1 6180:1 7728:1 
1 4:1 40:1 263:1 979:1 1365:1 
1 13:1 54:1 236:1 286:1 342:1 535:1 856:1 1291:1 1655:1 1772:1 2701:1 3437:1 4091:1 4139:1 5395:1 7091:1 7729:1 7730:1 7731:1 7732:1 
1 40:1 458:1 1047:1 1450:1 2202:1 3680:1 5680:1 5902:1 7733:1 7734:1 
1 605:1 837:1 1129:1 1212:1 1722:1 2055:1 3575:1 7739:1 
1 13:1 222:1 256:1 406:1 791:1 1269:1 1486:1 1823:1 3680:1 4818:1 5279:1 7740:1 
1 450:1 1999:1 6726:1 
1 182:1 322:1 480:1 510:1 530:1 758:1 1310:1 1324:1 2089:1 6653:1 7744:1 7745:1 7746:1 7747:1 
1 40:1 343:1 499:1 1008:1 1212:1 1975:1 4671:1 6348:1 7749:1 
1 44:1 55:1 81:1 99:1 117:1 294:1 577:1 759:1 876:1 882:1 924:1 1357:1 1416:1 2082:1 2374:1 2633:1 2742:1 3114:1 4329:1 7754:1 7755:1 7756:1 7757:1 7758:1 
1 55:1 256:2 693:1 786:1 2710:2 2895:1 4488:1 5155:1 7220:2 7759:2 7760:1 7761:1 
1 634:1 1477:1 1981:1 7762:1 
1 30:1 40:1 91:1 176:1 259:1 341:1 352:1 368:1 439:1 534:2 1078:1 3281:1 6060:1 6061:1 6300:1 7771:1 7772:1 7773:1 
1 819:1 1408:1 2971:1 6888:1 
1 40:1 52:1 376:1 482:1 733:1 3088:1 4578:1 6062:1 7779:1 
1 19:1 176:1 198:1 795:1 931:1 1610:1 6683:1 
1 54:1 256:1 1330:1 1483:1 1545:1 1627:1 3168:1 4095:1 4286:1 7790:1 7791:1 7792:1 7793:1 7794:1 
1 4:1 3748:1 7795:1 
1 13:1 119:1 314:1 368:1 641:1 654:1 928:1 1541:1 2117:1 3790:1 5394:1 7798:1 7799:1 
1 15:1 75:1 255:1 377:1 414:1 450:1 525:1 590:1 795:1 3040:1 3100:1 4348:1 7803:1 
1 261:1 862:1 1020:1 1305:1 1327:1 1605:1 1772:1 2988:1 3140:1 4157:1 
1 100:1 1304:1 3773:1 3816:1 
1 19:1 1202:1 1324:1 3579:1 7804:1 
1 139:1 239:1 246:1 285:1 867:1 1447:1 1956:1 3656:1 7809:1 7810:1 
1 210:1 3032:1 7818:1 7819:1 7820:1 7821:1 
1 80:1 100:1 258:1 644:1 1324:1 4138:1 4139:1 5382:1 7822:1 7823:1 7824:1 7825:1 7826:1 
1 40:1 475:1 534:1 3303:1 7827:1 
1 6:1 30:1 99:2 344:1 363:1 480:1 800:1 862:1 1164:1 1806:1 1857:1 1984:1 2049:1 4192:1 6939:1 7392:1 7828:1 
1 78:1 256:1 1342:1 1363:1 1450:1 1668:1 2374:1 2443:1 2759:1 3111:1 
1 316:1 679:1 3102:1 3986:1 6105:2 
1 153:1 197:1 322:1 1008:1 1324:1 2038:1 5198:1 7449:1 7835:1 7836:1 
1 473:1 500:1 816:1 1068:1 1549:1 1767:1 
1 19:1 390:1 590:1 688:1 842:1 862:1 1170:1 1297:1 1395:1 1804:1 1814:1 3432:1 7845:1 7846:1 
1 54:1 75:1 99:1 734:1 1020:1 1347:1 1420:1 1523:1 1733:1 1735:1 2159:1 3696:1 4728:1 4859:1 7212:1 7847:1 7848:1 
1 55:1 198:1 285:1 386:1 517:1 735:1 3299:1 3331:1 4767:1 4846:1 5023:1 7850:1 
1 13:1 206:1 233:1 272:1 439:1 663:1 984:1 7854:1 7855:1 
1 762:1 1564:1 1830:1 3412:1 7858:1 7859:1 
1 19:1 120:1 250:1 414:1 1551:1 2530:1 5023:1 6594:1 7705:1 7860:1 7861:1 7862:1 7863:1 
1 119:1 251:1 419:1 587:1 686:1 1162:1 1258:1 1363:1 1408:1 1687:1 1830:1 2443:1 3066:1 3207:1 3235:1 3885:1 5816:1 7869:1 7870:1 
1 123:1 702:1 783:1 1107:1 1555:1 1732:1 7871:1 
1 39:1 42:1 118:1 644:1 862:1 928:1 1068:1 1477:1 3370:1 3691:1 5503:1 7873:1 
1 15:1 259:1 468:1 475:1 644:1 701:1 931:1 1146:1 1694:1 2049:1 2426:1 2667:1 3091:1 3319:1 7082:1 7874:1 7875:1 7876:1 
1 40:1 259:1 384:1 1170:1 1752:1 2227:1 2710:1 7475:1 7877:1 7878:1 7879:1 7880:1 
1 13:1 23:1 256:1 336:1 478:1 536:1 862:1 1160:1 1403:1 1653:1 2710:1 7332:1 7881:1 
1 344:1 862:1 2374:1 3816:1 4233:1 
1 19:1 271:1 385:1 386:1 670:1 840:1 876:1 1817:1 2049:1 3085:1 3543:1 6912:1 7882:1 7883:1 7884:1 7885:1 7886:1 7887:1 7888:1 
1 470:1 638:1 1772:1 2305:1 5163:1 7889:1 7890:1 7891:1 
1 105:1 405:1 504:1 1442:1 1725:1 2646:1 4726:1 7907:1 
1 87:1 380:1 635:1 775:1 1074:1 1246:1 1324:1 1540:1 1772:1 2122:1 2642:1 2772:1 4361:1 7908:1 7909:1 7910:1 
1 19:2 126:1 198:1 237:1 360:1 439:1 718:1 987:1 1068:1 1118:1 1344:1 1388:1 1744:1 1995:1 3566:1 3605:1 3720:1 5296:1 6818:1 7913:1 7914:1 7915:1 
1 28:1 153:1 414:1 475:1 684:1 862:1 1047:1 3629:1 6005:1 7918:1 7919:1 7920:1 7921:1 7922:1 7923:1 
1 1831:1 1904:1 3139:1 3748:1 7924:1 
1 54:1 80:1 351:1 439:1 548:1 714:1 1164:1 1399:1 1632:1 4830:1 7075:1 7925:1 7926:1 7927:1 
1 21:1 115:1 439:1 1209:1 1480:1 1928:1 3538:1 3837:1 5075:1 7114:1 7928:1 7929:1 
1 19:1 40:1 387:1 478:1 534:1 1259:1 2304:1 
1 0:1 184:1 1554:1 1564:1 1647:1 3056:1 3354:1 4999:1 6359:1 7096:1 7849:1 7931:1 7932:1 7933:1 7934:1 7935:1 
1 183:1 1259:1 1280:1 1422:1 3652:1 3805:1 5350:1 7939:1 7940:1 
1 13:1 641:1 4531:1 7941:1 7942:1 7943:1 7944:1 
1 439:1 1442:1 2686:1 7945:1 
1 19:1 99:1 750:1 789:1 1120:1 1148:1 1324:1 1559:1 2104:1 2150:1 2779:1 3658:1 5099:1 
1 837:1 1096:1 1226:1 1564:1 1640:1 1655:1 3277:1 7352:1 7953:1 7954:1 7955:1 7956:1 7957:1 7958:1 7959:1 7960:1 7961:1 
1 480:1 758:1 987:1 1053:1 1547:1 1592:1 3532:1 4918:1 7962:1 7963:1 7964:1 
1 4496:1 7008:1 7969:1 
1 242:1 867:1 1324:1 1342:1 1722:1 2059:1 3074:1 3750:1 4700:1 5668:1 7971:1 
1 315:1 1450:1 
1 19:1 42:1 598:1 896:1 2049:1 2744:1 3689:1 
1 473:1 525:1 577:1 990:1 1110:1 1282:1 1408:1 1669:1 1732:1 1914:1 3631:1 6437:1 
1 13:1 19:1 39:1 120:1 196:1 362:1 496:1 548:1 3161:1 6653:1 7975:1 7976:1 
1 1131:1 1324:1 3922:1 
1 285:1 327:1 983:1 1327:1 1522:1 3911:1 7978:1 7979:1 
1 431:1 658:1 1417:1 1998:1 2133:1 2377:1 5077:1 5198:1 7981:1 7982:1 
1 19:1 40:1 2958:1 3744:1 6654:1 
1 19:1 68:1 239:1 475:1 534:1 1288:1 2730:1 5023:1 7986:1 
1 256:1 853:1 2560:1 5223:1 
1 264:1 265:1 268:1 869:1 1004:1 1282:1 1362:1 2715:1 3953:1 6524:1 6879:1 7996:1 7997:1 7998:1 
1 19:1 87:1 3175:1 7999:1 
1 40:1 68:1 814:1 1605:1 5092:1 5232:1 8000:1 8001:1 
1 15:1 58:1 148:1 222:1 237:1 480:1 1276:1 1963:1 2787:1 3270:1 3368:1 6252:1 6477:1 8002:1 8003:1 
1 153:1 183:1 228:1 389:1 862:1 1386:1 1695:1 2511:1 4046:1 5996:1 8004:1 8005:1 8006:1 
1 228:1 485:1 1170:1 2231:1 3106:1 7397:1 8007:1 
1 641:1 1699:1 1804:1 2427:1 5279:1 8008:1 8009:1 8010:1 
1 47:1 256:1 263:1 473:1 991:1 1522:1 2556:1 3755:1 7082:1 8011:1 
1 87:1 156:1 183:1 256:1 341:1 649:1 912:1 1027:1 2920:1 2972:1 3933:1 3934:1 8012:1 8013:1 8014:1 8015:1 8016:1 8017:1 
1 100:1 126:1 2204:1 7703:1 8018:1 
1 3:1 13:1 316:1 429:1 1627:1 2746:1 4088:1 4673:1 8019:1 8020:1 8021:1 8022:1 
1 764:1 1554:1 2960:1 5429:1 8023:1 8024:1 8025:1 
1 197:1 245:1 3952:1 
1 91:1 428:1 1516:1 5480:1 
1 15:1 39:2 99:1 388:1 902:1 1428:1 2177:1 4791:1 
1 19:1 54:1 176:1 824:1 1382:1 2062:1 2383:1 2612:1 3012:1 3118:1 3300:1 4718:1 
1 26:1 132:1 
1 256:1 405:1 898:1 1025:1 5615:1 8029:1 8030:1 
1 231:1 256:1 510:1 1862:1 4459:1 7171:1 7173:1 8035:1 8036:1 
1 105:1 210:1 360:1 478:1 929:1 1832:1 2744:1 2927:1 3532:1 4048:1 4122:1 6018:1 6193:1 6408:1 7758:1 7956:1 8041:1 8042:1 
1 40:1 123:1 351:1 1553:1 1732:1 8043:1 8044:1 8045:1 
1 30:1 159:1 206:1 237:1 1626:1 1925:1 2310:1 3119:1 3769:1 3985:1 4890:1 6147:1 6344:1 8046:1 8047:1 
1 26:1 28:1 134:1 256:1 795:1 2138:1 8054:1 
1 15:1 91:1 131:1 473:1 639:1 1744:1 1956:1 2744:1 3514:1 4690:1 7356:1 8055:1 8056:1 
1 100:1 650:1 663:1 2522:1 7649:1 
1 132:1 221:1 303:1 332:1 548:1 1426:1 2047:1 3035:1 8063:1 
1 42:1 659:1 662:1 1310:1 1533:1 1626:1 1674:1 2860:1 3719:1 3922:1 8064:1 
1 853:1 8065:1 8066:1 
1 8067:1 8068:1 8069:1 8070:1 
1 1:1 342:1 577:1 736:1 1118:1 1957:1 2059:1 8071:1 8072:1 
1 227:1 439:1 663:1 1552:1 1596:1 2236:1 2477:1 3091:1 3740:1 6987:1 8083:1 
1 393:1 768:1 862:1 975:1 1170:1 1257:1 2810:1 3891:1 4732:1 4903:1 8090:1 8091:1 
1 19:1 341:1 490:1 1074:1 1305:1 3125:1 5312:1 6530:1 8109:1 
1 251:1 650:1 906:1 912:1 1212:1 3511:1 6583:1 7485:1 8110:1 8111:1 8112:1 
1 105:1 345:1 478:1 605:1 1160:1 1282:1 1655:1 1866:1 2299:1 2686:1 2723:1 5934:1 8113:1 
1 91:1 115:1 375:1 898:1 1324:1 4235:1 6131:1 7488:1 8125:1 
1 19:1 217:1 384:1 662:1 991:1 1280:1 1282:1 1352:1 1722:1 2119:1 2759:1 3454:1 3986:1 7717:1 8126:1 8127:1 
1 28:1 647:1 979:1 1212:1 1298:1 1329:1 1984:1 3968:1 6612:1 8128:1 
1 15:1 55:1 581:1 611:1 704:1 978:1 1288:1 1574:1 3228:1 4648:1 6310:1 6943:1 7563:1 8129:1 8130:1 
1 55:1 219:1 378:1 650:1 679:1 733:1 1324:1 1817:1 1942:1 3575:1 3885:1 4530:1 6090:1 7007:1 8131:1 8132:1 
1 100:1 2194:1 2769:1 3398:1 8133:1 
1 19:1 42:1 98:1 100:1 129:1 198:1 210:1 261:1 321:1 406:1 446:1 641:1 1239:1 2765:1 3918:1 5031:1 5492:1 6261:1 8138:1 8139:1 8140:1 
1 13:1 134:1 153:1 368:1 997:1 8141:1 8142:1 8143:1 8144:1 
1 13:1 19:1 75:1 342:1 385:1 574:1 604:1 605:1 1330:1 2377:1 3486:1 
1 19:1 196:2 206:1 255:2 592:1 663:1 876:1 1005:1 1027:1 1074:1 1258:1 1552:1 2459:1 3125:1 5491:1 5593:1 6093:1 6720:1 8145:1 8146:1 
1 15:1 122:1 198:1 433:1 672:1 761:1 1592:1 3885:1 5549:1 6102:1 8151:1 8152:1 
1 344:1 363:1 1228:1 1250:1 1363:1 
1 21:1 58:1 139:1 153:1 285:1 824:1 931:1 4065:1 8162:1 8163:1 
1 40:1 119:1 344:1 369:1 424:1 2130:1 2131:1 3370:1 4960:1 8168:1 8169:1 8170:1 8171:1 8172:1 8173:1 
1 33:1 315:1 384:3 519:1 629:1 664:1 8174:1 8175:1 8176:1 
1 19:1 67:1 510:1 971:1 2596:1 8177:1 
1 19:1 374:1 736:1 1917:1 8184:1 8185:1 8186:1 8187:1 8188:1 
1 42:1 210:1 478:1 624:1 1108:1 1399:1 1403:1 1965:1 4077:1 6521:1 6873:1 
1 176:1 263:1 1122:1 1715:1 8190:1 
1 13:2 19:1 252:1 344:1 449:1 1582:1 1797:1 1908:1 8202:2 8203:1 
1 30:1 176:1 485:1 581:1 733:1 4221:1 5143:1 8211:1 
1 236:1 258:1 461:1 713:1 862:1 1450:1 4091:1 4323:1 8212:1 
1 795:1 2133:1 4190:1 4192:1 4193:1 4194:1 8213:1 8214:1 8215:1 8216:1 
1 132:1 294:1 558:1 638:1 4226:1 8217:1 8218:1 
1 429:1 1302:1 2302:1 2927:1 5735:1 6400:1 7443:1 7513:1 8229:1 8230:1 
1 15:1 56:1 473:1 3891:1 4739:1 5593:1 8135:1 8231:1 
1 376:1 657:1 971:1 1459:1 2117:1 2634:1 3195:1 3697:1 3761:1 5898:1 6090:1 8232:1 8233:1 8234:1 8235:1 8236:1 8237:1 
1 17:1 149:1 206:1 231:1 594:1 1503:1 1621:1 2669:1 2782:1 2925:1 5525:1 6148:1 6336:1 8238:1 8239:1 8240:1 
1 92:1 176:1 305:1 480:1 578:1 862:1 1170:1 1795:1 2175:1 3592:1 3634:1 6662:1 7026:1 8242:1 8243:1 
1 57:1 789:1 1190:1 2233:1 7625:1 8244:1 
1 318:1 1198:1 1576:1 3005:1 3795:1 4464:1 
1 15:1 40:1 578:1 761:1 1250:1 1605:1 1655:1 
1 40:1 105:1 634:1 750:1 774:1 1051:1 1302:1 1915:1 2686:1 8250:1 8251:1 
1 122:1 183:1 473:1 510:1 590:1 1324:1 2043:1 2299:1 2386:1 2869:1 3235:1 3354:1 3543:1 8065:1 8252:1 8253:1 8254:1 
1 485:1 1419:1 1436:1 1576:1 6005:1 8255:1 8256:1 
1 100:1 256:1 331:1 1118:1 2160:1 2402:1 3101:1 4164:1 4797:1 5787:1 8120:1 8257:1 8258:1 
1 312:1 1715:1 1866:1 3216:1 4305:1 8259:1 
1 275:1 343:1 695:1 840:1 1632:1 1963:1 1981:1 3964:1 5996:1 8260:1 8261:1 8262:1 8263:1 8264:1 8265:1 
1 176:1 342:1 461:1 713:1 793:1 8274:1 8275:1 
1 15:1 19:1 516:1 572:1 602:1 639:1 783:1 860:1 1230:1 1554:1 1556:1 1839:1 2196:1 3969:1 5474:1 6147:1 6990:1 7774:1 8276:1 
1 256:1 262:1 264:1 447:1 570:1 898:1 3599:1 8013:1 8278:1 
1 13:1 605:2 961:1 1428:1 2668:1 2712:1 3614:1 4344:1 8279:1 8280:1 
1 198:1 285:1 604:1 632:1 3644:1 7649:1 8281:1 
1 40:1 87:1 342:1 623:1 628:1 650:1 1330:1 2377:1 3486:1 5480:1 8283:1 8284:1 
1 180:1 480:1 5442:1 5997:1 
1 54:1 131:1 641:1 1078:1 1202:1 1324:1 2084:1 2347:1 8301:1 8302:1 8303:1 
1 21:1 126:1 222:1 239:1 789:1 1067:1 1212:1 1462:1 2072:1 3053:1 7073:1 8309:1 8310:1 8311:1 8312:1 8313:1 
1 13:1 23:1 40:1 475:1 1204:1 3125:1 3170:1 8315:1 
1 142:1 960:1 1045:1 1186:1 2398:1 2849:1 3551:1 4111:1 7636:1 8316:1 
1 906:1 910:2 912:1 914:1 1009:1 2256:1 2262:4 2889:2 4761:1 6601:1 6782:1 7178:1 8317:1 8318:1 8319:1 8320:1 8321:1 8322:1 8323:1 8324:1 8325:1 8326:1 8327:1 8328:1 8329:1 8330:1 
1 19:1 119:1 236:1 259:1 624:1 629:1 1118:1 1367:1 3882:1 8333:1 
1 122:1 193:1 577:1 657:1 1015:1 1021:1 1286:1 1857:1 2975:1 4692:1 6918:1 8343:1 
1 28:1 126:1 314:1 384:1 565:1 567:1 1118:1 1219:1 1844:1 2408:1 2724:1 3085:1 5556:1 8344:1 8345:1 
1 193:1 208:1 800:1 971:1 1669:1 3138:1 5345:1 6516:1 8346:1 8347:1 8348:1 
1 261:1 377:1 647:1 987:1 1605:1 2833:1 2925:1 3346:1 5015:1 8349:1 
1 42:1 461:1 713:1 795:1 899:1 1529:1 1533:1 2365:1 4645:1 4964:1 5724:1 8129:1 8351:1 8352:1 
1 153:1 267:1 281:1 376:1 562:1 654:1 1107:1 2673:1 7254:1 8353:1 8354:1 8355:1 8356:1 8357:1 
1 75:1 600:1 1399:1 8358:1 
1 40:1 480:1 876:1 8360:1 8361:1 8362:1 
1 42:1 55:1 578:1 1132:1 1168:1 1618:1 2646:1 2959:1 4003:1 6685:1 8363:1 8364:1 
1 100:1 204:1 206:1 208:1 332:1 516:1 702:1 1559:1 1722:1 2104:1 2318:1 3280:1 3399:1 3437:1 3750:1 8365:1 8366:1 
1 42:1 183:1 263:1 439:1 453:1 795:1 929:1 990:1 3768:1 4458:1 8367:1 8368:1 8369:1 
1 345:1 503:1 572:1 1288:1 1576:1 1583:1 2133:1 3950:1 8379:1 
1 100:1 261:1 764:1 932:1 1170:1 2072:1 8382:1 
1 52:1 351:1 862:1 975:1 978:1 988:1 1298:1 1357:1 1363:1 1377:1 1655:1 2863:1 3161:1 5286:1 5499:1 6913:1 8385:1 8386:1 
1 183:1 406:1 784:1 1722:1 2618:1 4746:1 5340:1 5365:1 6656:1 6994:1 7280:1 8387:1 8388:1 
1 42:1 431:1 525:1 898:1 1291:1 2605:1 3885:1 5311:1 5375:1 8389:1 8390:1 8391:1 
1 206:1 478:1 795:1 931:1 974:1 1545:1 4231:1 5362:1 5554:1 6082:1 8395:1 8396:1 8397:1 8398:1 8399:1 
1 210:1 1399:1 5636:1 
1 58:1 134:1 144:1 418:1 516:1 571:1 1016:1 1355:1 1381:1 1768:1 4626:1 4629:1 5448:1 8400:1 
1 331:1 1163:1 2231:1 2408:1 
1 13:1 176:1 256:1 263:1 377:1 654:1 701:1 4759:1 6299:1 8410:1 
1 6:1 26:1 30:2 210:1 750:1 988:1 1170:1 1229:1 4539:1 8411:1 
1 1206:1 1229:1 2836:1 8412:1 
1 30:1 42:1 100:1 281:1 525:1 989:1 8419:1 8420:1 8421:1 8422:1 
1 650:1 775:1 1250:1 1251:1 1408:1 1669:1 1936:1 3199:1 3271:1 5140:1 8423:1 8424:1 8425:1 
1 480:1 931:1 1138:1 2515:1 2647:1 2928:1 3498:1 3534:1 8428:1 8429:1 
1 19:1 196:1 446:1 750:1 987:1 1170:1 2004:1 3721:1 6800:1 8430:1 8431:1 8432:1 8433:1 8434:1 
1 516:1 727:1 1055:1 1183:1 1324:1 1382:1 1650:1 2194:1 2299:1 5549:1 7275:1 8435:1 
1 4:1 3167:1 4395:1 
1 19:1 54:1 55:1 81:1 87:1 155:1 203:1 267:1 594:1 1324:1 1363:1 2094:1 4504:1 8439:1 
1 206:1 750:1 786:1 856:1 1068:1 2983:1 3330:1 3344:1 3370:1 3532:1 4199:1 4846:1 5108:1 5350:1 7436:1 8444:1 8445:1 8446:1 8447:1 8448:1 8449:1 
1 546:1 895:1 928:1 1170:2 1983:1 2573:1 3479:1 
1 19:1 87:1 256:1 259:1 528:1 1194:1 2657:1 2729:1 3175:1 8457:1 8458:1 8459:1 
1 40:1 95:1 176:1 188:1 196:1 406:1 687:1 1286:1 1298:1 1655:1 2161:1 4885:1 6968:1 
1 458:1 461:1 611:1 2377:1 3486:1 8467:1 8468:1 8469:1 8470:1 
1 62:1 173:1 256:1 418:2 431:1 635:1 1008:1 1306:1 1732:1 3218:1 3693:1 5215:1 6135:1 6214:1 6358:1 8471:1 8472:1 8473:1 
1 581:1 594:1 869:1 4910:1 5038:1 5728:1 8474:1 
1 516:1 774:1 1324:1 
1 92:1 99:1 197:1 427:1 624:1 657:1 849:1 1780:1 1984:1 2220:1 2523:1 3400:1 7597:1 8483:1 8484:1 8485:1 
1 91:1 259:1 1212:1 1509:1 1793:1 4089:1 4280:1 6082:1 7402:1 8488:1 8489:1 8490:1 
1 164:1 458:1 1197:1 1554:1 3603:1 4086:1 4305:1 4459:1 5070:1 7934:1 8504:1 8505:1 
1 87:1 180:1 525:1 1545:1 3770:1 6880:1 8506:1 8507:1 8508:1 8509:1 
1 480:1 664:1 1250:1 1786:1 3472:1 
1 162:1 420:1 1442:1 1715:1 1755:1 6178:1 6680:1 8510:1 8511:1 
1 19:1 203:1 1171:1 1410:1 3532:1 3959:1 8512:1 
1 19:1 98:1 203:1 650:1 1485:1 1874:1 1936:1 2220:1 3012:1 3186:1 4221:1 5041:1 6203:1 8134:1 8524:1 
1 183:1 239:1 259:1 263:1 599:1 977:1 1583:1 2009:1 4119:1 8525:1 8526:1 
1 0:1 9:1 988:1 1163:1 1356:1 1549:1 2522:1 7170:1 
1 19:1 284:1 341:1 499:1 1574:1 1592:1 7712:1 8527:1 
1 36:1 49:1 1239:1 2170:1 2620:1 4049:1 4250:1 4705:1 8531:1 8532:1 8533:1 
1 236:1 359:1 1792:1 2146:1 8534:2 8535:1 
1 92:1 385:1 2668:1 2907:1 3736:1 4934:1 8538:1 8539:1 
1 19:1 814:1 1055:1 1772:1 8544:1 8545:1 8546:1 8547:1 8548:1 8549:1 8550:1 8551:1 8552:1 8553:1 
1 54:1 100:1 583:1 3113:1 3256:1 3710:1 8133:1 
1 2:1 19:1 1291:1 2605:1 2610:1 3818:1 4855:1 8554:1 8555:1 8556:1 8557:1 8558:1 8559:1 
1 657:1 790:1 978:1 1467:1 1612:1 1737:1 3229:1 4221:1 8564:1 8565:1 8566:1 
1 19:1 182:1 381:1 384:1 599:1 1203:1 1543:1 1549:1 2689:1 3592:1 3880:1 7151:1 
1 28:1 613:1 1280:1 1324:1 2110:1 6314:1 7388:1 
1 510:1 689:1 2645:1 3079:1 3423:1 3575:1 5860:1 6911:1 7362:1 8570:1 
1 100:1 813:1 814:1 903:1 2180:1 8192:1 8571:1 
1 19:1 326:1 650:1 775:1 1148:1 3515:1 5017:1 5108:1 7415:1 8141:1 8572:1 
1 15:1 19:1 26:1 87:1 176:2 198:1 350:1 461:1 525:1 644:1 754:1 1107:1 1227:1 1363:1 1655:1 2415:1 3013:1 3111:1 6947:1 8573:1 
1 19:1 579:1 679:1 889:1 1330:1 2184:1 4196:1 8574:1 8575:1 
1 80:1 318:1 431:1 643:1 650:1 862:1 1324:1 1357:1 2228:1 2589:1 3055:1 3701:1 3918:1 
1 665:1 985:1 1282:1 2596:1 4103:1 4822:1 5609:1 6148:1 8580:1 8581:1 
1 906:1 910:2 912:2 1009:1 2254:1 2262:1 2347:2 6601:1 7921:1 8301:1 8302:1 8583:1 8584:1 8585:1 8586:1 8587:1 8588:1 8589:1 8590:1 8591:1 8592:1 8593:1 8594:1 
1 259:1 713:1 880:1 1211:1 1571:1 1574:1 6463:1 8595:1 
1 613:1 3986:1 5235:1 6509:1 7450:1 8596:1 8597:1 8598:1 8599:1 8600:1 
1 13:1 20:1 176:2 210:1 236:1 318:1 418:1 758:1 899:1 978:1 987:1 1173:1 1333:1 1509:1 2119:1 7513:1 8601:1 8602:1 8603:1 8604:1 
1 13:1 99:1 126:1 251:1 559:1 1025:1 1357:1 1873:1 4545:1 4821:1 5222:1 7948:1 8609:1 8610:1 
1 28:1 42:1 213:1 469:1 486:1 736:1 1960:1 2049:1 2423:1 2482:1 3386:1 4947:1 7344:1 8616:1 8617:1 8618:1 
1 256:1 1953:1 2365:1 3253:1 3603:1 4096:1 7689:1 8619:1 8620:1 8621:1 8622:1 
1 134:1 176:1 198:1 332:1 368:1 789:1 1381:1 2834:1 3349:1 8137:1 8623:1 
1 26:1 2909:1 3299:1 6726:1 8625:1 
1 768:1 3011:1 8633:1 8634:1 8635:1 8636:1 
1 54:1 713:1 740:1 8645:1 
1 100:1 259:1 305:1 340:1 1459:1 2458:1 3390:1 3835:1 8647:1 8648:1 8649:1 8650:1 8651:1 8652:1 
1 30:1 252:1 350:1 759:1 862:1 1478:1 1772:1 3613:1 8653:1 
1 3:1 28:1 622:1 997:1 1283:1 2070:1 2563:1 2925:1 3413:1 3678:1 4944:1 8654:1 8655:1 8656:1 8657:1 8658:1 8659:1 
1 534:1 670:1 1053:1 1589:1 2415:1 3367:1 3407:1 3909:1 7174:1 8663:1 8664:1 
1 42:1 604:1 875:1 883:1 933:1 2472:1 6279:1 6512:1 6513:1 7450:1 8377:1 8670:1 8671:1 8672:1 8673:1 8674:1 
1 21:1 40:1 162:1 219:1 461:1 502:1 629:1 862:1 1021:1 1333:1 1605:1 1718:1 1877:1 2131:1 2716:1 3035:1 4247:1 4390:1 8606:1 
1 168:1 259:1 343:1 475:1 1206:1 1340:1 1459:1 1822:1 2108:1 2608:1 5732:1 7171:1 8675:1 8676:1 
1 19:1 40:1 42:1 252:1 478:1 594:1 605:1 641:1 1170:1 1522:1 7288:1 
1 112:1 183:1 862:1 1107:1 1209:1 1398:1 1576:1 1790:1 1834:1 4593:1 7174:1 8677:1 
1 645:1 1732:1 8683:1 
1 26:1 1944:1 2374:1 8684:1 
1 906:3 919:1 1009:1 2347:1 2350:1 2889:1 5714:1 6604:1 7130:1 8685:1 8686:1 8687:1 8688:1 8689:1 8690:1 8691:1 8692:1 8693:1 8694:1 
1 87:1 236:1 327:1 332:1 344:1 376:1 418:1 562:1 1216:1 1953:1 2746:1 5986:1 8385:1 8471:1 8695:1 8696:1 8697:1 
1 105:1 259:1 930:1 1164:1 2430:1 4968:1 5097:1 8702:1 
1 19:1 42:1 92:1 236:1 238:1 862:1 892:1 1310:1 1403:1 2076:1 6034:1 8704:1 8705:1 
1 158:1 168:1 345:1 565:1 836:1 2379:1 4792:1 6610:1 8706:1 8707:1 8708:1 8709:1 
1 15:1 19:1 239:1 294:1 465:1 525:1 661:1 1533:1 1692:1 2209:1 3207:1 3468:1 4318:1 4504:1 4694:1 4722:1 5287:1 8710:1 8711:1 
1 15:1 47:1 122:1 251:1 644:1 991:1 998:1 1107:1 1146:1 1523:1 1553:1 1609:1 3377:1 3414:1 3969:1 4517:1 4785:1 6082:1 8716:1 8717:1 8718:1 
1 92:1 1324:1 1353:1 1963:1 2941:1 6290:1 8719:1 8720:1 
1 87:1 100:1 331:1 687:1 862:1 1258:1 6252:1 8721:1 
1 534:1 731:1 1404:1 1834:1 4525:1 5106:1 7723:1 
1 153:1 168:1 223:1 256:1 654:1 1533:1 1557:1 1853:1 3040:1 3091:1 6994:1 8727:1 8728:1 8729:1 
1 54:1 95:1 457:1 657:1 2062:1 3323:1 5275:1 7575:1 8044:1 
1 42:1 321:1 369:1 473:1 659:1 978:1 1447:1 1477:1 3619:1 4060:1 5913:1 8100:1 8743:1 8744:1 8745:1 8746:1 
1 19:1 100:1 281:1 463:1 5754:1 6617:1 
1 100:1 210:1 816:1 1206:1 1534:1 3904:1 4538:1 7453:1 8349:1 
1 384:1 608:1 657:1 1164:1 1372:1 1381:1 2365:1 8763:1 8764:1 8765:1 
1 259:1 504:1 605:1 624:1 790:1 929:1 3076:1 3804:1 5108:1 8766:1 8767:1 
1 68:1 126:2 643:1 949:1 1053:1 1077:1 1457:1 1660:2 2093:1 2594:1 3170:1 3403:1 3722:1 5847:1 8773:1 8774:1 
1 21:1 99:1 463:1 3623:1 3766:1 3810:1 5849:1 7243:1 
1 339:1 605:1 636:1 816:1 840:1 2062:1 8805:1 8806:1 8807:1 
1 1442:1 1715:1 5485:1 
1 42:1 99:1 126:1 816:1 876:1 3332:1 4814:1 5616:1 6916:1 8812:1 8813:1 8814:1 8815:1 
1 183:1 736:1 1421:1 5209:1 
1 327:1 875:1 2117:1 2221:1 4111:1 4942:1 5680:1 6128:1 7321:1 7877:1 8820:1 8821:1 
1 40:1 54:1 206:1 516:1 1165:1 1667:1 1669:1 4447:1 5607:1 8822:1 8823:1 8824:1 8825:1 
1 87:1 110:1 251:1 256:1 583:1 629:1 847:1 989:1 1824:1 1883:1 3667:1 5164:1 8826:1 8827:1 
1 332:1 406:1 418:1 679:1 736:1 987:1 1131:1 1206:1 1583:1 1724:1 1772:1 3161:1 3323:1 4008:1 5410:1 
1 96:1 99:1 654:1 657:1 8154:1 8530:1 8828:1 8829:1 
1 285:1 735:1 3523:1 7249:1 8232:1 8234:1 8235:1 8830:1 8831:1 
1 4:1 118:1 424:1 561:1 1667:1 2148:1 3687:1 5288:1 7100:1 8220:1 8509:1 8832:1 8833:1 8834:1 
1 251:1 259:1 736:1 3999:1 7657:1 
1 44:1 162:1 254:1 332:1 424:1 536:1 1162:1 1212:1 2202:1 2582:1 2605:1 3416:1 3602:1 3697:1 4151:1 
1 94:1 176:1 336:1 369:1 406:1 2275:1 2457:1 8837:1 8838:1 
1 13:1 26:2 28:2 270:1 475:2 795:2 809:1 2012:1 3625:1 4822:1 8134:1 8555:1 8842:1 
1 91:1 679:1 759:1 1164:1 1815:1 1816:1 3377:1 4807:1 
1 75:1 480:1 490:1 1559:1 3100:1 3795:1 8635:1 8844:1 8845:1 
1 190:1 512:1 2700:1 2704:1 4977:1 
1 87:1 94:1 173:1 197:1 315:1 463:1 534:1 610:1 1401:1 1667:1 2967:1 3712:1 3826:1 4103:1 5242:1 6411:1 8851:1 8852:1 
1 256:1 601:1 1022:1 1330:1 1866:1 2316:1 2476:1 2477:1 2748:1 2808:1 3025:1 3850:1 4250:1 5755:1 6965:1 8090:1 8853:1 8854:1 8855:1 
1 40:1 115:1 256:1 294:1 439:1 576:1 663:1 840:1 987:1 1480:1 1761:1 2421:1 3076:1 4023:1 4758:1 6965:1 8856:1 
1 26:1 377:1 1223:1 1304:1 3592:1 
1 40:1 250:1 256:1 344:1 425:1 520:1 876:1 991:1 1110:1 1357:1 1605:1 2500:1 5700:1 7680:1 8188:1 8859:1 8860:1 8861:1 
1 26:1 605:1 1450:1 1690:1 1784:1 2933:1 8113:1 8486:1 8869:1 
1 856:1 1143:1 3652:1 
1 180:1 193:1 343:1 431:1 654:1 1357:1 1790:1 3176:1 3902:1 8870:1 8871:1 
1 386:1 418:1 433:1 2229:1 2268:1 3109:1 3543:1 3837:1 5142:1 5155:1 5488:1 8872:1 8873:1 8874:1 
1 1395:1 2101:1 4012:1 8122:1 8875:1 
1 0:1 19:1 462:1 636:1 775:1 856:1 1875:1 2527:1 3332:1 4232:1 5640:1 6949:1 8876:1 8877:1 8878:1 
