svm_type c_svc
kernel_type linear
nr_class 2
total_sv 6281
rho 0.150686
label 1 -1
nr_sv 3088 3193
SV
0.06599164928408043 75:1 76:1 77:1 78:1 79:1 80:1 81:1 
1 33:1 139:1 140:1 141:1
0.03130366340452374 142:1 143:1 144:1 145:1 146:1 147:1 148:1
0.1464916235280831 4:1 169:1 170:1 171:1 172:1 173:1 174:1 175:1 176:1
0.1320758281874616 154:1 188:1 189:1 190:1 191:1 192:1 193:1 194:1 195:1 196:1
0.2775589079382718 78:1 205:1 206:1 207:1 208:1 209:1 210:1 211:1 212:1 213:1 214:1 215:1 216:1
1 33:1 45:1 49:1 249:1 250:1 251:1 252:1 253:1 254:1 255:1 256:1
1 276:1 277:1 278:1 279:1
0.07032274633044955 83:1 303:1 304:1 305:1 306:1 307:1 308:1 309:1 310:1
0.5144458789248983 116:1 232:2 311:1 312:1 313:1 314:1 315:1 316:1 317:1 318:1 319:1 320:1 321:1 322:1
0.1328234614072266 329:1 336:1 337:1 338:1 339:1 340:1
0.04344133585241831 341:1 342:1 343:1 344:1 345:1 346:1 347:1
0.322360092261922 18:1 116:1 205:1 223:1 414:1 415:1 416:1 417:1 418:1 419:1 420:1 421:1 422:1 423:1 424:1
0.05189582503956416 258:1 481:1 482:1 483:1 484:1 485:1
0.2476382282989233 486:1 487:1 488:1
1 132:1 250:1 494:1 495:1 496:1
0.8159639437483837 20:1 46:1 250:1 365:1 384:1 564:1 565:1 566:1 567:1 568:1 569:1 570:1
0.7759737335992037 177:1 344:1 571:1 572:1 573:1 574:1 575:1 576:1 577:1
1 174:1 313:1 402:1 619:1 620:1 621:1 622:1
0.05464049808221209 34:1 198:1 250:1 325:1 487:1 663:1 664:1 665:1 666:1 667:1 668:1 669:1 670:1
0.3431889843585686 84:1 671:1 672:1 673:1 674:1 675:1 676:1
0.442365207441945 21:1 230:1 456:1 677:1 678:1
0.6787569011732461 797:1 798:1 799:1 800:1 801:1
0.03218880797646288 450:1 906:1 907:1 908:1 909:1 910:2 911:1 912:1 913:1 914:1 915:1 916:1 917:2 918:1 919:1 920:4 921:2
0.1701920213685944 6:1 142:1 225:1 728:1 760:1 957:1 958:1 959:1 960:1 961:1 962:1 963:1 964:1 965:1 966:1 967:1 968:1 969:1 970:1 971:1
0.59884550302293 18:1 139:1 341:1 1011:1 1012:1 1013:1 1014:1 1015:1 1016:1 1017:1 1018:1
0.2340777378415863 127:1 177:1 801:1 1034:1 1035:1 1036:1 1037:1 1038:1 1039:1 1040:1 1041:1 1042:1 1043:1 1044:1 1045:1
1 34:1 792:1 1060:1 1061:1
0.5694338715068068 15:1 93:1 624:1 641:1 977:1 1062:1 1063:1 1064:1 1065:1 1066:1 1067:1 1068:1 1069:1 1070:1 1071:1
0.5459994014173151 177:1 1142:1 1143:1 1144:1 1145:1
0.1724545826977763 45:2 591:1 1149:1 1150:1 1151:1 1152:1 1153:1 1154:1 1155:1
1 45:1 46:1 99:1 116:1 196:1 205:1 281:1 726:1 897:1 990:1 1156:1 1157:1 1158:1 1159:1 1160:1 1161:1
0.2628265362153234 399:1 988:1 1210:1 1211:1 1212:1 1213:1 1214:1 1215:1 1216:1
1 21:1 657:1 905:1 1228:1 1229:1
0.288758761626418 121:1 529:1 1246:1 1247:1 1248:1 1249:1 1250:1 1251:1 1252:1
0.3809906232413698 109:1 780:1 1280:1 1281:1 1282:1 1283:1 1284:1 1285:1
0.02049499708788767 127:1 467:1 761:1 1197:1 1289:1 1290:1 1291:1 1292:1 1293:1 1294:1
0.8441704818035647 1205:1 1295:1
0.2020427394062329 21:1 1171:1 1205:1 1296:1 1297:1 1298:1 1299:1 1300:1
1 21:1 384:1 486:1 1329:1 1330:1
0.6640284907386759 15:1 21:1 194:1 326:1 468:1 785:1 791:1 1361:1 1362:1 1363:1 1364:1 1365:1 1366:1 1367:1
0.5898253498892153 15:1 20:1 50:1 225:1 250:1 893:1 928:1 1370:1 1371:1 1372:1
0.0441304397706377 34:1 101:1 263:1 749:1 834:1 877:1 1373:1 1374:1 1375:1 1376:1 1377:1 1378:1 1379:1 1380:1
0.9783363959099455 16:1 577:1 1381:1 1382:1 1383:1 1384:1
1 218:1 785:1 1399:1
0.1608116078423167 15:1 44:1 84:1 265:1 879:1 1046:1 1403:1 1404:1 1405:1 1406:1 1407:1 1408:1 1409:1 1410:1 1411:1
0.9523339490771223 46:1 191:1 265:1 857:1 1020:1 1418:1 1419:1
0.1221466461297448 99:1 372:1 1120:1 1340:1 1434:1 1435:1 1436:1 1437:1 1438:1 1439:1
0.2219147718853806 127:1 1378:1 1459:1 1460:1 1461:1 1462:1
0.03460772147066248 21:1 55:1 231:1 342:1 344:1 345:1 1468:1 1469:1 1470:1 1471:1 1472:1 1473:1
0.2461821400893231 109:1 160:1 693:1 928:1 969:1 1487:1 1488:1 1489:1 1490:1 1491:1 1492:1 1493:1 1494:1
0.2915043549097958 45:1 228:1 256:1 481:1 1443:1 1507:1 1508:1 1509:1 1510:1 1511:1 1512:1 1513:1 1514:1 1515:1 1516:1
0.2665090516523225 21:1 33:1 45:1 132:1 172:1 307:1 530:1 864:1 1526:1 1527:1 1528:1 1529:1 1530:1 1531:1 1532:1 1533:1
0.4591453485620581 138:1 338:1 371:1 445:1 926:1 996:1 1109:1 1381:1 1544:1 1545:1 1546:1 1547:1
0.1592042622269511 18:1 49:1 79:1 116:1 583:1 786:1 948:1 992:1 1163:1 1378:1 1564:1 1565:1 1566:1 1567:1 1568:1 1569:1 1570:1 1571:1 1572:1 1573:1 1574:1 1575:1
0.8665997583111371 496:1 926:1 990:1 1115:1 1604:1 1605:1 1606:1 1607:1 1608:1
1 1609:1 1610:1 1611:1
1 174:1 575:1 1297:1
0.4061115022959844 21:1 45:1 346:1 1606:1 1637:1 1638:1
0.7753302494507441 200:1 479:1 709:1 1644:1 1645:1
0.113482410418857 46:1 1656:1 1657:1 1658:1 1659:1 1660:1 1661:1 1662:1 1663:1 1664:1 1665:1 1666:1
0.03161834224913263 6:1 669:1 1344:1 1461:1 1679:1 1680:1 1681:1 1682:1 1683:1 1684:1 1685:1 1686:1
0.4793084642846087 31:1 174:1 325:1 455:1 479:1 547:1 968:1 1446:1 1502:1 1687:1 1688:1 1689:1 1690:1 1691:1 1692:1
0.4362453747992426 126:1 402:1 474:1 688:1 1693:1 1694:1 1695:1 1696:1
0.4876252011496552 9:1 34:1 46:1 50:1 191:1 341:2 384:1 429:1 657:1 791:1 857:1 935:1 1069:1 1129:1 1132:1 1730:1 1733:1 1734:1 1735:1 1736:1 1737:1 1738:1 1739:1 1740:1
0.1362686330867345 177:1 194:1 205:1 241:1 736:1 1267:1 1747:1 1748:1 1749:1 1750:1 1751:1 1752:1 1753:1 1754:1
0.08313780309044003 258:1 474:1 853:1 1325:1 1395:1 1631:1 1764:1 1765:1 1766:1 1767:1 1768:1
0.4843025328519927 21:1 45:1 232:1 345:1 371:1 761:1 1769:1 1770:1 1771:1 1772:1 1773:1 1774:1 1775:1 1776:1
0.4463154126099929 21:1 30:1 140:1 250:1 540:1 546:1 725:1 990:1 1171:1 1787:1 1788:1 1789:1 1790:1 1791:1 1792:1
1 30:1 46:1 330:1 592:1 1485:1 1793:1 1794:1
0.9525650283815791 636:1 863:1 1461:2 1809:2
0.5744376025850491 50:1 174:1 688:1 883:1 1810:1 1811:1 1812:1 1813:1 1814:1 1815:1 1816:1
0.7891578468262939 45:1 272:1 591:1 654:1 758:1 877:1 1655:1 1817:1 1818:1 1819:1 1820:1 1821:1
0.3123488696534721 250:1 588:1 990:1 1822:1 1823:1 1824:1 1825:1 1826:1 1827:1 1828:1
0.6149607872899204 39:1 109:1 198:1 382:1 656:1 670:1 1578:1 1838:1 1839:1 1840:1 1841:1 1842:1 1843:1
0.3061238680192951 33:1 55:1 76:1 191:1 361:1 767:1 883:1 980:1 1271:1 1438:1 1859:1 1860:1 1861:1 1862:1 1863:1 1864:1
0.1824056117933446 45:1 191:1 546:1 1353:1 1668:1 1867:1 1868:1 1869:1 1870:1 1871:1 1872:1 1873:1
0.7113458448184351 15:1 46:1 101:1 263:1 477:1 665:1 1361:1 1366:1 1906:1 1907:1 1908:1
0.1949831047801136 1051:1 1994:1 1995:1
0.4047618235982489 481:1 527:1 637:1 1727:1 1996:1 1997:1 1998:1 1999:1
0.3795934089003086 639:1 889:1 1655:1 2022:1 2023:1 2024:1 2025:1 2026:1 2027:1 2028:1 2029:1 2030:1
1 130:1 1448:1 1496:1 1915:1 2051:1
0.4935222871911356 46:1 49:1 258:1 477:1 480:1 1115:1 1285:1 1359:1 1381:1 1790:1 2069:1 2070:1 2071:1 2072:1 2073:1 2074:1 2075:1 2076:1
0.5527698979838575 374:1 854:1 2096:1
0.4187700383561939 857:1 1171:1 2108:1 2109:1
0.2131060286663769 21:1 132:1 1325:1 1713:1 2110:1 2111:1 2112:1
0.01209831931785991 20:1 139:1 365:1 635:1 1276:1 1286:1 2113:1 2114:1 2115:1 2116:1 2117:1 2118:1 2119:1 2120:1 2121:1 2122:1 2123:1
0.4549632255390737 90:2 127:1 438:1 1443:1 1448:1 2124:1 2125:1
1 21:1 85:1 937:1 1365:1 2138:1
1 50:1 444:1 479:1 1252:1 1819:1 2091:1 2146:1 2147:1 2148:1 2149:1
1 93:1 648:1 731:1 2159:1 2160:1 2161:1 2162:1
0.2357133699212899 125:1 250:1 253:1 577:1 608:1 611:1 693:1 761:1 1668:1 2179:1 2180:1 2181:1 2182:1 2183:1
0.3697262320618445 842:1 2224:1 2225:1 2226:1 2227:1 2228:1
0.4557531020236091 174:1 265:1 416:1 926:1 2264:1 2265:1 2266:1 2267:1 2268:1 2269:1 2270:1 2271:1
0.9733125603116208 21:1 1384:1 1485:1 2285:1 2286:1
0.5102933348734524 228:1 250:1 1137:1 1536:1 1648:1 2298:1 2299:1
0.1435875248016427 21:1 55:1 127:1 134:1 750:1 1297:1 1825:1 2300:1 2301:1 2302:1 2303:1
0.7297785422823222 438:1 714:1 717:1 749:1 980:1 1163:1 2304:1 2305:1
0.8877890932853491 332:1 629:1 665:1 2323:1
0.13566479631718 323:1 475:1 910:2 913:1 920:2 2150:1 2343:1 2344:1 2345:1 2346:1 2347:1 2348:1 2349:1 2350:1 2351:1 2352:1 2353:1
0.2633954422614848 474:1 2359:1 2360:1 2361:1 2362:1 2363:1
0.1534275349463461 128:1 150:1 639:1 1989:1 2074:1 2364:1 2365:1 2366:1 2367:1 2368:1
0.6258215064421389 34:1 2383:1 2384:1
0.1294855430665833 669:1 1716:1 2387:1 2388:1 2389:1
0.176035911975865 18:1 20:1 467:1 661:1 1172:1 1594:1 1903:1 2399:1 2400:1 2401:1 2402:1 2403:1 2404:1 2405:1 2406:1
1 205:1 399:1 579:1 591:1 987:1 1163:1 1210:1 2061:1 2420:1 2421:1
1 150:1 182:1 508:1 585:1 611:1 1073:1 1271:1 1755:1 2431:1
0.1223841388538878 21:1 2444:1 2445:1 2446:1 2447:1
0.09144101785824793 45:1 125:1 653:1 718:1 988:1 1298:1 2149:1 2456:1 2457:1 2458:1 2459:1 2460:1 2461:1 2462:1
0.6786506426692585 2463:1 2464:1 2465:1
1 33:1 46:1 109:1 438:1 669:1 883:1 1218:1 2478:1
0.02073204474617567 21:1 96:1 101:1 116:1 125:1 231:1 579:1 1159:1 1424:1 1589:1 1715:1 2008:1 2481:1 2482:1 2483:1 2484:1 2485:1 2486:1 2487:1 2488:1 2489:1 2490:1
0.08298819340506638 362:1 932:1 1271:1 1317:1 2504:1 2506:1 2507:1 2508:1 2509:1 2510:1 2511:1 2512:1
0.3139391886227227 101:1 108:1 758:1 927:1 989:1 1606:1 2294:1 2513:1 2514:1 2515:1
0.2052732373194174 603:1 695:1 828:1 1055:1 1365:1 1422:1 1611:1 2264:1 2534:1 2535:1 2536:1 2537:1
0.06201077241696328 50:1 116:1 117:1 219:1 716:1 733:1 933:1 1047:1 1555:1 2549:1 2550:1 2551:1 2552:1 2553:1
0.1646146826910981 46:1 177:1 791:1 877:3 1041:1 1357:1 1359:1 1608:1 2562:1 2563:1 2564:1 2565:1 2566:1 2567:1 2568:1 2569:1
0.3014586398249185 15:1 83:1 540:1 650:1 1199:1 1281:1 1547:1 1757:1 2579:1 2580:1 2581:1 2582:1 2583:1 2584:1 2585:1
0.3305255361799918 21:1 44:1 731:1 1407:1 2298:1 2551:1 2586:1 2587:1 2588:1
0.7422046086531576 33:1 46:1 107:1 260:1 1905:1 2145:1 2516:1 2594:1 2595:1 2596:1
0.2125593306440131 362:1 630:1 1032:1 1304:1 2095:1 2118:1 2602:1 2603:1 2604:1 2605:1 2606:1
0.1459592654440109 209:1 241:1 2616:1 2617:1 2618:1 2619:1 2620:1
0.1455415037688613 307:1 312:1 1170:1 1524:1 2621:1 2622:1 2623:1 2624:1 2625:1 2626:1 2627:1 2628:1 2629:1
0.1507938237653645 253:1 458:1 691:1 810:1 1218:1 1505:1 1570:1 2630:1 2631:1 2632:1 2633:1 2634:1 2635:1 2636:1 2637:1
1 174:1 365:1 983:1 2638:1 2639:1 2640:1
0.2251174629959469 46:1 212:1 402:1 474:1 581:1 650:1 695:1 933:1 1365:1 2589:1 2663:1 2664:1 2665:1 2666:1 2667:1 2668:1 2669:1 2670:1 2671:1
0.9729042765736535 198:1 384:1 633:1 761:1 2318:1 2672:1 2673:1
0.1981438868933236 50:1 101:1 246:1 519:1 1730:1 1731:1 1957:1 2231:1 2683:1 2684:1 2685:1 2686:1
0.444746335124046 2706:1 2707:1 2708:1 2709:1 2710:1
0.02698340909820457 56:1 160:1 363:1 417:1 695:1 1210:1 1874:1 2677:1 2711:1 2712:1 2713:1 2714:1 2715:1 2716:1
1 21:1 154:1 160:1 600:1 732:1 1370:1 2722:1 2723:1
0.3305510886839425 73:1 241:1 585:1 2731:1 2732:1
0.5159044326301652 1272:1 2733:1 2734:1
0.2673655112429413 177:1 587:1 639:1 1367:1 1530:1 1741:1 2138:1 2741:1 2742:1 2743:2
0.458208280768341 160:1 531:1 819:1 1177:1 1633:1 1720:1 2713:1 2751:1 2752:1 2753:1 2754:1 2755:1 2756:1
1 602:1
1 250:1 342:1 477:1 2048:1 2757:1 2758:1
0.3581709099455092 45:1 250:1 284:1 547:1 1788:1 2666:1 2762:1 2763:1 2764:1 2765:1
0.5441421489288342 371:1 380:1 877:1 1299:1 1301:2 1365:1 2568:1 2692:1
0.7521360165770025 226:1 621:1 1502:1 2795:1
0.2563304698883677 438:1 893:1 1613:1 1996:1 2796:1
1 172:1 428:1 791:1 1594:1 2797:1
0.6085290477777298 263:1 495:1 606:1 1332:1 1670:1 2819:1
0.08040651787788448 101:1 2478:1 2683:1 2820:1
0.07410078040816848 18:1 174:1 228:1 232:1 250:2 265:1 629:1 639:1 1509:3 2071:1 2821:1
0.1963631118256762 495:1 608:1 989:1 1530:1 1631:1 2828:1 2829:1 2830:1 2831:1 2832:1 2833:1
0.04396639293313022 21:1 177:1 721:1 733:1 1163:1 1224:1 2397:1 2833:1 2846:1 2847:1 2848:1 2849:1 2850:1 2851:1 2852:1 2853:1 2854:1
0.2711390812139163 364:1 504:1 669:1 1970:1 2884:1 2885:1 2886:1
0.1812044893555076 18:1 21:1 109:1 217:1 329:1 645:1 652:1 761:1 2277:1 2891:1 2892:1 2893:1
0.9470424560632088 127:1 585:1 1085:1 1988:1 2895:1 2896:1 2897:1 2898:1
1 591:1 629:1 653:2 869:1 1171:1 1210:1 2904:1 2905:1
0.137580199496536 342:1 1332:1 1364:1 1970:1 1991:1 2908:1 2910:1 2911:1 2912:1 2913:1
0.2441184039146241 1:1 46:1 506:1 1598:1 2288:1 2524:1 2931:1 2932:1 2933:1
0.8473791476332062 365:1 2938:1
0.09484079353116003 18:1 101:1 190:1 258:1 579:1 1156:1 1213:1 2939:1 2940:1 2941:1 2942:1 2943:1 2944:1 2945:1 2946:1 2947:1 2948:1
0.01740724387578426 39:1 237:1 478:1 726:1 774:1 1505:1 1773:1 2963:2 2964:1 2965:1 2966:1 2967:1 2968:1 2969:1 2970:1
1 21:1 342:1 667:1 1541:1 2992:1
0.7578326811435903 250:1 546:1 588:2 2445:1 2901:1 2993:1
0.5222756786248297 250:2 1180:1 2401:1 3020:1
0.06479711332645766 241:1 468:1 1059:1 1163:1 1210:1 3026:1 3027:1 3028:1 3029:1 3030:1 3031:1 3032:1 3033:1
1 2111:1 3037:1 3038:1
0.1347923539337368 18:1 414:1 509:1 687:1 1110:1 1161:1 3039:1 3040:1
0.01489906341688178 250:1 361:1 467:1 478:1 559:1 600:1 746:1 963:1 1103:2 1361:2 1407:1 1563:1 2046:1 3052:1 3053:2 3054:1 3055:1 3056:1
0.08562849860593377 46:1 109:1 212:1 250:1 357:1 438:1 559:1 589:1 688:1 3063:1 3064:1 3065:1 3066:1 3067:1 3068:1
1 21:1 250:1 314:1 1304:1 3085:1 3086:1 3087:1 3088:1 3089:1
0.7834544033394836 194:1 256:1 438:1 562:1 715:1 1399:1 1843:1 2920:1 3112:1 3113:1
0.09407808091587387 21:1 325:1 339:1 362:1 665:1 926:1 2265:1 3054:1 3055:1 3121:1 3122:1 3123:1 3124:1 3125:1
0.1934858638346149 152:1 666:1 2541:1 3127:1 3128:1 3129:1
0.001540877926573596 30:1 45:1 46:1 699:1 3130:1 3131:1
0.05747350500286644 395:1 1773:1 3072:1 3152:1 3153:1 3154:1 3155:1 3156:1 3157:1 3158:1
0.08905165297907534 101:1 259:1 261:1 262:1 263:1 264:1 571:1 577:1 2380:1 2996:1 3016:1 3175:1
0.855159582732868 18:1 21:1 2273:1 3176:1 3177:1 3178:1
0.235772495684685 34:1 2525:1
1 21:1 45:1 56:1 198:1 282:1 438:1 563:1 660:1 1287:1 3198:1
0.6221115462099746 70:1 308:1 341:1 529:1
0.08829466390307901 340:1 438:1 467:1 478:1 1251:1 1275:1 2725:1 3227:1 3228:1 3229:1
0.4190524174348905 21:1 109:1 402:1 764:1 3230:1 3231:1 3232:1
0.02563062739281716 109:1 132:1 160:1 164:1 177:1 313:1 635:1 3233:1 3234:1 3235:1 3236:1 3237:1
0.5149561060033853 684:1 1966:1 3251:1 3252:1
0.3339773507278765 1163:1 2097:1 2659:1 3137:1 3253:1
1 546:1 732:1 1358:1 2630:1 2957:1
0.2224328755543849 45:1 402:1 508:1 541:1 574:1 749:1 828:1 987:1 1171:1 1359:1 1648:1 1705:1 2043:1 2054:1 3285:1 3286:1 3287:1
0.7442035011625696 21:1 33:1 93:1 203:1 390:1 481:1 487:1 3260:1 3292:1 3293:1 3294:1
1 53:1 1433:1 3308:1
0.06244803645390407 121:1 203:1 235:1 806:1 987:1 1140:1 1555:1 1627:1 1657:1 3315:1 3316:1 3317:1 3318:1
1 168:1 313:1 608:1 1422:1 2128:1 3319:1 3320:1
0.2429170372896461 34:1 83:1 139:1 384:1 467:1 486:1 639:1 815:1 1465:1 2626:1 3199:1 3361:1 3362:1 3363:1 3364:1 3365:1 3366:1
0.0432101870717376 21:1 310:1 1196:1 1678:1 1819:1 2108:1 3370:1 3371:1 3372:1 3373:1
0.6272652067034075 33:1 174:1 177:1 226:1 428:1 547:1 1594:1
0.04748796002189504 46:1 93:1 760:1 1428:1 3421:1 3422:1 3423:1 3424:1 3425:1 3426:1 3427:1 3428:1
0.3159872955137566 18:1 250:1 1640:1 3429:1 3430:1
0.3747543066563755 11:1 15:1 31:1 174:1 219:1 387:1 653:1 933:1 1921:1 3431:1 3432:1 3433:1 3434:1
0.2410396495275855 18:1 111:1 802:1 857:1 1171:1 1412:1 2376:1 2511:1 2559:1 2576:1 2597:1 3453:1 3454:1 3455:1 3456:1
0.9629608679321404 18:1 295:1 402:1 577:1 726:1 1384:1 1655:1 1793:1 1996:1 3460:1 3461:1 3462:1 3463:1
0.388012699273779 1020:1 1543:1 3134:1 3464:1 3465:1 3466:1 3467:1 3468:1 3469:1
0.0389198079494615 791:1 1773:1 3210:1 3472:1 3473:1
0.6070682698483481 45:1 345:1 3501:1 3502:1
1 474:1 635:1 1352:1 3538:1
0.01040534430925783 76:1 109:1 127:1 1093:1 1137:1 1171:1 1975:1 2594:1 3539:1 3540:1 3541:1 3542:1 3543:1 3544:1
1 14:1 256:1 1205:1 1242:1 2747:1
0.2967429859256332 258:1 340:1 570:2 591:1 593:1 791:1 883:1 1384:1 3177:1 3178:1 3249:1 3563:1 3564:1
0.881851354051357 313:1 842:1 877:1 1131:1 1853:1 2038:1 2230:1 3497:1 3596:1 3597:1
1 109:1 295:1 571:1 758:1 856:1 1402:1 1576:1 2722:1 2994:1 3598:1 3599:1
0.3363019999328924 232:1 591:1 1887:1 2861:1 3614:1 3615:1
0.117421597042077 198:1 313:1 362:1 390:1 505:1 688:1 1034:1 1321:1 1972:1 3616:1 3617:1 3618:1 3619:1
0.8527010256843639 217:1 318:1 494:1 882:1 3620:1
1 371:1 438:1 477:1 1131:1 1399:1 1576:1
0.1373118500086054 1009:1 1200:1 1576:1 2381:1 3644:1 3645:1 3646:1 3647:1
0.47652613720843 13:1 190:1 342:1 549:1 926:1 1451:1 2008:1 2123:1 3648:1 3649:1 3650:1 3651:1 3652:1 3653:1
1 49:1 247:1 365:1 2002:1 3656:1 3657:1 3658:1
0.0008595336823683827 314:1 570:1 629:1 1164:1 2482:1 3210:1 3215:1 3667:1 3668:1 3669:1 3670:1 3671:1
0.4886364264030851 34:1 50:1 250:1 267:1 346:1 758:1 910:1 2138:1 3683:1 3684:1 3685:1 3686:1
0.8721870991494399 83:1 201:1 260:1 659:1 3711:1 3712:1 3713:1
0.8093618386594729 1095:1 1406:1
0.78220918162 34:1 231:1 608:1 653:1 1727:1 1905:1 1999:1 3390:1 3741:1 3742:1 3743:1
0.3401902199737901 109:1 116:1 205:1 250:1 896:1 1365:1 1399:1 2209:1 2774:1 3394:1 3766:1 3767:1 3768:1
1 470:1 1594:1 1773:1 2165:1 2172:1 3769:1
0.9866091423985686 193:1 255:1 307:1 1093:1 1668:1 2628:1 2988:1 3022:1 3425:1 3770:1 3771:1 3772:1
0.1420960713803411 21:1 278:1 345:1 2131:1 2147:1 3796:1 3797:1 3798:1
0.2855530274830773 172:1 205:1 345:1 1210:1 1555:1 1831:1 2171:1 2699:1 3178:1 3799:1 3800:1 3801:1
0.5514196413881174 21:1 231:1 608:1 637:1 815:1 1054:1 1525:1 1609:1 1722:1 1730:1 3802:1 3803:1 3804:1
0.1165480649024982 177:1 374:1 718:1 890:1 2500:1 3085:1 3805:1 3806:1 3807:1 3808:1
0.2430801303383349 18:1 90:1 96:1 771:1 3478:1 3822:1 3823:1
0.009168870516626746 81:1 101:1 373:1 754:1 1325:1 1361:1 1593:1 1961:1 2384:1 3332:1 3835:1 3836:1
0.3779910661111102 30:1 45:1 591:1 693:1 894:1 2002:1 2340:1 3160:1 3859:1 3860:1 3861:1 3862:1 3863:1 3864:1 3865:1
0.1530238570758619 83:1 212:1 688:1 1163:1 2205:1 2305:1 3870:1 3871:1 3872:1
0.2177645785959041 212:1 450:1 791:1 1078:1 1668:1 2369:1 3136:1 3876:1 3877:1 3878:1 3879:1
0.09092910672420788 148:1 733:1 734:1 785:1 1550:1 3885:1 3886:1 3887:1 3888:1 3889:1 3890:1 3891:1
0.2198879714347602 90:1 530:1 647:1 791:1 1365:1 2632:1 3410:1 3904:1 3905:1 3906:1
0.4406837411875619 1110:1 3912:1 3913:1 3914:1 3915:1 3916:1
0.2275259305740484 76:1 368:1 749:1 795:1 824:1 1129:1 2161:1 3926:1 3927:1 3928:1 3929:1
0.9140565909624042 45:1 56:1 78:1 198:1 250:1 357:1 380:1 479:1 785:1 1429:1 1446:1 1655:1 2074:1 3930:1 3931:1
0.04616527852009675 776:1 910:1 3932:1 3933:1 3934:1
0.3182073813306743 71:1 390:1 577:1 3570:1 3963:1 3964:1 3965:1 3966:1 3967:1
0.0609472660717973 21:1 238:1 295:1 1020:1 1100:2 1537:1 3972:1 3973:1 3974:1 3975:1 3976:1
0.5273502693340167 705:1 767:1 1098:1 1196:1 1325:1 2981:1 3996:1
1 45:1 198:1 438:2 508:1 577:1 1164:1 3052:1 4009:1 4010:1 4011:1
0.4633233215657328 21:1 1563:1 2045:1 3160:1 4015:1 4016:1
0.6272772737787449 15:1 396:1 685:1 1077:1 1136:1 3367:1 3459:1 4022:1 4023:1 4024:1
0.09939278829490908 368:1 374:1 606:1 1207:1 2721:1 4025:1 4026:1 4027:1
0.07704288470487278 12:1 15:1 50:1 127:1 194:1 241:1 402:1 426:1 629:1 791:1 1049:1 1359:1 1864:1 1923:1 2298:1 4036:1 4037:1 4038:1 4039:1 4040:1 4041:1
0.9062108060992226 18:1 21:1 50:1 183:1 276:1 468:1 608:1 652:1 815:1 1206:1 1338:1 1405:1 3493:1 4062:1 4063:1 4064:1
0.5647820220736079 20:1 57:1 139:1 4065:1 4066:1 4067:1
0.6560816571698697 83:1 112:1 117:1 506:1 1009:1 1389:1 1592:1 1988:1 3892:1 3960:1 4068:1 4069:1 4070:1
0.2094312891165626 21:1 50:1 53:1 127:1 174:1 527:1 926:1 1203:1 1381:1 1480:1 4072:1 4073:1
0.09851569109445388 314:1 384:1 467:1 1451:1 1480:1 2707:1 3855:1 4079:1 4080:1 4081:1 4082:1
0.1273288203074938 33:1 205:1 506:1 635:1 4092:1 4093:1 4094:1
0.4416120390105873 4100:1 4101:1
0.2283743959652272 154:1 332:1 569:1 1262:1 3580:1 4102:1 4103:1 4104:1 4105:1 4106:1
0.09616184797280013 18:1 21:1 238:1 265:1 548:1 857:1 996:1 1790:1 2216:1 2276:1 4111:1
0.2159386065080942 322:1 575:1 720:1 2562:1 3078:1 3960:1 4138:1 4139:1 4140:1 4141:1 4142:1 4143:1 4144:1 4145:1 4146:1 4147:1
1 8:1 46:1 250:1 1614:1 2701:1
0.2757250262923095 177:1 241:1 4163:1 4164:1
0.1971278588333246 115:1 160:1 203:1 384:1 477:1 527:1 570:1 731:1 877:1 978:1 1206:1 4166:1 4167:1 4168:1
0.1062273736750199 21:1 34:1 121:1 445:1 450:1 838:1 1210:1 1576:1 1584:1 1731:1 2196:1 2376:1 4159:1 4169:1 4170:1 4171:1
0.635859481060945 127:1 905:1 923:1 1108:1 2895:1 3851:1 4220:1
1 438:1 591:1 695:1 3493:1 4231:1
0.1818014901766287 20:1 49:1 70:1 228:1 258:1 479:1 611:1 1351:1 1366:1 1407:1 1440:1 1727:1 4244:1 4245:1 4246:1
1 191:1 3593:1 4247:1
0.9771141868481025 144:1 1461:2 4250:1
0.1992502564599549 39:1 116:1 127:1 187:1 399:1 478:1 500:1 512:1 571:1 987:1 1171:1 1187:1 1412:1 3556:1 4251:1 4252:1 4253:1 4254:1 4255:1 4256:1 4257:1
0.5109790108865749 78:1 254:1 371:1 749:1 788:1 1337:1 1365:1 3700:1 4295:1 4296:1 4297:1 4298:1 4299:1 4300:1 4301:1
0.8580967860518798 190:1 287:1 371:1 398:1 428:1 445:1 480:1 883:1 1346:1 1741:1 2095:1 2303:1 2715:1 3903:1 3905:1 4308:1
0.7067280050809888 250:1 313:1 894:1 1077:1 1230:1 1365:1 2725:1 2957:1 3200:1 3812:1 4324:1
0.6235356010331625 608:1 857:1 1100:1 1367:1 1410:1 4333:1 4334:1 4335:1 4336:1
0.2902208894614986 46:1 313:1 1278:1 2605:1 2753:1 4179:1 4344:1 4345:1 4346:1 4347:1 4348:1
0.1227755564269247 172:1 785:1 853:1 1095:1 2165:1 3766:1 4349:1 4350:1 4351:1 4352:1 4353:1 4354:1 4355:1
0.02800335402928158 152:1 384:1 481:1 529:1 577:1 2715:1 2856:1 2935:1 4364:1 4365:1 4366:1 4367:1 4368:1 4369:1 4370:1 4371:1
0.4897816381884816 33:1 611:1 1399:1 3767:1 4404:1
0.2085978159492467 877:1 3530:1 4425:1 4426:1 4427:1 4428:1 4429:1 4430:1 4431:1 4432:1 4433:1
0.140595319538592 21:1 937:1 1576:1 2815:1 3346:1 3551:1 4434:1 4435:1 4436:1
0.7557607305093977 50:1 240:1 258:1 1168:1 2061:1 4437:1 4438:1
0.003202403791936565 263:1 481:1 818:1 1555:1 2451:1 2779:1 4451:1 4452:1 4453:1 4454:1 4455:1 4456:1 4457:1 4458:1
0.8694030409258691 226:1 250:1 500:1 688:1 869:1 1993:1 4459:1 4460:1 4461:1 4462:1
0.7977368235509621 50:1 963:1 1257:1 1643:1 2288:2 2394:1 2558:1 3724:1 4476:1 4477:1 4478:1 4479:1 4480:1
0.1056206691726156 21:1 877:1 996:1 1131:1 1287:1 1376:1 1432:1 1988:1 3719:1 4199:1 4510:1 4511:1 4512:1 4513:1 4514:1 4515:1 4516:1 4517:1 4518:1
0.00536897522032789 112:1 228:1 421:1 857:1 1609:1 1699:1 4530:1 4531:1 4532:1 4533:1
1 39:1 865:1 1361:1 2945:1 4538:1 4539:1 4540:1
0.05589351386409172 112:1 116:1 177:1 791:1 883:1 1210:1 1410:1 1422:1 1722:1 2976:1 3061:1 3492:1 3710:1 4541:1 4542:1 4543:1
0.8506717422024054 33:1 83:1 112:1 390:1 402:1 479:1 516:1 585:1 1162:1 2909:1 2976:1 3139:1 4544:1 4545:1
0.2424463707985778 21:1 61:1 342:1 1636:1 2442:1 3015:1 3719:1 3926:1 4578:1 4579:1 4580:1
0.2894163240550769 33:1 212:1 232:1 276:1 479:1 570:1 1210:1 1353:1 1390:1 1480:1 2420:1 3116:1 4584:1 4585:1 4586:1 4587:1 4588:1 4589:1 4590:1
0.6003851594925574 33:1 83:1 621:1 877:1 1249:1 2715:1 3773:1 4591:1 4592:1 4593:1 4594:1
1 142:1 857:1 980:1 1410:1
0.6171914000500083 109:1 483:1 666:1 1092:1 2149:1 4094:1 4464:1 4605:1 4606:1 4607:1
0.7010045398952522 232:1 639:2 667:1 2838:1 3809:1 4619:1 4620:1
0.3014408558000946 46:1 205:1 250:1 251:1 467:1 718:1 3778:1 4646:1 4647:1 4648:1 4649:1 4650:1
0.2021969769117029 232:1 603:1 820:1 1053:1 1490:1 1776:1 2214:1 2869:1 3014:1 3382:1 3566:1 3705:1 4385:1 4654:1 4655:1 4656:1
0.4321513233931475 226:1 574:1 592:1 1013:1 1210:1 1447:1 1834:1 2098:1 4659:1 4660:1 4661:1
0.1889482774921303 250:1 373:1 384:1 639:1 718:1 1001:1 1029:1 1408:1 4137:1 4663:1 4664:1 4665:1 4666:1 4667:1 4668:1 4669:1
1 199:1 250:1 3295:1 4676:1
0.4178210241833198 34:1 49:1 869:2 1648:1 2198:1 2434:1 3917:1 4683:1 4684:1 4685:1 4686:1 4687:1
0.2538141895342804 83:1 116:1 250:1 788:1 963:1 1370:1 1511:1 1656:1 1735:1 1759:1 4715:1
1 34:1 250:1 373:1
0.1478193888976286 329:1 384:1 456:1 529:1 1382:1 1988:1 2175:1 2744:1 4748:1 4749:1 4750:1 4751:1 4752:1 4753:1 4754:1 4755:1 4756:1 4757:1
0.5012740269624246 3786:1 4172:1 4758:1 4759:1 4760:1 4761:1 4762:1
0.5053559921270498 478:1 1148:1 3156:1
0.4149400136638134 18:1 46:1 474:1 1943:1 3219:1 3435:1 4788:1 4789:1 4790:1
1 174:1 384:1 608:1 629:1 827:1 989:1 4793:1 4794:1
0.008334737508115038 21:1 58:1 307:1 511:1 1072:1 1260:1 1286:1 1537:1 1594:1 2988:1 3226:1 4799:1 4800:1 4801:1 4802:1 4803:1
0.8418846840519248 15:1 18:1 30:1 127:1 639:1 759:1 788:2 791:1 1580:1 1790:1 4822:1
0.05232546299652686 250:1 749:1 758:1 764:1 857:1 1108:1 1419:1 1773:1 4096:1 4834:1 4835:1 4836:1 4837:1
0.1678374905719787 6:1 18:1 45:1 46:1 49:1 236:1 529:1 639:1 990:1 1998:1 2778:1 4847:1 4848:1 4849:1 4850:1
0.04945127772349884 18:1 107:1 365:1 1210:1 1785:1 3904:1 4615:1 4671:1 4851:1 4852:1 4853:1 4854:1
0.2471900637916996 15:1 30:1 85:1 139:1 363:1 438:1 987:1 1098:1 1415:1 2175:1 2683:1 3363:1 3586:1 4857:1 4858:1 4859:1 4860:1 4861:1 4862:1
0.8370214202412307 824:1 4876:1
0.8314169390668433 30:1 46:1 116:1 265:1 2165:1 2172:1 4877:1 4878:1
0.2899427237287627 93:1 250:1 314:1 617:1 672:1 764:1 1945:1 1950:1 4886:1 4887:1 4888:1
0.4414937464946524 46:1 667:1 855:1 1333:1 1773:1 3414:1 3425:1 4895:1
0.4586490829066059 265:1 450:2 3609:1 4912:1 4913:1
0.4117786016259654 18:1 241:1 600:1 611:1 814:1 1098:1 1205:1 1278:1 1809:1 2378:1 2658:1 3531:1 4682:1 4914:1
0.1650553305780134 160:1 177:1 198:1 368:1 1207:1 1247:1 4915:1 4916:1 4917:1 4918:1
0.4588725416731652 83:1 705:1 844:1 2522:1 2605:1 2989:1 4923:1
0.110809051633656 710:1 712:1 983:1 1108:1 1703:1 4927:1 4928:1
0.2243361480445102 30:1 46:1 201:1 205:1 232:1 316:1 474:1 659:1 661:1 1594:1 2797:1 3786:1 4582:1 4821:1 4933:1
0.307910663423683 313:2 1199:1 4941:1 4942:1 4943:1 4944:1 4945:1 4946:1
0.05216282171857569 15:1 150:1 216:1 250:1 394:1 1229:1 3295:1 3370:1 3693:1 4954:1 4955:1 4956:1 4957:1 4958:1 4959:1 4960:1
0.3011587978599212 450:1 2305:1 3253:1 4965:1 4966:1
0.05700269046789736 18:1 365:1 368:1 458:1 639:1 659:1 1709:1 2158:1 3398:1 4025:1 4981:1 4982:1 4983:1
0.2576875098008149 46:1 495:1 835:1 1206:1 2778:1 3632:1 3935:1 4464:1 4999:1 5000:1 5001:1
0.1251230420894746 265:1 384:1 716:1 2205:1 5010:1 5011:1 5012:1 5013:2 5014:1
0.04180107281351445 101:1 121:1 341:1 355:1 519:1 656:1 812:1 896:1 1296:1 1361:1 1387:1 1833:1 2516:1 4325:1 4659:1 4671:1 5015:1 5016:1 5017:1 5018:1 5019:1
0.3720411355238988 142:1 527:1 3424:1 5024:1 5025:1 5026:1 5027:1
1 18:1 83:1 250:1 377:1 591:1 5043:1
0.1263670721520134 30:1 109:1 241:1 250:1 256:1 341:1 470:1 571:1 624:1 657:1 1106:1 1332:1 1400:1 1594:1 5053:1 5054:1 5055:1 5056:1 5057:1
0.09448169195281675 31:1 241:1 515:1 718:1 1171:1 4504:1 5066:1 5067:1 5068:1 5069:1
0.0322076408786782 21:1 50:1 250:1 341:1 529:1 1096:1 2149:1 3268:1 3607:1 3631:1 4532:1 5073:1 5074:1 5075:1 5076:1 5077:1 5078:1 5079:1 5080:1 5081:1
0.08673062332430645 18:1 633:1 643:1 660:1 732:1 5082:1 5083:1 5084:1
0.5947297138939304 34:1 250:1 608:1 1001:1 1037:1 1609:1 2327:1 3305:1 4577:1 5085:1
0.3191056564630663 45:1 857:1 989:1 1407:1 1855:1 5086:1 5087:1 5088:1 5089:1 5090:1
0.1803114772458391 467:1 477:1 529:1 3722:1 5092:1 5093:1
0.4270077409343563 109:1 341:1 630:1 787:1 1461:1 2633:1 3169:1 3587:1 5098:1 5099:1 5100:1 5101:1 5102:1
0.5235579776374264 1051:1 5103:1
0.002577693361802412 764:1 771:1 1013:1 1258:1 1377:1 2170:1 4778:1 4857:1 4968:1 5105:1 5106:1 5107:1
0.2755784799593186 90:1 275:1 579:1 639:1 657:1 763:1 1171:1 4623:1 5108:1 5109:1 5110:1
0.07937235442505745 45:1 187:1 508:1 510:1 659:1 705:1 869:1 2697:1 4202:1 5100:1 5112:1 5113:1 5114:1 5115:1 5116:1 5117:1 5118:1 5119:1 5120:1 5121:1 5122:1
0.1787199549153352 241:1 2163:1 4993:1 5123:1 5124:1
0.3773602626101121 47:1 256:1 477:1 1163:1 1809:1 3280:1 5131:1 5132:1 5133:1 5134:1
0.2128068091360381 78:1 127:1 198:1 477:1 987:1 1054:1 1648:1 1773:1 5135:1 5136:1
0.08224793120038335 15:1 121:1 154:1 340:1 667:1 733:1 767:1 1410:1 3885:1 5024:1 5137:1 5138:1 5139:1 5140:1
0.2206700996796107 15:1 198:1 250:1 339:1 474:1 577:1 642:1 786:1 1211:1 1407:1 1429:1 1731:1 2122:1 3126:1 3348:1 3679:1 3771:1 5128:1 5145:1 5146:1 5147:1 5148:1
1 21:1 55:1 746:1 1141:1 2504:1 5149:1 5150:1
0.2634594266717694 160:1 421:1 438:2 665:1 848:1 5151:1 5152:1 5153:1
0.2318907848779262 8:1 30:1 46:1 61:1 231:1 428:1 886:1 1767:1 3014:1 4780:1 5185:1
0.2576765659758811 365:1 477:1 2138:1 5196:1
0.4428246962210142 5204:1 5205:1
1 287:1 735:1 1365:1 1399:1 5030:1
1 495:1 574:1 639:1 1479:1 1549:1 5220:1
0.03601794382090903 21:1 606:1 860:1 1299:1 5230:1 5231:1 5232:1
0.7152022949680044 18:1 881:1 1205:1 1296:1 1304:1 3200:1 5239:1 5240:1
0.1373029690963828 322:1 1133:1 1216:1 1302:1 1550:1 1818:1 2744:1 2977:1 5260:1
0.7147746398265621 411:1 467:1 469:1 731:1 863:1 1014:1 2205:1 5264:1 5265:1
1 11:1 68:1
0.5255173224503401 18:1 55:1 132:1 326:1 381:1 579:1 639:1 1163:1 2204:1 2792:1 5278:1 5279:1
0.194924493213292 46:1 231:1 258:1 1207:1 1365:1 2035:1 2571:1 3357:1 4496:1 5289:1 5290:1
0.2152038626993361 732:1 1771:1 5295:1
0.2819902967479173 121:1 481:1 1131:1 1988:1 2714:1 5097:1 5105:1 5181:1 5331:1 5332:1 5333:1
0.001474717097804602 101:1 203:1 209:1 630:1 1325:1 5339:1 5340:1
1 30:1 33:1 44:1 109:1 116:2 250:1 344:1 529:1 733:1 771:1 883:1 1594:1 3050:1 3851:1 5345:1
0.2088275157434786 400:1 530:1 661:1 786:1 3126:1 3593:1 4836:1 5350:1 5351:1 5352:1
0.1994728288611598 132:1 361:1 979:1 1924:1 3097:1 4916:1 5078:1 5250:1 5356:1 5357:1 5358:1 5359:1
0.0565994187362294 480:1 990:1 1668:1 1972:1 2747:1 5370:1
0.1821172615803835 18:1 284:1 313:1 500:1 1127:1 1285:1 1342:1 2165:1 3483:1 3735:1 3741:1 5384:1 5385:1 5386:1 5387:1 5388:1 5389:1 5390:1
0.09029730518121669 15:1 810:1 1128:1 2063:1 5391:1 5392:1 5393:1 5394:1
1 45:1 258:1 791:1 5395:1 5396:1
0.02412880208504248 47:1 300:1 472:1 477:1 624:1 1098:1 1293:1 1332:1 1627:1 5124:1
0.7641824472684144 5:1 6:1 2240:1 5410:1
0.00724935348171115 21:1 529:1 1718:1 2377:1
0.04762362396374413 91:1 127:1 569:1 866:1 987:1 1541:1 1776:1 2628:1 2869:1 2895:1 3064:1 4576:1 5424:1 5425:1 5426:1 5427:1
0.196930661992773 5428:1 5429:1 5430:1
0.819049731113055 44:1 45:1 198:1 272:2 630:1 2046:1 2183:1 3233:1 5443:1
0.48660215274091 132:1 857:1 980:1 1276:1 1410:1 1627:1 4680:1 5451:1 5452:1 5453:1 5454:1 5455:1 5456:1
0.06403819020140369 42:1 46:1 304:1 374:1 676:1 1557:1 1570:1 4622:1 5469:1 5470:1 5471:1 5472:1
0.04781284198456874 18:1 402:1 5480:1 5481:1
1 639:1 5483:1
0.9628942887562701 266:1 575:2 703:1 857:1 3409:1 5494:1 5495:1 5496:1 5497:1 5498:1 5499:1
0.5844412860304072 18:1 281:1 1957:1 3206:1 5070:1 5500:1 5501:1 5502:1 5503:1 5504:1
0.2963255350175573 578:1 681:1 934:1 1131:1 1439:1 1480:1 1627:1 2725:1 3649:1 3951:1 5512:1
1 96:1 382:1 498:1 1530:1 1881:1 2558:1 4221:1
0.2068503753692557 45:1 272:1 1149:1 2816:1 5441:1 5521:1 5522:1
0.3945749640090015 518:1 3270:1
0.3888262263761688 21:1 198:1 232:1 421:1 450:1 558:1 1171:1 1317:1 2082:1 4541:1 5523:1
0.08162715849157945 15:1 546:1 1262:1 1365:1 1893:1 2928:1 3206:1 3662:1 5543:1 5544:1 5545:1 5546:1 5547:1
0.5501222052992856 529:1 737:1 1098:1 1718:1 5565:1 5566:1
0.1266563919122011 21:1 250:1 304:1 329:1 477:1 909:1 1410:1 1576:1 1643:1 2442:1 2457:1 3082:1 3111:1 3951:1 4007:1 5569:1 5570:1 5571:1
1 450:1 477:1 1016:1 5572:1
0.1629006989522308 18:1 174:1 218:1 258:1 482:1 652:1 963:1 993:1 995:1 1370:1 5582:1 5583:1 5584:1
0.5124775981014109 125:1 231:1 508:1 646:1 791:1 1139:1 1776:1 2869:1 3773:1 5063:1 5607:1 5608:1 5609:1
1 36:1 250:1 828:1 4916:1
0.06899107321357488 21:1 101:1 390:1 401:1 477:1 933:1 1221:1 2018:1 5612:1 5613:1 5614:1 5615:1
0.04331568001160745 30:1 177:1 287:1 428:1 450:1 480:1 581:1 625:1 990:1 1001:1 1556:1 2069:1 3857:1 5616:1 5617:1 5618:1
1 30:1 45:1 96:1 301:1 588:1 771:1 776:1 1480:1 3210:1 3215:1 5592:1
0.1764073728554553 33:1 46:1 83:1 112:1 256:1 356:1 382:1 791:1 1359:1 1924:1 2656:1 3226:1 4583:1 5579:1 5638:1 5639:1 5640:1 5641:1
0.4243769388707527 183:1 244:1 313:1 867:1 1365:1 5668:1 5669:1
0.3707406641085876 200:1 1668:1 1905:1 2707:1 3779:1 5680:1 5681:1
0.3965508016571193 31:1 33:1 56:1 83:1 254:1 255:1 295:1 384:1 629:1 749:1 791:1 1267:1 1333:1 1640:1 2630:1 2815:1 5695:1 5696:1 5697:1
0.8552208152045719 18:1 83:1 116:1 384:1 665:1 882:1 975:1 1202:2 2664:1 3078:1 3465:1 5702:1 5703:1 5704:1
0.01651363602927475 450:1 909:1 910:1 912:1 920:1 1005:1 2261:1 2344:1 5705:1 5706:1 5707:1 5708:1 5709:1 5710:1 5711:1 5712:1 5713:1 5714:1 5715:1 5716:1 5717:1 5718:1 5719:1 5720:1 5721:1
0.2294908438352219 579:1 639:1 947:1 1122:1 1359:1 1627:1 2046:1 2080:1 3794:1 3882:1 5726:1 5727:1
0.205709650415048 21:1 923:1 1678:1 2240:1 2630:1 3480:1 3689:1
0.2093429176074367 116:1 630:1 1307:1 2978:1 4758:1 4759:1 4761:1 4762:1 5121:1 5735:1
1 232:1 287:1 384:1 500:1 606:1 637:1 676:1 1365:1 5736:1
0.6175883334634247 655:1 657:1 3190:1 5740:1 5741:1
0.4115264232161735 101:1 329:1 775:1 792:1 1205:1 2589:1 2744:1 5747:1
0.2518362050930705 96:1 121:1 336:1 572:1 587:1 745:1 785:1 1032:1 1843:1 2049:1 3056:1 3714:1 5587:1 5761:1 5762:1 5763:1 5764:1
0.3821252695249897 15:1 46:1 508:1 515:1 709:1 1296:1 1332:1 1758:1 1867:1 5776:1 5777:1 5778:1
0.1702258203525794 477:1 509:1 1771:1 2211:1 3011:1 3014:1 4086:1 5557:1 5779:1 5780:1
0.3950208403099377 21:1 86:1 147:1 703:1 780:1 860:1 1198:1 2872:1 3905:1 5790:1 5791:1
0.454593133302253 45:1 177:1 250:1 1171:1 1384:1 1444:1 2232:1 5813:1 5814:1
0.1894719467074178 21:1 160:1 416:1 458:1 785:1 996:1 2767:1 5815:1 5816:1 5817:1
1 56:1 731:1 817:1 2929:1 3593:1
0.01890049921253712 334:1 652:1 770:1 791:1 1325:1 1722:1 1804:1 2323:1 2698:1 2758:1 3960:1 4370:1 4381:1 5818:1 5819:1 5820:1 5821:1
1 18:1 21:1 46:1 478:1 480:1 1260:1
0.3129813826789518 1432:1 5012:1 5826:1
0.7477296083636201 83:1 93:1 250:1 260:1 329:1 608:1 990:1 1205:1 1476:1 2856:1 3324:1 5827:1
0.05936473142201192 45:1 300:1 654:1 1067:1 1631:1 1773:1 4012:1 5828:1 5829:1 5830:1 5831:1 5832:1
0.235861353381009 21:1 160:1 423:1 1240:1 1445:1 2180:1 5105:1 5841:1 5842:1 5843:1
1 45:1 256:1 910:1 1171:1 1365:1 5864:1 5865:1 5866:1
0.2708421524917261 21:1 284:1 457:1 652:1 946:1 978:1 1020:1 1108:1 1259:1 2230:1 3983:1 4102:1 5898:1 5899:1 5900:1
0.3328291338213648 527:1 531:1 1731:1 5903:1 5904:1 5905:1
0.02547737706440175 112:1 117:1 125:1 1532:1 3523:1 3700:1 4130:1 5675:1 5916:1 5917:1 5918:1
0.776129025477803 611:1 2442:1 5919:1 5920:1
0.1013170528164427 70:1 141:1 241:1 1064:1 1409:1 1410:1 3227:1 3712:1 4099:1 5942:1
1 579:1 1156:1 1434:1 1576:1 2315:1 3200:1
0.1166823231413938 45:1 47:1 629:1 1872:1 5075:1 5943:1 5944:1
0.617128710565089 112:1 443:2 606:1 2370:1 4276:1 5945:1 5946:1 5947:1
0.106051607434048 21:1 101:1 593:1 1643:1 1832:1 1867:1 1952:1 2143:1 3656:1 3751:1 3935:1 5423:1 5948:1
0.2307170694767001 45:1 387:1 438:1 1014:1 1127:1 1166:1 1337:1 1972:1 2101:1 2413:1 2756:1 4179:1 4296:1
0.5227675355815837 101:2 363:1 368:1 387:1 977:1 1205:1 1416:1 3164:1 3297:1 4280:1 5973:1
0.3288198756768636 1345:1 3599:1 3967:1 5984:1
1 709:1 1014:1 3045:1 3218:1 3773:1 4606:1
0.3068702887473262 21:1 33:1 46:1 172:1 272:1 421:1 468:1 702:1 905:1 1381:1 1465:1 2524:1 2988:1 3357:1 4613:1 5990:1 5991:1 5992:1
1 250:1 592:1 860:1 1054:1 1122:1 2043:1 2633:1 2660:1 4212:1 6005:1 6006:1
0.01709975584720947 698:1 2010:1 5495:1 6013:1 6014:1
0.5110658943429791 15:1 265:1 330:1 399:1 482:1 499:1 503:1 1059:1 1670:1 2524:1 2748:1 6015:1 6016:1 6017:1
0.3842687313055123 217:1 300:1 804:1 877:1 886:1 977:1 1033:1 1365:1 1697:1 1809:1 1985:1 2323:1 3199:1 3773:1 4613:1 5075:1 6018:1 6019:1 6020:1 6021:1
0.05504547520852453 250:1 258:1 344:1 345:1 575:1 791:1 5019:1 5924:1 6026:1 6027:1
0.1076353047775484 18:1 653:1 1633:1 1737:1 3111:1 3641:1 5302:1 6033:1 6034:1 6035:1
0.7141384847896317 61:1 352:1 577:1 608:1 758:1 4003:1 6038:1 6039:1 6040:1
1 56:1 1200:1
1 85:1 384:1 396:1 829:1 1163:1 1407:1 1655:1 2646:1
0.3887506891293301 838:1 1009:1 2380:1 3320:1 6048:1 6049:1
0.0623883441553293 139:1 241:1 265:1 352:1 483:1 1524:1 2632:1 2929:1 4186:1 6056:1 6057:1 6058:1 6059:1 6060:1 6061:1
0.4446085223029976 815:1 6062:1 6063:1 6064:1
0.09318857950688877 18:1 109:1 171:1 886:1 1158:1 1285:1 6076:1 6077:1 6078:1
0.3130586036925753 83:1 989:1 1221:1 1461:1 1773:1 2046:1 2160:1 2181:1 2340:1 2448:1 2753:1 2930:1 3698:1 3779:1 6082:1 6083:1 6084:1
0.3068017799079247 21:1 198:2 354:1 2376:1 3200:2 6097:1 6098:1 6099:1 6100:1
0.1301603527623336 639:1 669:1 968:1 1001:1 1813:1 3404:1 4199:1 4922:1 6109:1 6110:1 6111:1
0.03162665277219415 45:1 49:1 76:1 212:1 236:1 577:1 639:1 2289:1 3169:1 3593:1 6115:1 6116:1 6117:1
0.0003850198976868384 250:1 1359:1 2008:1 2086:1 3175:1 6118:1 6119:1 6120:1
1 250:1 2051:1 2288:1 2932:1 3118:1 6126:1
0.2841445932289619 1366:2 4105:1 5441:1
0.07630391029965465 46:1 93:1 132:1 479:1 733:1 3015:1 3225:1 4056:1 4464:1 4889:1 5641:1 6135:1 6136:1 6137:1 6138:1 6139:1 6140:1 6141:1 6142:1
0.009734069284271646 474:1 515:1 529:1 646:1 1146:1 2220:1 2230:1 2324:1 2722:1 3433:1 4841:1 5689:1 5833:1 6143:1 6144:1
0.1390934340279065 33:1 81:1 226:1 250:1 265:1 877:1 3500:1 3999:1 4001:1
1 21:1 608:1 1064:1 1205:1 1252:1 1722:1 2376:1 2744:1 6190:1 6191:1
0.1617100411003958 21:1 1833:2 1914:1 2160:1 2725:1 5008:1
0.2652922774258682 575:1 656:1 1163:1 1633:1 2234:1 3903:1 4685:1 6223:1 6224:1 6225:1 6226:1 6227:1
0.646356145879973 1790:1 3745:1
0.573829520121274 21:1 474:1 709:1 925:1 6240:1
0.1364170609807385 474:1 2442:1 4358:1 4950:1 5689:1 6243:1 6244:1
0.6323832649324862 1664:1 2186:1 3052:1 6245:1
0.05065313454453448 15:1 255:1 793:1 2114:1 2230:1 4494:1 5101:1 6246:1 6247:1 6248:1 6249:1 6250:1
0.589488451833094 101:1 263:1 1476:1
0.7182977882802284 18:1 46:1 116:1 160:1 265:1 2613:1 4003:1 6254:1
0.2478876608149716 365:1 2977:1 3729:1 6256:1 6257:1
0.06988428748245634 21:1 250:1 265:1 445:1 570:1 1476:1 1609:1 1716:1 1903:1 2474:1 2490:1 2935:1 4158:1 4203:1 6262:1 6263:1 6264:1 6265:1
0.7540003151257888 1067:1 2929:1 4531:1 4791:1 6267:1
0.09782317941552682 45:1 380:1 1014:1 1509:1 1718:1 2375:1 3099:1 3363:1 3572:1 3693:1 4232:1 4280:1 6268:1 6269:1 6270:1 6271:1
0.4932069534630347 39:1 629:1 665:1 709:1 768:1 1717:1 2725:1 3790:1 6272:1
0.3466062398799107 138:1 255:1 652:1 709:2 987:1 1299:1 1304:1 2189:1 2206:1 6274:1 6275:1 6276:1 6277:1 6278:2
0.1449439114921552 18:1 203:1 250:1 608:1 990:1 1242:1 1447:1 2944:1 2946:1 3352:1 3762:1 6288:1 6289:1 6290:1
1 174:1 1325:1 1845:1
0.1298174683946342 203:1 508:1 602:1 688:1 758:1 767:1 6299:1 6300:1
0.2452713750108177 112:1 272:1 877:1 1108:1 1356:1 1359:1 2657:1 6301:1 6302:1
0.4405096593703877 624:1 857:1 1171:1 2371:1 3499:1 6304:1 6305:1
0.05664202452070921 33:2 287:1 402:1 527:1 533:1 585:1 749:1 791:1 1627:1 2632:1 3242:1 3873:1 4927:1 6308:1 6309:1 6310:1 6311:1 6312:1 6313:1
1 93:1 116:1 1304:1
0.4514154306427293 287:1 519:1 1962:1 2587:1 5054:1 6343:1 6344:1
0.01682900561639289 155:1 250:1 1252:1 1420:1 1809:1 2744:1 3033:1 3329:1 6345:1
0.3391155452498825 250:1 258:2 559:1 731:1 937:1 1057:1 1199:1 1205:1 1758:1 2440:1 3493:1
0.3008623383681304 127:1 177:1 458:1 581:1 2048:1 2594:1 2950:1 2953:1 5066:1 5156:1 6361:1 6362:1
0.008663471763393413 16:1 318:1 528:1 2044:1 2673:1 3322:1 4949:1 5394:1 6367:1 6368:1
0.2687223910228221 21:1 287:1 842:1 1555:1 2054:1 2866:1 2869:1 6380:1 6381:1 6382:1 6383:1
0.1796833489703819 1284:1 1413:1 2404:1 6384:1
0.4479797202418512 237:1 250:1 295:1 659:1 698:1 760:1 4019:1 4623:1 6388:1 6389:1
0.2664405250708787 190:1 272:1 373:1 2973:1 4495:1 5653:1 6400:1 6401:1
0.2877372647818164 21:1 305:1 691:1 791:1 1085:1 2779:1 3742:1 6459:1 6460:1
0.4215327370132758 21:1 126:1 371:1 608:1 1159:1 1574:1 1696:1 1725:1 6461:1
0.01554674479549841 21:1 83:1 191:1 477:1 506:1 1365:1 1686:1 1867:1 6465:1
0.8034924273866192 2043:1 4014:1
0.09354408994742738 21:1 105:1 172:1 271:1 1670:1 2209:1 2375:1 2605:1 2760:1 5728:1
0.4344389899869397 15:1 26:1 212:1 402:1 737:1 811:1 2321:1 2423:1 2787:1 5049:1 6482:1 6483:1 6484:1 6485:1
0.4336195388742768 205:1 657:1 1087:1 3702:1 4964:1 5065:1 6489:1
0.23196648683955 21:1 46:1 384:1 438:1 478:1 857:1 1171:1 1484:1 1549:1 2666:1 3785:1 6500:1 6501:1 6502:1
1 83:1 96:2 652:1 1705:1 2926:1 6437:1 6503:1 6504:1
0.2212134241143746 265:1 577:1 629:1 1098:1 2111:1 6505:1 6506:1 6507:1
0.5216057496902488 45:1 250:1 579:1 736:1 928:1 1801:1 2869:1 3677:1 4747:1 6508:1 6509:1 6510:1
0.3588095549356727 477:1 2605:1 4105:1 6511:1
1 31:1 1564:1
0.1293875488267083 30:1 45:1 238:1 272:1 345:1 570:1 712:2 1907:1 2342:1 3858:1 4476:1 6512:1 6513:1 6514:1
1 90:1 928:1 1371:1 3198:1
0.1976262327132305 57:1 201:1 477:1 1098:1 2162:1 3607:1 3773:1 5580:1 6555:1 6556:1 6557:1 6558:1 6559:1 6560:1
0.01950591607640425 6:1 776:1 905:1 1352:1 2073:1 3414:1 6566:1 6567:1 6568:1
0.2740463480892836 33:1 474:1 1210:1 1392:1 1395:1 1791:1 1887:1 1968:1 6584:1 6585:1
1 258:1 1054:1 1381:1 2704:1 5023:1 6594:1
0.01709519793058242 910:1 913:1 2244:1 2344:1 6595:1 6596:1 6597:2 6598:1 6599:1 6600:1 6601:1 6602:1 6603:1 6604:1 6605:1 6606:1 6607:1 6608:1 6609:1
1 121:1 1051:1 1731:1 3418:1
0.07854044207884814 445:1 1099:1 1335:1 3813:1 4099:1 4192:1 6611:1 6612:1 6613:1
0.6298922572494275 46:1 256:1 309:1 665:1 1048:1 1170:1 1285:1 6619:1
0.6775124202901989 26:1 45:1 205:1 478:1 479:1 1178:1 1337:1 5441:1 6545:1 6626:1 6627:1
1 21:1 4006:1
0.1684007668649916 18:1 33:1 34:1 231:1 312:1 373:1 384:1 646:1 761:1 928:1 1058:1 2230:1 5275:1 6409:1 6640:1
0.134821798330512 232:1 365:1 995:1 2143:1 2375:1 2390:1 5075:1 5234:1 6458:1 6647:1
0.4473966369131351 31:1 46:1 258:1 718:1 1061:1 1064:1 2963:1 4072:1 4302:1 4418:1 4990:1 5233:1 5506:1 6648:1 6649:1 6650:1 6651:1 6652:1 6653:1
0.3341172926461249 1205:1 2524:1 3471:1 3660:1
0.01926222963296044 1330:1 4086:1 4758:2 5098:1 6105:1 6471:2 6597:1 6661:1 6662:1 6663:1 6664:1 6665:1 6666:1 6667:1 6668:1 6669:1 6670:1 6671:1 6672:1 6673:1 6674:1 6675:1 6676:1 6677:1
1 6678:1
0.1177469133894611 46:1 92:1 116:1 258:1 416:1 505:1 529:1 786:1 896:1 1609:1 1922:1 3056:1 5616:1 6679:1
0.1711843257704783 1364:1 1495:1 2399:1 4196:1 4357:1 4852:1 5121:1 5306:1 5761:1 6687:1 6688:1 6689:1
0.09383135057600483 21:1 55:1 250:1 340:1 477:1 659:1 668:1 669:1 1296:1 1670:1 2632:1 3678:1 3712:1 3768:1 4455:1 5401:1 5625:1 6700:1 6701:2 6702:1 6703:1
0.2665978260318699 18:1 399:1 477:1 2963:1 3212:1 3349:1 6714:1
0.2456888144414643 21:1 630:1 1337:1 1640:1 2057:1 2962:1 4909:1 6682:1 6732:1 6733:1
0.2612193570309247 529:1 1584:1 6734:2 6735:1
0.7371243144680426 988:1 1210:1 1683:1 3081:1 3571:1
1 250:1 384:1 2649:1 6742:1
0.3628820021892455 15:1 49:1 160:1 341:1 344:1 629:1 3332:1 3601:1 5959:1 6761:1 6762:1
0.3561771311445361 5305:1 5902:1 6261:1 6763:1
0.7086956027575088 529:1 737:1 857:1 980:1 1014:1 1271:1 2816:1 2855:1 6766:1
0.3359236935906393 96:1 172:1 258:1 273:1 384:1 450:2 854:1 1156:1 3199:1 3767:1 5095:1 6729:1 6786:1 6787:1
0.01112389588696391 34:1 278:1 661:1 1525:1 1594:1 1939:1 2266:1 2404:1 4388:1 5728:1 6186:1 6187:1 6794:1 6795:1 6796:1
0.5001050448780658 46:2 83:1 217:1 587:1 652:1 718:1 1384:1 1460:1 1722:1 1996:1 2186:1 2305:1 6797:1 6798:1
0.9328930599983185 34:1 118:1 571:1 791:1 1638:1
1 145:1 563:1 1399:1 3842:1 6809:1
0.4347491112009644 990:1 1640:1 1700:1 4221:1 6810:1
0.3973202192556334 445:1 530:1 933:1 1041:1 1109:1 1115:1 1150:1 1434:1 2441:1 3160:1 4007:1 6820:1 6821:1
0.1167310720217523 231:1 1166:1 3410:1 6852:1 6853:1
0.03281236793970362 6:1 127:1 815:1 6862:1 6863:1 6864:1 6865:1
0.2572956354272533 1480:1 5023:1 5526:1
0.03026771612409435 304:1 504:1 1688:1 2715:1 3016:1 3719:1 6062:1 6892:1 6893:1
0.1799582382194864 54:1 489:1 1067:1 1285:1 2314:1 2587:1 3042:1 3289:1 4213:1 6903:1 6904:1 6905:1
0.2896431232572282 1171:1 1643:1 2217:1 3952:1 6912:1 6913:1 6914:1
0.9500694606830435 45:1 112:1 357:1 384:1 529:1 570:1 624:1 968:1 1381:1 1818:1 4959:1 5637:1 6916:1
0.1566358855686363 93:1 148:1 154:1 190:1 216:1 642:1 649:1 1345:1 1773:1 1882:1 4993:1 6647:1 6919:1 6920:1 6921:1
1 172:1 250:1 253:1 477:1 588:1 883:1 1063:1 6922:1
0.3099131621762985 157:1 241:1 323:1 359:1 814:1 840:1 882:1 1476:1 1979:1 2355:1 2727:1 3222:1 4022:1 4280:1 4449:1 5626:1 6923:1 6924:1 6925:1
0.4648503360314661 287:1 2186:1 3307:1 3323:1 3649:1 3653:1 3754:1 4649:1 4692:1 6926:1
1 46:2 70:1 112:1 546:1 974:1 2656:1 3125:1 6466:1
0.01007812309577152 21:1 241:1 509:1 639:1 718:1 1338:1 1887:1 2111:1 2649:1 4647:2 6058:1 6930:1 6931:1 6932:1 6933:1
1 250:1 509:1 587:1 865:1 990:1 1330:1 1384:1 2186:1 3102:1
0.1410633028652912 45:1 46:1 76:1 251:1 508:1 637:1 983:1 1137:1 1554:1 2215:1 2389:1 2683:1 4713:1 5941:1 6266:1 6934:1 6935:1 6936:1 6937:1
1 21:1 430:1 575:1 1046:1 1399:1 2087:1
0.1115693870175363 21:1 33:1 34:1 109:1 177:1 293:1 326:1 688:1 786:1 788:1 1161:1 1405:1 1574:1 1609:1 3293:1 6938:1 6939:1 6940:1 6941:1 6942:1 6943:1 6944:1
0.02642314295577983 207:1 258:1 342:1 562:1 718:1 828:1 869:1 982:1 1833:1 2147:1 6945:1 6946:1 6947:1 6948:1
0.6415567157105708 30:1 317:1 656:1 715:1 1163:1 1168:1 1477:1 1705:1 3085:1 3722:1 4045:1 4613:1 4637:1 6954:1 6955:1 6956:1
0.5269395636276258 21:1 46:1 84:1 190:1 428:1 733:2 857:1 889:1 1062:1 1801:1 3780:1 3903:1 3960:1 6961:1 6962:1 6963:1 6964:1 6965:1
0.1117667612028792 1013:1 1834:1 2206:1 2489:1 6982:1 6983:1
0.1327550351939517 21:1 61:1 92:1 109:1 221:1 275:1 532:1 575:1 1351:1 1537:1 1552:1 2002:1 4463:1 6147:1 7006:1 7007:1
1 45:1 258:1 381:1 643:1 1158:1 2389:1 2505:1 5495:1 7019:1
0.07654198168428593 661:1 1359:1 4633:1 6304:1 7022:1 7023:1 7024:1 7025:1 7026:1 7027:1
0.3786393911434529 76:1 438:1 875:1 983:1 3100:1 5373:1 7036:1 7037:1
0.6105855751516458 21:1 45:1 56:1 251:1 529:1 611:2 1205:1 2954:1 7038:1 7039:1
0.4654360765526332 109:1 250:1 384:1 996:1 2002:1 2039:1 2054:1 2340:1 2452:1 3744:1 7042:1
0.2744348921004464 719:1 4504:1 7043:1
1 7044:1 7045:1
0.04891415396245311 21:1 49:1 56:1 330:1 359:1 1205:1 3886:1 4269:1
0.2144002737603785 148:1 767:1 815:1 2080:1 6684:1
0.1168913717176025 45:1 258:1 613:1 1415:2 1855:1 3201:2 3219:1 4120:1 4418:1 4490:1 4925:1 7051:1 7052:1
0.1774652975265512 8:1 55:1 138:1 737:1 996:1 1098:1 1425:1 1728:1 2210:1 2753:1 4461:1 4986:1 7055:1 7056:1 7057:1
0.03480141726612976 21:1 193:1 203:1 882:1 1358:1 3722:1 4015:1 4020:1 5452:1 7062:1 7063:1 7064:1 7065:1
1 174:1 250:1 271:1 731:1 883:1 1163:1 6871:1
0.07512518947667991 373:1 1332:1 2744:1 6904:1
0.04041281902988612 21:1 1108:1 1359:1 7072:1 7073:1 7074:1 7075:1
0.5445585446084985 21:1 45:1 231:1 481:1 574:1 639:1 818:1 989:1 1064:1 1483:1 1795:1 2375:1 2633:1 2837:1 3465:1 5287:1 5477:1 5569:1 6637:1 6704:1 7076:2 7077:1
0.2020995948544825 18:1 96:1 198:1 250:2 365:1 450:1 539:1 541:1 995:1 1957:1 2524:1 3858:1 4846:1 7078:1 7079:1
0.4905955187255486 26:1 96:1 101:1 506:1 1004:1 1031:1 1108:1 3062:1 4095:1 5264:1 7085:1 7086:1
0.2454326310980427 20:1 33:1 250:1 261:1 264:1 506:1 794:1 896:1 1446:1 2989:1 4219:1 7051:1 7087:1 7088:1
0.1398963128554946 928:1 1205:1 2457:1 7098:1 7099:1 7100:1
0.1182359673928126 275:1 505:1 564:1 771:1 930:1 960:1 3388:1 4088:1 7112:1 7113:1 7114:1 7115:1 7116:1 7117:1 7118:1
0.08771392890424408 287:1 450:1 910:1 912:1 913:2 1005:1 2252:1 2261:1 2344:1 2354:1 7123:1 7124:1 7125:1 7126:1 7127:1 7128:1 7129:1 7130:1 7131:2 7132:1 7133:1 7134:1 7135:1
1 101:1 116:1 529:1 791:1 996:1 1865:1 4512:1
0.2940139192325095 139:1 478:1 974:1 2907:1 4459:1 7144:1 7145:1 7146:1
0.1600363153939788 99:1 198:1 394:1 826:1 1671:1 2760:1 3167:1 6066:1 7147:1 7148:1
0.2855454635161005 46:1 49:1 186:1 384:1 603:1 611:1 725:1 761:1 828:1 1085:1 1540:1 2552:1 2995:1 3131:1 3882:1 4221:1 4545:1 5676:1 7149:1 7150:1 7151:1
1 49:1 121:1 1034:1 1077:1 1830:1 1832:1 3033:1
0.3304518841780035 30:1 46:1 81:1 495:1 575:1 647:1 857:1 1302:1 1361:1 3270:1 5447:1 7174:1 7175:1
1 107:1 109:1 132:1 144:1 145:1 438:1 591:1 1041:1 1913:1 2571:1 4194:1 5870:1 7177:1 7178:1
0.5731375574283353 653:1 1963:1 2554:1 4661:1
0.1214416319493537 33:1 154:1 490:1 688:1 1019:1 2490:1 3355:1 3981:1 7187:1
0.1452899812644835 18:1 76:1 641:1 676:1 1359:1 1646:1 2569:1 5382:1 7118:1 7188:1 7189:1 7190:1 7191:1 7192:1 7193:1 7194:1 7195:1 7196:1
0.05854740365597894 21:1 121:1 1073:1 1309:1 1633:1 2111:1 2234:1 7197:1 7198:1 7199:1 7200:1 7201:1 7202:1
0.009207837809103772 155:1 723:1 2112:1 2147:1 3512:1 4822:1 5357:1 5526:1 7206:1 7207:1 7208:1 7209:1
1 477:1 1166:1 2981:1 3473:1
0.1523631382840902 399:1 438:1 639:1 737:1 1628:1 1718:1 2305:1 2483:1 2807:1 3724:1 4086:1 7216:1 7217:1
0.7084943433961167 250:1 318:1 705:1 2672:1 7227:1
0.3814969966663886 8:1 98:1 101:1 187:1 546:1 6252:1 7229:1
0.4494301429962728 26:1 31:1 34:1 116:1 400:1 407:1 527:1 583:1 990:1 1975:1 3160:1 3332:1 4463:1 5557:1 5634:1 6544:1 7233:1 7234:1 7235:1
0.09770010136417417 8:1 15:1 127:1 191:1 199:1 877:1 1064:1 1648:1 2895:1 5549:1 7270:1 7271:1 7272:1
0.2717861964628463 18:1 334:2 442:1 853:1 1009:1 1925:1 3186:1 3880:1 5004:1 6685:1 7273:1 7274:1 7275:1 7276:1
0.256880828232544 477:1 857:1 1171:1 1655:1 2714:1 2930:1 4276:1 4662:1 5239:1 6218:1 7285:1 7286:1 7287:1 7288:1
0.2590706272134909 174:1 267:1 438:1 474:1 480:1 575:1 926:1 934:1 988:1 1284:1 1617:1 1697:1 7302:1 7303:1 7304:1
1 7073:1
0.2540499206317846 250:1 256:1 883:1 988:1 2816:1 3041:1 4073:1 4582:1 7314:1 7315:1 7316:1
1 33:1 177:1 186:1 271:1 430:1 639:1 771:1 897:1 1210:1 1358:1 1633:1 1733:1 2639:1 4322:1 7334:1 7335:1
0.2531282721576019 90:1 665:1 776:1 785:1 1200:1 1731:1 7336:1 7337:1
0.234534987761138 34:1 90:1 359:1 2239:1 7345:1
0.09510587082148859 154:1 364:1 688:1 899:1 1221:1 1790:1 1959:1 2440:1 3212:1 3213:1 3321:1 7353:1
0.4375245856876143 46:1 116:1 332:1 479:1 508:1 539:1 540:1 766:1 791:1 883:1 1370:1 2964:1 7363:1
0.3462308492660759 18:1 83:1 116:1 877:1 1095:1 1339:1 1777:1 2150:1 2538:1 2800:1 4213:1 5278:1 7371:1 7372:1 7373:1 7374:1 7375:1 7376:1
0.1106327346740383 21:1 101:1 154:1 171:1 250:1 344:1 495:1 546:1 640:1 681:1 716:1 767:1 780:1 1359:1 1614:1 2948:1 3453:1 7380:1 7381:1 7382:1
1 995:1 2143:1
0.8885288307022268 76:1 263:1 571:1 1348:1
0.05668731536199099 564:1 725:1 1213:1 2962:1 3767:1 7238:1 7389:1 7390:1 7391:1
0.5004059170010584 250:1 648:1 718:2 761:1 805:1 886:1 1171:1 1332:1 2516:1 2737:1 2977:1 3271:1 3592:1 3594:1 6707:1
0.04634417178308518 26:1 198:1 205:1 250:1 442:1 775:1 864:1 1267:1 2046:1 2815:1 3115:1 3759:1 6512:1 7394:1 7395:1
0.1295338696410691 231:1 250:1 265:1 358:1 1072:1 1210:1 1346:1 1536:1 1722:1 2633:1 5251:1 7416:1 7417:1
0.8896810915365849 50:1 190:1 384:1 495:1 639:1 1019:1 1538:1 1652:1 1773:1 2226:1 4210:1 7444:1 7445:1
0.5865578712999179 250:1 1296:1 1607:1 5441:2 7447:1
0.8714848043396979 1017:1 7452:1
0.7065960763187616 15:1 177:1 287:1 562:1 1064:1 1668:1 6227:1 7458:1 7459:1
0.2905548588799632 50:1 127:1 1325:1 1412:1 2630:1 2971:1 4191:1 4192:1 4195:1 4196:1 7476:1
1 18:1 112:1 174:1 478:1 537:1 1210:1 1584:1 1651:1 3495:1 4829:1 7483:1
0.01310166513793099 57:1 652:1 857:1 963:1 1260:1 7484:1
0.1077883053067047 21:1 241:1 300:1 575:1 1171:1 1609:1 1688:1 2499:1 2645:1 3282:1 4378:1 5380:1 7491:1 7492:1
1 231:1 235:1 636:1 857:1 883:1 1271:1 1697:1 7493:1
0.3682674676906004 182:1 250:1 672:1 1646:1 3778:1 3810:1 7495:1 7496:1 7497:1 7498:1
0.1948385794255766 15:1 174:1 193:1 218:1 479:1 718:1 731:1 829:1 937:1 1131:1 1229:1 1301:1 1655:1 2610:1 3983:1 4268:1 7499:1 7500:1 7501:1 7502:1 7503:1
0.3153887589015856 15:1 1253:1 2380:1 4603:1 7504:1 7505:1
0.3729636262799084 577:1 686:1 1046:1 7516:1
1 1570:1 1655:1 4012:1
0.0423026851377772 46:1 250:1 546:1 579:1 733:1 990:1 1396:1 3585:1 4378:1 7538:1 7539:1 7540:1 7541:1 7542:1
0.8801500989143242 16:1 45:1 886:1 947:1 1302:1 1476:1 2160:1
0.4794565103270418 471:1 577:1 628:1 643:1 703:1 2457:1 2458:1 5441:1 6309:1 7555:1 7556:1 7557:1 7558:1 7559:1 7560:1 7561:1
0.3970592962660852 749:1 1203:1 1325:1 2849:1 3983:1 4695:1
0.1426735936585215 8:1 641:1 701:1 754:1 845:1 1670:1 4332:1
0.798082266054803 83:1 250:1 373:1 518:1 1332:1 1773:1 1979:1 5586:1 6430:1 7563:1
0.07739417695717714 511:1 1100:1 1170:1 3638:1 7569:1 7570:1 7571:1
0.3439133439411347 45:1 55:1 84:2 1547:1 4015:1 4216:1 6524:1 7588:1 7589:1 7590:1
0.8199181438027258 373:1 508:1 593:1 1203:1 1325:1 2657:1 3200:1
0.1826797546911604 21:1 33:1 246:1 583:1 1998:1 2410:1 7606:1 7607:1 7608:1
1 387:1 857:1 980:1 1167:1
1 1120:2 1410:1
0.2328851890154233 33:1 53:1 115:1 194:1 569:1 737:1 989:1 1205:1 1259:1 1264:1 1480:1 1808:1 1979:1 3565:1 7610:1
0.2456955109218568 791:1 857:1 1299:1 2202:1 2459:1 2971:1 3167:1 3225:1 6438:1 7097:1
0.3324202371210095 26:1 481:1 775:1 5152:1 5153:1 7646:1
0.08038705559080372 18:1 45:1 191:1 207:1 438:1 791:1 817:1 1259:1 3512:1 4730:1 7655:1 7656:1
0.8544080625575921 51:1 250:1 316:1 384:1 552:1 1429:1 7587:1 7657:1 7658:1
1 198:1 588:1 591:1 1407:1 1439:1 2781:1 2926:1 3207:1 7680:1
0.3741408568557306 20:1 611:1 681:1 962:1 2048:1 6307:1 7683:1 7684:1 7685:1
0.28514220573636 250:1 258:1 1528:1 3762:1 4635:1 4821:1 6916:1 7443:1
0.7086343518763745 21:1 390:1 629:1 633:1 636:1 705:1 854:1 1410:1 1412:1 7697:1 7698:1
0.4003392896067525 109:1 480:1 776:1 1298:1 2849:1 4829:1 6228:1 7699:1 7700:1 7701:1 7702:1
0.1927732782999102 21:1 109:1 138:1 785:1 1790:1 3078:1 7703:1
0.18574079694954 21:1 116:1 315:1 342:1 665:1 1940:1 3061:1 3534:1 5279:1
0.2894616349558429 45:1 654:1 883:1 1026:1 1570:1 2778:1 3674:1 4503:1 7713:1 7714:1 7715:1 7716:1
0.3962553773774226 791:1 1521:1 1730:1 1731:1 2051:1 3118:1 5128:1 7717:1
0.4583494464319932 18:1 477:1 905:1 1077:1 1758:1 7722:1 7723:1
0.02566610904055254 45:1 230:1 256:1 334:1 382:1 527:1 661:1 1365:1 2323:1 4036:1 6042:1 7724:1 7725:1 7726:1 7727:1
1 6:1 46:1 265:1 977:1 1366:1
0.03491952763610246 18:1 50:1 232:1 284:1 341:1 521:1 863:1 1289:1 1655:1 1773:1 2703:1 3436:1 4091:1 4142:1 5396:1 7091:1 7729:1 7730:1 7731:1 7732:1
0.01922577881409396 46:1 458:1 1046:1 1451:1 2205:1 3678:1 5681:1 5902:1 7733:1 7734:1
0.2676309967111704 608:1 842:1 1126:1 1210:1 1722:1 2055:1 3580:1 7739:1
1 443:1 1999:1 6726:1
0.1076229584253745 39:1 55:1 78:1 109:1 111:1 295:1 577:1 758:1 877:1 883:1 923:1 1359:1 1414:1 2086:1 2376:1 2630:1 2741:1 3117:1 4327:1 7754:1 7755:1 7756:1 7757:1 7758:1
0.3271260347408054 55:1 250:2 693:1 786:1 2707:2 2896:1 4490:1 5157:1 7219:2 7759:1 7760:2 7761:1
0.3156079349878137 640:1 1480:1 1979:1 7762:1
0.00650696277663611 21:1 174:1 203:1 791:1 937:1 1610:1 6682:1
0.1568126099587417 18:1 112:1 314:1 365:1 639:1 659:1 928:1 1541:1 2122:1 3792:1 5394:1 7798:1 7799:1
0.03387104002764821 15:1 76:1 256:1 373:1 421:1 443:1 527:1 593:1 791:1 3039:1 3100:1 4347:1 7803:1
0.2226687966017559 263:1 857:1 1029:1 1306:1 1324:1 1606:1 1773:1 2988:1 3139:1 4159:1
1 21:1 1203:1 1325:1 3575:1 7804:1
0.03044507978726971 81:1 101:1 267:1 646:1 1325:1 4142:1 4144:1 5382:1 7822:1 7823:1 7824:1 7825:1 7826:1
0.07144771286554706 46:1 478:1 529:1 3303:1 7827:1
1 313:1 688:1 3101:1 3983:1 6104:2
1 474:1 506:1 817:1 1067:1 1552:1 1764:1
0.5136324020244317 18:1 212:1 228:1 271:1 438:1 665:1 975:1 7854:1 7855:1
0.0572373219131414 764:1 1564:1 1831:1 3412:1 7858:1 7859:1
0.2408265939356194 21:1 118:1 252:1 421:1 1548:1 2533:1 5023:1 6594:1 7704:1 7860:1 7861:1 7862:1 7863:1
0.3981354054594364 128:1 698:1 771:1 1098:1 1556:1 1731:1 7871:1
0.8507480297897532 45:1 49:1 115:1 646:1 857:1 928:1 1067:1 1480:1 3370:1 3693:1 5502:1 7873:1
0.008354333910931338 15:1 258:1 468:1 478:1 646:1 705:1 937:1 1146:1 1695:1 2043:1 2424:1 2666:1 3092:1 3320:1 7082:1 7874:1 7875:1 7876:1
0.4557931570039112 46:1 258:1 384:1 1171:1 1750:1 2224:1 2707:1 7475:1 7877:1 7878:1 7879:1 7880:1
0.369880926325934 18:1 30:1 250:1 339:1 479:1 541:1 857:1 1158:1 1407:1 1648:1 2707:1 7333:1 7881:1
0.8013069345167577 472:1 633:1 1773:1 2304:1 5166:1 7889:1 7890:1 7891:1
0.7079518373335311 96:1 399:1 505:1 1446:1 1730:1 2646:1 4727:1 7907:1
0.1602181644572456 83:1 377:1 635:1 776:1 1073:1 1249:1 1325:1 1542:1 1773:1 2113:1 2643:1 2775:1 4360:1 7908:1 7909:1 7910:1
0.02561604664061532 26:1 160:1 421:1 478:1 686:1 857:1 1046:1 3630:1 6006:1 7918:1 7919:1 7920:1 7921:1 7922:1 7923:1
0.2789291512576486 1834:1 1905:1 3135:1 3745:1 7924:1
0.1558293153655456 50:1 81:1 357:1 438:1 546:1 715:1 1163:1 1399:1 1632:1 4829:1 7073:1 7925:1 7926:1 7927:1
0.4138447712268923 20:1 116:1 438:1 1207:1 1479:1 1928:1 3538:1 3838:1 5078:1 7118:1 7928:1 7929:1
1 21:1 46:1 388:1 479:1 529:1 1260:1 2305:1
0.05401001929152197 18:1 639:1 4531:1 7941:1 7942:1 7943:1 7944:1
0.6356948030750266 4496:1 7009:1 7969:1
1 320:1 1451:1
0.5120779007517171 21:1 45:1 597:1 893:1 2043:1 2744:1 3689:1
0.7107656596082716 1131:1 1325:1 3922:1
0.8856829273630908 287:1 332:1 983:1 1324:1 1525:1 3908:1 7978:1 7979:1
0.6714140439693823 428:1 650:1 1412:1 1996:1 2128:1 2375:1 5075:1 5200:1 7981:1 7982:1
0.5936357796349896 21:1 46:1 2958:1 3747:1 6656:1
1 250:1 854:1 2557:1 5224:1
0.1042132735825501 261:1 262:1 274:1 869:1 1009:1 1285:1 1364:1 2715:1 3952:1 6524:1 6879:1 7996:1 7997:1 7998:1
0.6597330606073468 21:1 83:1 3175:1 7999:1
0.1425121876713968 46:1 70:1 815:1 1606:1 5093:1 5231:1 8000:1 8001:1
0.3476609035137496 160:1 177:1 231:1 394:1 857:1 1385:1 1694:1 2510:1 4047:1 6000:1 8004:1 8005:1 8006:1
0.06026165761309031 231:1 481:1 1171:1 2230:1 3105:1 7397:1 8007:1
0.3786158222852112 639:1 1697:1 1806:1 2426:1 5278:1 8008:1 8009:1 8010:1
0.07570895749520645 44:1 250:1 265:1 474:1 995:1 1525:1 2554:1 3755:1 7082:1 8011:1
0.06013541068085982 83:1 154:1 177:1 250:1 345:1 647:1 910:1 1025:1 2914:1 2973:1 3932:1 3934:1 8012:1 8013:1 8014:1 8015:1 8016:1 8017:1
1 101:1 127:1 2209:1 7703:1 8018:1
0.02215914971249999 0:1 18:1 313:1 432:1 1627:1 2748:1 4089:1 4670:1 8019:1 8020:1 8021:1 8022:1
1 15:1 49:2 109:1 389:1 894:1 1429:1 2174:1 4792:1
0.6344049965871968 21:1 50:1 174:1 824:1 1384:1 2061:1 2383:1 2611:1 3018:1 3119:1 3296:1 4719:1
0.3468839026692223 226:1 250:1 512:1 1862:1 4459:1 7170:1 7172:1 8035:1 8036:1
0.5518232856136607 33:1 153:1 212:1 235:1 1631:1 1921:1 2312:1 3118:1 3769:1 3986:1 4889:1 6147:1 6344:1 8046:1 8047:1
0.3665407753788815 26:1 34:1 138:1 250:1 791:1 2138:1 8054:1
0.4156855087200853 15:1 90:1 126:1 474:1 636:1 1745:1 1956:1 2744:1 3512:1 4695:1 7358:1 8055:1 8056:1
1 101:1 657:1 665:1 2525:1 7648:1
0.5626861667860867 854:1 8065:1 8066:1
0.1526812184645276 8067:1 8068:1 8069:1 8070:1
0.2590263976607709 237:1 438:1 665:1 1549:1 1594:1 2235:1 2476:1 3092:1 3739:1 6987:1 8083:1
0.1394726451375737 386:1 759:1 857:1 980:1 1171:1 1259:1 2811:1 3889:1 4734:1 4899:1 8090:1 8091:1
0.2428658285897817 255:1 657:1 910:1 920:1 1210:1 3510:1 6583:1 7487:1 8110:1 8111:1 8112:1
0.5883817914727733 96:1 342:1 479:1 608:1 1158:1 1285:1 1655:1 1865:1 2298:1 2683:1 2722:1 5934:1 8113:1
0.09362766141926714 101:1 2196:1 2767:1 3399:1 8133:1
0.1075325487586321 21:1 194:2 212:1 256:2 589:1 665:1 877:1 1004:1 1025:1 1073:1 1257:1 1549:1 2457:1 3121:1 5492:1 5593:1 6091:1 6720:1 8145:1 8146:1
0.1624284543265367 15:1 132:1 203:1 425:1 672:1 768:1 1599:1 3886:1 5549:1 6103:1 8151:1 8152:1
0.1162724321756394 22:1 320:1 384:3 528:1 630:1 666:1 8174:1 8175:1 8176:1
0.5568031282604009 21:1 380:1 731:1 1923:1 8184:1 8185:1 8186:1 8187:1 8188:1
1 45:1 205:1 479:1 629:1 1117:1 1399:1 1407:1 1967:1 4075:1 6518:1 6871:1
0.2768221732525273 174:1 265:1 1120:1 1716:1 8190:1
0.3597224363317714 791:1 2128:1 4191:1 4192:1 4195:1 4196:1 8213:1 8214:1 8215:1 8216:1
1 125:1 295:1 562:1 633:1 4221:1 8217:1 8218:1
0.06055329268804444 432:1 1307:1 2300:1 2930:1 5735:1 6401:1 7442:1 7513:1 8229:1 8230:1
0.9130261920935155 15:1 58:1 474:1 3889:1 4737:1 5593:1 8135:1 8231:1
0.7015107683870373 56:1 785:1 1189:1 2234:1 7620:1 8244:1
0.4741804084404605 15:1 46:1 579:1 768:1 1251:1 1606:1 1655:1
0.1519024210782487 481:1 1418:1 1434:1 1576:1 6006:1 8255:1 8256:1
0.1869589699443727 101:1 250:1 329:1 1108:1 2159:1 2401:1 3103:1 4163:1 4795:1 5782:1 8116:1 8257:1 8258:1
1 315:1 1716:1 1865:1 3219:1 4302:1 8259:1
0.1371103669949248 273:1 346:1 695:1 840:1 1632:1 1968:1 1979:1 3967:1 6000:1 8260:1 8261:1 8262:1 8263:1 8264:1 8265:1
0.4007378906449967 174:1 341:1 467:1 718:1 792:1 8274:1 8275:1
0.155841258854218 250:1 261:1 264:1 450:1 570:1 897:1 3599:1 8016:1 8278:1
0.1091409938937846 18:1 608:2 960:1 1429:1 2671:1 2714:1 3615:1 4345:1 8279:1 8280:1
0.6402991484184893 203:1 287:1 606:1 625:1 3644:1 7648:1 8281:1
0.7541572106445764 182:1 477:1 5441:1 5995:1
0.2025031295904101 20:1 127:1 217:1 241:1 785:1 1068:1 1210:1 1460:1 2074:1 3053:1 7072:1 8309:1 8310:1 8311:1 8312:1 8313:1
0.05215603711288642 910:1 912:2 919:1 920:1 1005:1 2243:4 2244:1 2889:2 4758:1 6599:1 6780:1 7178:1 8317:1 8318:1 8319:1 8320:1 8321:1 8322:1 8323:1 8324:1 8325:1 8326:1 8327:1 8328:1 8329:1 8330:1
0.3445643011742465 21:1 112:1 232:1 258:1 629:1 630:1 1108:1 1361:1 3880:1 8333:1
1 132:1 190:1 577:1 652:1 1014:1 1020:1 1286:1 1855:1 2971:1 4691:1 6918:1 8343:1
0.2277404065453004 160:1 260:1 290:1 374:1 559:1 659:1 1098:1 2673:1 7254:1 8353:1 8354:1 8355:1 8356:1 8357:1
0.05451800685677891 76:1 602:1 1399:1 8358:1
0.2873810280243317 46:1 477:1 877:1 8360:1 8361:1 8362:1
0.1126315419843811 45:1 55:1 579:1 1129:1 1168:1 1614:1 2646:1 2962:1 4003:1 6685:1 8363:1 8364:1
1 342:1 502:1 575:1 1287:1 1576:1 1584:1 2128:1 3951:1 8379:1
0.2479550464390967 53:1 357:1 857:1 980:1 982:1 988:1 1296:1 1359:1 1365:1 1377:1 1655:1 2861:1 3160:1 5286:1 5496:1 6912:1 8385:1 8386:1
0.3539495171664047 177:1 402:1 770:1 1722:1 2620:1 4747:1 5340:1 5365:1 6654:1 6994:1 7282:1 8387:1 8388:1
0.2105974343496002 45:1 428:1 527:1 897:1 1289:1 2605:1 3886:1 5313:1 5380:1 8389:1 8390:1 8391:1
0.133411220786347 212:1 479:1 791:1 937:1 979:1 1546:1 4231:1 5364:1 5557:1 6082:1 8395:1 8396:1 8397:1 8398:1 8399:1
1 205:1 1399:1 5636:1
0.5888743674399433 329:1 1162:1 2230:1 2413:1
0.2710354012588083 1205:1 1229:1 2835:1 8412:1
0.439798220626855 33:1 45:1 101:1 290:1 527:1 990:1 8419:1 8420:1 8421:1 8422:1
0.08426916550329701 477:1 937:1 1134:1 2515:1 2651:1 2927:1 3497:1 3535:1 8428:1 8429:1
0.07942384317032189 21:1 194:1 445:1 749:1 989:1 1171:1 2004:1 3724:1 6799:1 8430:1 8431:1 8432:1 8433:1 8434:1
0.0505494858137726 6:1 3168:1 4395:1
0.1433964963496007 21:1 50:1 55:1 78:1 83:1 168:1 198:1 260:1 591:1 1325:1 1365:1 2091:1 4504:1 8439:1
0.006837557696989223 21:1 83:1 250:1 258:1 531:1 1196:1 2657:1 2729:1 3175:1 8457:1 8458:1 8459:1
0.4783818707620785 46:1 85:1 174:1 191:1 194:1 402:1 683:1 1286:1 1296:1 1655:1 2161:1 4885:1 6968:1
0.53252025723562 458:1 467:1 611:1 2375:1 3488:1 8467:1 8468:1 8469:1 8470:1
0.03480010306508489 585:1 591:1 869:1 4907:1 5042:1 5728:1 8474:1
1 508:1 775:1 1325:1
0.2781451626133649 93:1 109:1 199:1 433:1 629:1 652:1 850:1 1783:1 1984:1 2220:1 2524:1 3400:1 7597:1 8483:1 8484:1 8485:1
0.2889759748633298 90:1 258:1 1210:1 1513:1 1793:1 4090:1 4280:1 6082:1 7400:1 8488:1 8489:1 8490:1
0.6443392925724742 83:1 182:1 527:1 1546:1 3771:1 6880:1 8506:1 8507:1 8508:1 8509:1
0.1722833555292023 477:1 666:1 1251:1 1786:1 3473:1
0.09567261975231181 152:1 419:1 1446:1 1716:1 1756:1 6178:1 6680:1 8510:1 8511:1
0.2800907525900056 21:1 107:1 198:1 657:1 1483:1 1876:1 1936:1 2220:1 3018:1 3186:1 4224:1 5040:1 6201:1 8136:1 8524:1
0.4195979509143949 177:1 241:1 258:1 265:1 588:1 981:1 1584:1 2010:1 4125:1 8525:1 8526:1
0.4825984752746869 21:1 281:1 345:1 500:1 1570:1 1599:1 7711:1 8527:1
0.045700524011607 37:1 40:1 1242:1 2165:1 2619:1 4052:1 4250:1 4706:1 8531:1 8532:1 8533:1
0.3289711240314137 232:1 355:1 1788:1 2149:1 8534:2 8535:1
0.4858424454421688 93:1 390:1 2671:1 2908:1 3733:1 4934:1 8538:1 8539:1
0.0516308786850458 21:1 815:1 1059:1 1773:1 8544:1 8545:1 8546:1 8547:1 8548:1 8549:1 8550:1 8551:1 8552:1 8553:1
0.08046860990938523 50:1 101:1 586:1 3113:1 3256:1 3710:1 8133:1
0.01215316497464064 26:1 612:1 1281:1 1325:1 2111:1 6314:1 7388:1
1 101:1 812:1 815:1 905:1 2179:1 8192:1 8571:1
0.5542454616161644 15:1 21:1 34:1 83:1 174:2 203:1 356:1 467:1 527:1 646:1 746:1 1098:1 1223:1 1365:1 1655:1 2409:1 3016:1 3111:1 6948:1 8573:1
0.6139836475514607 21:1 578:1 688:1 888:1 1330:1 2186:1 4194:1 8574:1 8575:1
0.02790027822443123 18:1 109:1 127:1 255:1 558:1 1019:1 1359:1 1872:1 4545:1 4820:1 5222:1 7949:1 8609:1 8610:1
0.04449511524357767 250:1 1957:1 2367:1 3253:1 3609:1 4096:1 7689:1 8619:1 8620:1 8621:1 8622:1
0.1522024266348435 34:1 2906:1 3297:1 6726:1 8625:1
1 50:1 718:1 745:1 8645:1
0.003226107603710884 101:1 258:1 308:1 336:1 1461:1 2456:1 3390:1 3835:1 8647:1 8648:1 8649:1 8650:1 8651:1 8652:1
0.8109045794247869 33:1 251:1 356:1 758:1 857:1 1477:1 1773:1 3613:1 8653:1
0.02251101816608745 45:1 606:1 872:1 882:1 939:1 2472:1 6279:1 6512:1 6514:1 7450:1 8377:1 8670:1 8671:1 8672:1 8673:1 8674:1
1 21:1 45:1 46:1 251:1 479:1 591:1 608:1 639:1 1171:1 1525:1 7285:1
0.1745398764075528 117:1 177:1 857:1 1098:1 1207:1 1396:1 1576:1 1790:1 1833:1 4594:1 7174:1 8677:1
0.03337586478687649 913:1 920:3 1005:1 2344:1 2349:1 2889:1 5714:1 6595:1 7129:1 8685:1 8686:1 8687:1 8688:1 8689:1 8690:1 8691:1 8692:1 8693:1 8694:1
0.1058816253911787 83:1 232:1 330:1 332:1 344:1 374:1 416:1 559:1 1216:1 1957:1 2748:1 5985:1 8386:1 8473:1 8695:1 8696:1 8697:1
0.3774264847656518 96:1 258:1 929:1 1163:1 2430:1 4968:1 5097:1 8702:1
0.3677511686869733 21:1 45:1 93:1 230:1 232:1 857:1 889:1 1317:1 1407:1 2071:1 6035:1 8704:1 8705:1
0.3379013879758756 150:1 155:1 342:1 564:1 834:1 2380:1 4791:1 6610:1 8706:1 8707:1 8708:1 8709:1
0.2565503169370684 93:1 1325:1 1352:1 1968:1 2945:1 6290:1 8719:1 8720:1
0.6118914960866075 83:1 101:1 329:1 683:1 857:1 1257:1 6252:1 8721:1
0.2349602854364874 155:1 160:1 219:1 250:1 659:1 1530:1 1553:1 1848:1 3039:1 3092:1 6994:1 8727:1 8728:1 8729:1
0.7724316294401711 50:1 85:1 463:1 652:1 2061:1 3323:1 5275:1 7575:1 8045:1
0.4682900644036212 21:1 101:1 290:1 456:1 5755:1 6617:1
0.5342206325503924 384:1 604:1 652:1 1163:1 1370:1 1381:1 2367:1 8763:1 8764:1 8765:1
1 20:1 109:1 456:1 3621:1 3767:1 3812:1 5847:1 7238:1
0.1662781295315328 340:1 608:1 641:1 817:1 840:1 2061:1 8805:1 8806:1 8807:1
1 1446:1 1716:1 5484:1
0.03851924483733637 45:1 109:1 127:1 817:1 877:1 3332:1 4813:1 5616:1 6916:1 8812:1 8813:1 8814:1 8815:1
1 177:1 731:1 1424:1 5207:1
0.146067206592396 46:1 50:1 212:1 508:1 1164:1 1668:1 1670:1 4444:1 5608:1 8822:1 8823:1 8824:1 8825:1
0.3693862801436148 83:1 105:1 250:1 255:1 586:1 630:1 845:1 990:1 1828:1 1885:1 3668:1 5167:1 8826:1 8827:1
1 330:1 402:1 416:1 688:1 731:1 989:1 1131:1 1205:1 1584:1 1725:1 1773:1 3160:1 3323:1 4007:1 5410:1
0.497568741029717 102:1 109:1 652:1 659:1 8154:1 8530:1 8828:1 8829:1
0.473186185301948 287:1 736:1 3518:1 7249:1 8233:1 8235:1 8236:1 8830:1 8831:1
0.207650105177038 255:1 258:1 731:1 4001:1 7658:1
0.6349510068587635 39:1 152:1 253:1 330:1 414:1 541:1 1166:1 1210:1 2205:1 2580:1 2605:1 3418:1 3603:1 3700:1 4152:1
0.1452178359797382 250:1 601:1 1026:1 1330:1 1865:1 2315:1 2475:1 2476:1 2747:1 2807:1 3022:1 3852:1 4250:1 5754:1 6961:1 8091:1 8853:1 8854:1 8855:1
0.2699902665452943 46:1 116:1 250:1 295:1 438:1 573:1 665:1 840:1 989:1 1479:1 1758:1 2421:1 3078:1 4022:1 4762:1 6961:1 8856:1
0.4710338953554358 34:1 608:1 1451:1 1687:1 1782:1 2931:1 8113:1 8486:1 8869:1
0.01572198142804061 182:1 190:1 346:1 428:1 659:1 1359:1 1790:1 3178:1 3903:1 8870:1 8871:1
0.4008024089367861 387:1 416:1 425:1 2232:1 2268:1 3107:1 3544:1 3838:1 5144:1 5157:1 5489:1 8872:1 8873:1 8874:1
0.1061230284019718 1394:1 2105:1 4012:1 8123:1 8875:1
0.3238509677252916 275:1 373:1 749:1 1009:1 1203:1 7111:1 8880:1 8881:1
0.6145718338891344 21:1 241:1 639:1 734:1 3206:1 4119:1 8882:1
0.1587874625341859 101:1 571:1 761:1 938:1 1205:1 1795:1 2999:1 5809:1 8136:1 8883:1
0.01711934011508294 910:1 913:1 920:1 1843:1 2244:1 2257:1 2343:1 7127:1 8884:1 8885:1 8886:1 8887:1 8888:1 8889:1 8890:1
0.7576296797375455 9:1 15:1 21:1 1098:1 1410:1 1915:1 2054:1 2202:1 2789:1 3160:1 7097:1 8182:1 8891:1
0.3160820327067388 259:1 261:1 262:1 264:1 314:1 639:1 749:1 928:1 1077:2 1189:1 2380:1 2516:1 4652:1 5532:1
1 3480:1 3773:1
0.4484381944000722 101:1 174:1 313:1 373:1 493:1 646:1 648:1 1352:1 1809:1 3662:1 8903:1 8904:1
0.07923792872728504 21:1 57:1 203:1 359:1 666:1 987:1 1126:1 1574:1 2303:1 2594:1 2717:1 3681:1 5124:1 6726:1 8913:1
0.2924556299699574 250:1 477:1 791:1 4057:1 4352:1 5083:1
0.1554782054225319 15:1 76:1 132:1 1314:1 1874:1 3521:1 8199:1 8365:1 8914:1
0.07614995769180215 18:1 46:1 177:1 228:1 241:1 256:1 574:1 639:1 1014:1 1205:1 1443:1 1509:1 1718:1 2524:1 2948:1 3645:1 8917:1 8918:1
0.7532616385273715 15:1 116:1 127:1 987:1 1054:1 1180:1 1722:1 1942:1 2305:1 2646:2 6278:1 8922:1
1 602:1 705:1 857:1 896:1 1399:1 2210:1 4275:1 6112:1
0.244652979937284 18:1 250:1 322:1 910:1 989:1 2375:1 2985:1 3210:1 3215:1 3685:1 5234:1 6071:1 8925:1
0.2918258822568328 18:1 26:1 84:1 99:1 2318:1 3528:1 8767:2
0.278887084801999 284:1 559:1 568:1 869:1 1361:1 1365:1 1530:1 2011:1 2103:1 3206:1 3983:1 5124:1 7739:1
1 21:1 1302:1 2384:1
0.3486560826089221 33:1 260:1 368:1 398:1 577:1 775:1 1358:1 1805:1 3288:1 3437:1 3953:1 5105:1 5354:1 5360:1 8940:1
0.8292590741630536 21:1 34:1 2298:1 5934:1 6726:1
0.656585717476061 30:1 33:1 46:1 857:1 1168:1 1648:1 1759:1 3497:1 5109:1 8947:1
0.5597411668939737 61:1 139:1 341:1 1249:1 1259:1 1325:1 2206:1 3218:1 3719:1 4360:1 6879:1 8953:1 8954:1 8955:1 8956:1
0.1122414262798964 438:1 512:1 574:1 842:1 937:1 1952:1 2048:1 3081:1 3407:1 3571:1 5857:1 8968:1 8969:1 8970:1
0.06582938796220397 70:1 232:1 438:1 481:1 5382:1 8971:1
0.1889178460794956 44:1 46:1 989:1 1296:1 1461:1 1893:1 5888:1 8980:1 8981:1 8982:1
0.01952470157356299 26:1 258:1 539:1 1098:1 1171:1 2057:1 5474:1 7598:1 8990:1 8991:1 8992:1 8993:1 8994:1 8995:1
0.3423170294297119 93:1 718:1 1160:1 1737:1 2111:1 2926:1 4005:1 9006:1
0.1033510460165919 21:1 182:1 265:1 1643:1 1648:1 1668:1 2315:1 2576:1 3283:1 3468:1 3778:1 5609:1 6613:1 9017:1 9018:1 9019:1 9020:1 9021:1 9022:1 9023:1
0.4717071734086387 18:1 21:1 217:1 218:1 384:1 575:1 643:1 1008:1 1641:1 9024:1 9025:1
0.124487363410644 101:1 263:1 2066:1 7017:1 9026:1 9027:1
0.3722717561588185 18:1 45:1 83:1 84:2 287:1 485:1 535:1 608:1 1655:2 1742:1 2493:1 5364:1 9029:1 9030:1 9031:1 9032:1 9033:1
1 174:1 198:1 205:1 578:1 1480:1
0.9628352284481534 154:1 250:1 548:1 9060:1 9061:1
0.303386164676388 101:1 154:1 250:4 927:1 1678:1 2057:1 2971:1 4829:1 5345:1 7585:1 9065:1 9066:1 9067:1
0.0391285852345135 587:1 996:1 1307:1 1979:1 4296:1 9068:1 9069:1 9070:1
1 21:1 31:1 70:1 399:1 438:1 676:1 1249:1 1428:1 1573:1 1606:1 1705:1 3465:1 6355:1
0.1206270836437902 416:1 857:1 1137:1 1743:1 2063:1 2267:1 2829:1 3565:1 4567:1 4569:1 9082:1 9083:1 9084:1
0.3284207094093662 21:1 34:1 101:1 116:1 203:1 212:1 617:1 781:1 791:1 883:2 1818:1 2976:1 3162:1 6860:1 7347:1 8180:1 9090:1 9091:1 9092:1 9093:1
0.270078916867022 581:1 1275:1 1444:1 1517:1 2649:1 8836:1 9094:1
0.1417396627443971 21:1 458:1 529:1 1330:1 1718:1 7150:1 9112:1 9113:1
0.7021183855230121 1203:1 1648:1 3517:1 3575:1 7370:1 9114:1
0.2972091229064056 6279:1 9115:1 9116:1 9117:1
0.4987324799079321 477:1 770:1 937:1 1819:1 2640:1 3607:1 9118:1 9119:1 9120:1
1 1048:1 2974:1
0.5776955850413951 172:1 265:1 365:1 546:1 611:1 1085:1 1905:1 2458:1 3332:1 7108:1 7800:1 9130:1 9131:1
0.2624584006612253 50:1 363:1 785:1 2305:1 3703:1 5547:1 7199:1 8233:1 8236:1 8831:1 9140:1
0.09432682318351678 112:1 128:1 199:1 205:1 995:1 1156:1 1330:1 1359:1 3712:1 4092:1 9147:1
0.5184134589095525 1790:1 2760:1 3396:1 4813:1 8899:1 9167:1 9168:1
1 90:1 365:1 1610:1
0.6144651115550788 119:1 665:1 1924:1 2409:1 4048:1 4846:1 9176:1
0.6259726913772556 127:1 205:1 312:1 399:1 1352:1 1429:1 1655:1 2605:1 3199:1 7550:1 8369:1 9181:1
1 1001:1 1338:1
1 36:1 83:1 174:1 232:1 353:1 1907:1
0.1224376434069518 250:1 527:1 661:1 669:1 926:1 1211:1 1370:1 1594:1 2196:1 2535:1 3824:1 4056:1 4636:1 5232:1 9221:1 9222:1
0.1001733609834944 26:1 182:1 659:1 1140:1 1480:1 1984:1 2992:1 3914:1 4671:1 7694:1 8910:1 9226:1 9227:1 9228:1 9229:1 9230:1
0.2355532256931374 508:1 1272:1 1374:1 1884:1 3320:1 5681:1 9231:1
0.1023634555971239 85:1 317:1 649:1 685:1 688:1 763:1 989:1 1709:1 4791:1 6161:1
0.01333285609647833 474:1 3983:1 7398:1 9234:1 9235:1 9236:1
0.0110550326509998 34:1 83:1 222:1 250:1 656:1 1727:1 2367:1 3721:1 4819:1 5676:1 9238:1 9239:1 9240:1 9241:1 9242:1 9243:1 9244:1
0.1640626269004558 101:1 132:1 199:1 250:1 295:1 1037:1 1581:1 3819:1 5085:1
0.3361941182332865 21:1 50:1 198:1 281:1 1019:1 1163:1 1428:1 1651:1 1963:1
0.3285193876132874 199:1 402:1 571:1 575:1 577:1 579:1 886:1 4490:1 9251:1 9252:1
1 182:1 402:1 815:1 1541:1 1758:1 1924:1 2376:1 3115:1 7432:1
0.5129174315467634 231:1 583:1 731:1 877:1 1358:1 1716:1 1879:1 2044:1 5864:1 8794:1 9157:1 9254:1 9255:1 9256:1
0.5145371052413633 268:1 444:1 2046:1 2149:1 2176:1 3070:1 5078:1 6729:1
0.2357761136388339 373:1 562:1 2054:1 2135:1 4247:1 6722:1 9260:1
0.305690803695692 13:1 9262:1
0.1001741070235314 21:1 45:1 198:1 287:1 438:1 527:1 633:1 640:1 1536:1 1885:1 1966:1 3889:1 6095:1 9041:1 9270:1
0.03750311992221613 21:1 45:1 985:1 1547:1 3213:1 4576:1 8807:1 9271:1
0.5043786887859453 15:2 475:1 624:1 758:1 857:1 889:1 980:1 1447:1 1805:2 1819:1 2977:1 8253:1 9278:1
0.1413433535397508 17:1 90:1 126:1 365:1 477:1 749:1 1800:1 2298:1 2299:1 5290:1 9281:1
0.1637227130013709 21:1 2141:1 2164:1 3117:1 3418:1 9261:1 9282:1 9283:1 9284:1 9285:1 9286:1
0.1143655235442999 18:1 842:1 857:1 1077:1 1399:1 1485:1 2743:1 7384:1 8649:1 9290:1 9291:1 9292:1
0.4603995542702747 76:1 313:1 4979:1 6409:1
1 96:1 322:1 1361:1 1718:1 9298:1
0.5642889778339513 18:1 265:1 633:1 1180:1 2076:1 2215:1 3508:1 3509:1
0.5061040304996028 15:1 26:1 158:1 160:1 190:1 593:1 636:1 1242:1 1269:1 1537:1 5975:1 7181:1 9299:1 9300:1
0.04728650021866742 26:1 317:1 421:1 478:1 593:1 681:1 758:1 1020:1 1098:1 1296:1 1418:1 1461:1 1703:1 4045:1 9195:1 9301:1 9302:1
0.2572696086534213 21:1 250:1 639:1 672:1 1272:1 2002:1 3861:1 4927:1 6871:1 9316:1 9317:1 9318:1
0.1939788686635475 385:1 562:1 857:1 989:1 1054:1 1171:1 1628:1 1716:1 2430:1 2516:1 3090:1 9320:1 9321:1 9322:1 9323:1
0.3661248605846094 250:1 477:1 641:1 733:1 2157:1 2210:1 9326:1
0.2328850127775491 84:1 342:1 857:1 877:1 1330:1 2331:1 2893:1 4333:1 9327:1 9328:1
0.7772233164393842 46:1 76:1 93:1 127:1 309:1 665:1 1149:1 1163:1 1461:1 1758:1 5401:1 9329:1 9330:1
0.04413905994728544 21:1 1681:1 3735:1 3867:1 4872:1 9232:1 9335:1 9336:1 9337:1
0.1786668304111929 46:1 201:1 1607:1 2143:1 3162:1 4614:1 5345:1 8899:1 9339:1 9340:1
0.1077558660951528 18:1 92:1 101:1 268:1 478:1 529:1 546:1 570:1 635:1 2057:1 2733:1 5343:1 6512:1 6934:1 7083:1 7899:1 9341:1 9342:1
0.3635487342323273 1133:1 1968:1 2005:1 6206:1 9352:1 9353:1
0.5484181236382335 39:1 1344:1 1356:1 1651:1 1684:1 2158:1 2599:1 5273:1 9364:1 9365:1 9366:1
0.02196484567729936 857:1 1180:1 1410:1 2458:1 4233:1 9373:1
0.07894794401744692 15:1 138:1 515:1 642:1 1001:1 2035:1 2111:1 2509:1 3161:1 7223:1 9374:1
0.1728926105224268 8:1 109:1 265:1 1848:1 1915:1 6196:1 9406:1
0.3032547033816121 474:1 495:1 1703:1 1999:1 3274:1 4000:1 4892:1 4893:1 9417:1 9418:1
0.003842864990812395 47:1 83:1 154:1 633:1 687:1 996:2 1134:1 1211:1 1670:1 3177:1 3178:1 4582:1 5278:1 7243:2 8214:1 8332:1 9428:1
0.1151880234097804 515:1 546:1 646:1 667:1 989:1 1077:1 2605:1 4791:1 4839:1 7283:1 9429:1 9430:1 9431:1 9432:1
0.5226114691902105 250:1 265:1 1833:1 4284:1 5652:1 9433:1 9434:1
0.4921972932478116 205:1 615:1 639:1 775:1 1285:1 1399:1 3167:1 5083:1 5200:1
0.2307377509340551 33:1 262:1 264:1 831:1 1381:1 1611:1 1633:1 3413:1 3801:1 5543:1 6360:1 9437:1 9438:1
0.1023822133693666 255:1 312:1 785:1 1399:2 5088:1
0.06303998312748313 26:1 190:1 1108:1 1461:1 2779:1 4443:1 4949:1 8652:1 9311:1 9441:1 9442:1 9443:1
0.4337613108203714 51:1 857:1 1205:1 2046:1 3172:1 6341:1 9450:1 9451:1
0.6806576050352517 205:1 250:1 574:1 608:1 676:1 773:1 1915:1 4194:1 7395:1
0.06503128741565578 339:1 390:1 1031:1 1422:1 1510:1 1609:1 4151:1 7146:1 9452:1 9453:1
0.006544147886340952 21:1 160:1 423:1 450:1 1240:1 1445:1 5105:1 5841:1 5842:1 5843:1 9474:1
0.1014526297891509 228:1 235:1 474:1 633:1 1362:1 1707:1 1809:1 4504:1 6095:1
0.0916062238694571 304:1 2369:1 2770:1 9484:1
0.1092138266680079 340:1 421:1 1836:1 3425:1 3855:1 5453:1 5455:1 6235:1 9488:1 9489:1
0.4764171665726616 160:1 250:1 331:1 387:1 736:1 1444:1 3329:1 5394:1 6438:1 9498:1 9499:1
0.6997557030110533 1716:1 3218:1 5109:1 5846:1 5858:1 9510:1 9511:1
0.5845170069044341 51:1 241:1 474:1 1855:1 1957:1 3274:1 3418:1 4463:1 4504:1 9514:1 9515:1 9516:1
1 1145:1 1479:1 3160:1 6185:1
0.9223939786666384 222:1 653:1 815:1 1465:1 1499:1 1722:1 2273:1 3042:1 5364:1 9517:1 9518:1
0.3896655957991408 575:1 658:1 1412:1 1537:1 3690:1 4373:1 5802:1 9547:1 9548:1 9549:1 9550:1
0.05842961996878267 83:1 172:1 295:1 421:1 425:1 529:1 575:1 1149:1 1722:1 1758:1 1866:1 2522:1 5001:1 5526:1 6839:1 6894:1 7121:1 7390:1 9553:1 9554:1
0.04701317696484946 138:1 314:1 384:1 450:1 530:1 716:1 798:1 1171:1 4314:1 5200:1 7351:1 7562:1 9125:1 9568:1 9569:1 9570:1
0.0462570707570585 30:1 116:1 217:1 221:1 1607:1 6697:1 6881:1
0.5086308157547965 21:1 27:1 56:1 90:1 101:1 255:1 329:1 373:1 934:1 1317:1 1655:1 1732:1 5490:1 9572:1 9573:1
0.8839173957317353 112:1 127:1 490:1 1107:1 1133:1 3497:1 9579:1 9580:1
0.05143133217727456 81:1 150:1 330:1 500:1 508:1 652:1 718:1 828:1 1272:1 1795:1 2231:1 4256:1 5074:1 6480:1 7578:1 9581:1 9582:1 9583:1
0.4841372765113186 653:1 758:1 1171:1 1631:1 1834:1 5401:1 8089:1 9584:1
0.1057543444845743 46:1 263:1 1606:1 3276:1 3465:1 3678:1
0.1398620307529956 21:1 452:1 483:1 687:1 857:1 867:1 968:1 1094:1 1160:1 1574:1 1664:1 2055:1 3190:1 3488:1 3897:1 4311:1 6245:1
0.4610150056706469 81:1 310:1 330:1 371:1 989:1 1485:1 1851:2 4808:1 5518:1 5567:1 9586:1
0.4500610091411231 18:1 49:1 640:1 657:1 2120:1 5683:1 9587:1 9588:1
1 194:1 265:1 477:1 629:1 643:1 646:1 716:1 4941:1 7902:1
1 791:1 828:1 977:1 1507:1 2010:1 6462:1
0.6981124786525684 250:1 883:1 3392:1 3641:1 4823:1 6472:1 9619:1 9620:1
0.3751473289918945 21:1 115:1 314:1 394:1 633:1 701:1 703:1 1627:1
0.1549873652895253 21:1 187:1 190:1 258:1 515:1 1613:1 1786:1 2445:1 2551:1 5322:1 9621:1 9622:1
0.1277382076452858 15:1 16:1 26:1 318:1 480:1 490:1 761:1 886:1 1890:1 2063:1 2666:1 3199:1 3603:1 3690:1 4324:1 5101:1 5564:1 8101:1 9624:1
0.03770171682482888 21:1 456:1 529:1 630:1 1957:1 2314:1 3585:1 7175:1
0.09284006029781151 21:1 213:1 313:1 2002:1 2506:1 2527:1 5503:1 5651:1
1 263:1 1941:1
1 749:1 785:1 877:1 934:1 1376:1 2330:1
0.2204692811718579 21:1 88:1 174:1 271:1 608:1 791:1 1163:1 1168:1 1384:1 3207:1 3837:1 5401:1 9658:1
0.2304331426354135 16:1 53:1 93:1 316:1 331:1 399:1 488:1 512:1 731:1 886:1 4717:1 6176:1 9184:1 9659:1 9660:1 9661:1 9662:1
0.4071525594799489 101:1 250:1 1037:1 1866:1 1887:1 2575:1 5085:1 6167:1 6201:1 9403:1 9663:1 9664:1 9665:1
0.07239902484694025 46:2 89:1 217:1 255:1 749:1 857:1 926:1 1552:1 1646:1 2196:1 2201:1 4497:1 4968:1 9668:1
0.3559356355274558 83:1 85:1 109:1 198:1 2210:1 3489:1 7511:1 8837:1 9669:1
0.01171933467096682 18:1 21:1 30:1 33:1 174:1 468:1 1987:1 2516:1 2849:1 5326:1 9670:1 9671:1
0.562728159752119 177:1 374:1 450:2 977:1 1440:1 1594:1 3143:1 3649:1 4120:1 4278:1 4449:1 4509:1 5382:1 7091:1 9673:1 9674:1 9675:1 9676:1
0.4820280362743108 527:1 538:1 749:1 785:1 854:1 1077:1 4312:1
0.3091408102088157 258:1 342:1 546:1 683:1 842:1 2715:1 5932:1 9696:1 9697:1
0.282073062550705 85:1 190:1 287:1 381:1 387:1 575:1 651:1 1655:1 5038:1 5279:1 7937:1 9698:1 9699:1 9700:1
0.5910413954532542 258:1 399:1 527:1 987:1 1032:1 1366:1 2863:1 3276:1 3341:1 3762:1 7680:1
0.6790526012316636 18:1 160:1 608:1 878:1 1064:1 1205:1 6153:1 7443:1 9708:1 9709:1
0.550849062684324 334:1 733:1 811:1 1185:1 1996:1 3267:1 3499:1 4728:1 6776:1 9718:1 9719:1 9720:1
0.6430510635516375 62:1 83:1 470:1 791:1 1332:1 2111:1 2484:1 2575:1 6074:1 7896:1
0.6969469210677204 76:1 250:1 639:1 857:1 963:1 1381:1 3100:1 5182:1 9736:1
0.3090971352932604 857:1 1171:1 2088:1 3089:1 8684:1
0.5595658948178406 312:1 552:1 1361:1 1939:1 2673:1 4111:1 4500:1 7517:1
0.6797491146244734 30:1 46:1 70:1 529:1
0.48243056200472 635:1 857:1 1129:1 1233:1 3586:1 5897:1
0.3615544442955809 485:1 3952:1 9763:1
0.4797816054860494 17:1 705:1 1106:1 1284:1 1767:1 1773:1 2981:1 7170:1 7369:1 9768:1
0.6768016658873542 374:1 472:1 1229:1 1358:1 1655:1 3698:1 9777:1 9778:1
0.01452526699120656 174:1 387:1 583:1 613:1 857:1 2120:1 2620:1 6438:1 8944:1
0.4725418727051682 127:1 241:1 272:1 402:1 501:1 576:1 591:1 657:1 688:1 860:1 866:1 905:1 1522:1 1576:1 2171:1 5338:1 9780:1 9781:1
0.1145072653920203 21:1 358:1 604:1 842:1 3565:1
0.8451837669713883 33:1 203:1 477:1 508:1 612:1 1641:1 3179:1 8851:1
0.5123089659829388 15:1 109:1 577:1 6564:1 7090:1 9800:1
0.221508004569987 101:1 475:1 595:1 705:1 746:1 1246:1 1853:1 2169:1 2397:1 2440:1 5285:1 5394:1 5401:1 5724:1 6269:1 7902:1 8521:1 9805:1 9806:1 9807:1
0.524204769816486 139:1 254:1 575:1 691:1 989:1 1098:1 1641:1 1809:1 1853:1 3040:1 9598:1 9808:1 9809:1
0.06569444822065151 145:1 365:1 431:1 1594:1 5100:1 5371:1 7472:1 9273:1 9810:1 9811:1 9812:1 9813:1
0.1169502244750951 45:1 160:1 312:1 325:1 437:1 731:1 1486:1 2288:1 2770:1 3302:1 5159:1 5278:1 6517:1 9820:1 9821:1 9822:1 9823:1
1 18:1 844:1 1163:1 5441:1
0.5227435044715288 21:1 33:1 445:1 1013:1 1302:1 1574:1 7078:1 9838:1
0.07218896067643789 172:1 550:1 583:1 612:1 1156:1 1337:1 1988:1 3607:1 3952:1 4545:1 9839:1 9840:1 9841:1 9842:1 9843:1
0.1469384371048893 45:1 46:1 172:1 357:1 380:1 636:1 1549:1 3066:1 3641:1 4577:1 8043:1 8045:1 8649:1 9176:1 9846:1 9847:1 9848:1
0.5346345714982877 18:1 21:1 45:1 49:1 137:1 546:1 570:1 656:1 923:1 1422:2 1703:1 1804:1 2450:1 4181:1 4718:1 6182:1 9267:1 9849:1
0.870534051064167 16:1 71:1 116:1 190:1 258:1 309:1 551:1 731:1 877:1 1131:1 1260:1 3076:1 9850:1
0.4897797501068597 53:1 125:1 749:1 792:1 1446:1 2180:1 3929:1 5379:1 5381:1 5541:1 6360:1 7816:1 7817:1 8175:1
0.03408756199063359 199:1 287:1 458:1 1171:1 1675:1 1718:1 6345:1 7960:1 9860:1
0.2394259083047595 1994:1 2376:1 9403:1
0.3952339777084852 138:1 139:1 212:1 577:1 624:1 657:1 716:1 886:1 1224:1 1381:1 1915:1 2605:1 7083:1 9865:1 9866:1 9867:1 9868:1
0.460484327966126 199:1 320:1 397:1 630:1 995:1 1205:1 4707:1 7176:1 7396:1 9869:1
0.2903416767602863 1:1 15:1 55:1 328:1 857:1 2182:1 9346:1 9482:1
0.2883375597252608 8:1 93:1 250:1 438:1 574:1 606:1 832:1 1062:1 1077:1 1574:1 2267:1 2781:1 4647:1 7450:1 8834:1 9875:2
0.06868169853233566 21:1 255:1 309:1 410:1 882:1 1722:1 1959:1 2627:1 4113:1 4229:1 4461:1 7153:1 7484:1 9880:1 9881:1
0.7282777868569553 937:1 1636:1 2220:1 9882:1
0.2358568846699968 50:1 255:1 478:1 737:1 978:1 1410:1 4247:1 4742:1 5989:1 7349:1 9889:1 9890:1
0.2710583555006183 121:1 232:1 635:1 1008:1 1296:1 5073:1 9892:1 9893:1
1 18:1 116:1 474:1 646:1 1358:1 1722:1 3175:1 6452:1 8294:1
0.4872490773321296 15:1 315:1 665:1 705:1 731:1 2450:1 2921:1 3014:1 5251:1 5408:1 5467:1
0.7167338172304845 31:1 358:1 1359:1 1800:1 2086:1 2843:1 4444:1 5662:1
0.5988381150792177 21:1 26:1 479:1 791:1 1716:1 2002:1 2036:1 2767:1 3295:1 6895:1 9074:1 9261:1 9898:1 9899:1 9900:1
0.8497129711074608 116:1 384:1 493:1 688:1 1819:1 2586:1 4152:1 9269:1
0.9683213275046327 226:1 402:1 611:1 883:1 2666:1 2983:1 5568:1 6731:1 7629:1 8060:1 9901:1
0.01095686466433102 231:1 624:1 765:1 3201:1 3521:1 3906:1
0.0895224071678474 6:1 182:1 574:1 639:1 3021:1 4949:1 9921:1
0.3188004102906376 30:1 109:1 309:1 1505:1 1976:1 2286:1 2958:1 3512:1 4466:1 7136:1 7265:1 7782:1 8064:1 8286:1 8966:1 9925:1 9926:1 9927:1
0.284911669005849 474:1 527:1 577:1 1299:1 1365:1 1422:1 5275:1 6006:1 8064:1 9928:1
0.1577753305896384 112:1 481:1 824:1 953:1 1444:1 2483:1 2807:1 3519:1 3566:1 4925:1 7730:1 9575:1 9930:1 9931:1
0.696705332240166 21:1 49:1 194:1 371:1 2082:1 3064:1 3284:1
0.4708666456116963 21:1 85:1 934:1 5428:1
0.007981769695575007 30:1 190:1 312:1 421:1 481:1 570:1 932:1 1612:1 1671:1 2696:1 3016:1 7254:1 8021:1 9947:1 9948:1 9949:1
0.5953180928445182 737:1 861:1 7560:1 9951:1
0.6855513719340637 860:1 1963:1 9953:1 9954:1
1 13:1 21:1 390:1 989:1 2131:1 2442:1 3111:1 7111:1
0.01439356740443251 265:1 600:1 3410:1 5225:1 9975:1
0.4986597904009977 83:1 402:1 791:2 857:2 980:1 1299:1 1332:1 1359:1 1410:1 1584:1 9992:1
0.09228280981189432 840:1 1344:1 1361:1 1711:1 5019:1 9996:1
0.3405560086355915 116:1 205:1 237:1 258:1 511:1 857:1 987:1 1892:1 3175:1 4009:1 10016:1
1 21:1 109:1 177:1 205:1 255:1 635:1 2115:1 2149:1 2294:1 5354:1 7358:1
1 0:1 56:1
0.3491958842815321 33:1 687:1 776:1 785:1 1645:1 1717:1 2046:1 3200:1 4131:1 10029:1
0.6824508848029002 45:1 78:1 232:1 629:1 1120:1 2329:1 4495:1 5458:1 6180:1 8247:1 9874:1 10032:1
0.0150526059169024 21:1 435:1 456:1 761:1 791:1 3297:1 7009:1 10041:1 10042:1
0.697694807009924 50:1 258:1 357:1 359:1 381:1 818:1 1098:1 1120:1 1325:1 2298:1 10049:1 10050:1 10051:1
0.09438368796600004 515:1 1115:1 1253:1 1547:1 2008:1 2507:1 4821:1 6935:1 8266:1
0.4257898770515859 18:1 83:1 365:1 402:1 5143:1 10078:1 10079:1
0.197352523832804 147:1 456:1 529:1 896:1 10085:1 10086:1 10087:1
0.2395987401830533 45:1 508:1 750:1 832:1 994:1 1525:1 1944:1 2833:1 3612:1 5570:1 5900:1 10088:1 10089:1
0.7541174911354841 18:1 81:1 527:1 989:1 2131:1 2912:1 3998:1 5183:1 6769:1 10106:1 10107:1
0.1466160814030804 21:1 92:2 142:1 268:1 635:1 679:1 763:1 932:1 2525:1 2744:1 3284:1 6512:1 8214:1 9341:1
0.3957045825229875 18:1 633:1 660:1 1418:1 8866:1 10115:1
0.1864687514679401 474:1 559:1 639:1 656:1 1547:1 1604:1 1609:1 1757:1 2856:1 3333:1 3547:1 5751:1 6221:1 10116:1 10117:1
0.3578240980736584 45:1 205:1 271:1 359:1 365:1 474:1 611:1 639:1 1387:1 1865:1 2312:1 2794:1 5608:1 6448:1 7358:1 10119:1 10120:1 10121:1 10122:1 10123:1 10124:1
0.1484704219190941 689:1 979:1 1499:1 5013:1 5167:1 6940:1 9965:1 10126:1 10127:1
0.5187469327254354 21:1 174:1 983:1 1271:1 1648:1 10128:1 10129:1
0.1114276569604888 236:1 287:1 387:1 736:1 3156:1 3469:1 3530:1 3677:1 4003:1 5530:1 5532:1 6350:1 6411:1 10147:1 10148:1 10149:1 10150:1
0.4535697093557688 21:1 160:1 404:1 477:1 1115:1 1252:1 1604:1 1722:1 2020:1 2169:1 2299:1 3588:1 4320:1 10152:1 10153:1
0.5726095104432304 137:1 667:1 989:1 3824:1 4554:1
0.6531784905818384 50:1 2071:1 2273:1 2294:1 2869:1 3011:1 3014:1 9424:1 9425:1 10154:1
0.03723282545419006 313:1 510:1 2230:1 4149:1 4742:1 5235:1 6414:1 6417:1 6508:1 7390:1 8066:1 8596:1 8597:1 8598:1 8600:1 8836:1 10164:1 10165:1 10166:1 10167:1 10168:1 10169:1
0.8562827559968298 21:1 116:1 326:1 367:1 579:1 785:1 1304:1 1790:1 2141:1 2235:1 3216:1 3689:1 5097:1 10171:1
0.6181649540798603 18:1 31:1 109:1 116:1 317:1 910:1 979:1 1094:1 1098:1 1195:1 1655:1 1733:1 2175:1 2191:1 3557:1 3751:1 4314:1 8356:1 10172:1 10173:1 10174:1
1 20:1 46:1 83:1 232:1
0.9841557913603165 250:1 2554:1 2782:1
0.07790081917910169 241:1 1915:1 10188:1 10189:1 10190:1 10191:1 10192:1
0.8234097193930597 3089:1 4014:1
0.536132591901772 591:2 987:1 3220:1 8850:1 10193:1 10194:1
1 45:1 250:1 539:1 768:1 1019:1 1332:1 1365:1 3200:1 3489:1
0.8450041504109478 45:1 191:1 517:1 519:1 527:1 530:1 928:1 10205:1 10206:1 10207:1
0.3500754464485155 21:1 46:1 83:1 203:1 309:1 731:1 1072:1 1576:1 1979:1 2633:1 5159:1 9497:1 10208:1 10209:1
0.2079471252283995 21:1 547:1 780:1 802:1 860:1 1643:1 2364:1 2371:1 2576:1 3281:1 6385:1 10226:1 10227:1 10228:1 10229:1
0.9882442441894426 76:1 3926:1 7441:1
0.2553593774644926 61:1 81:1 198:1 326:1 428:1 2057:1 4137:1 10125:1 10245:1
0.2304426354982642 86:1 758:1 1731:1 1970:1 2063:1 2552:1 3041:1 3277:1 3634:1 4499:1 4525:1 4988:1 9593:1 9859:1 10252:1 10253:1 10254:1
0.3741558400168404 529:1 1587:2 1696:1 6805:2 9437:1
0.5782443325538051 990:1 1314:1 1547:1 1874:1 1957:1 10264:1
0.1417251735162424 46:1 501:1 529:1 1325:1 1853:1 10267:1 10268:1
0.3755575718915889 101:1 387:1 530:1 1095:1 1555:1 2744:1 5849:1 8465:1 10280:1 10281:1
0.2222484218764736 21:1 55:1 101:1 380:1 750:1 1205:1 1407:1 1726:1 2630:1 2989:1 4707:1 10285:1
1 34:1 295:1 357:1 363:1 381:1 887:1 2091:1
1 33:1 174:1 869:1 926:1 3650:1 3809:1
0.6897338140588883 253:1 402:1 649:1 1518:1 3037:1 4526:1 4974:1 10303:1 10304:1
0.6107499484319426 45:1 258:1 377:1 660:1 1599:1 2315:1 6916:1 7962:1 8965:1 10307:1
0.2090824052710587 669:1 758:1 2083:1 2188:1 2726:1 6453:1 6563:1 10310:1
1 380:1 412:1 2002:1 2230:1 2722:1
0.2620534893792886 134:1 373:1 1098:1 1196:1 1758:1 2744:1 6590:1 6932:1 10316:1 10317:1 10318:1 10319:1
0.3710482423830975 1272:1 2446:1 3221:1 3764:1
0.8016757644338809 199:1 201:1 1819:1 2615:1 10320:1
1 643:1 989:1 3480:1
0.3155590834950278 15:1 49:1 232:1 250:1 438:1 450:1 479:1 574:1 715:1 758:1 815:1 990:1 1606:1 1668:1 2516:1 10323:1 10324:1 10325:1 10326:1
1 18:1 26:1 205:1 529:1 639:1 665:1 785:1 791:1 2165:1 2172:1
0.3956421118116019 50:1 255:1 478:1 1384:1 1446:1 1479:1 1613:1 1728:1 2816:1 3327:1 6044:1 8493:1 10327:1 10328:1 10329:1
0.2676384695211428 30:1 46:1 368:1 385:1 580:1 718:1 1166:1 1330:1 1509:1 1513:1 1813:1 2264:1 2841:1 3508:1 3903:1 7238:1 9888:1 10330:1 10331:1 10332:1 10333:1
0.240435408233584 21:1 46:1 50:1 231:1 1126:1 1718:1 2375:1 3369:1
0.3294205883784038 8631:1 9841:1 9882:1 10337:1
0.2417331985776147 13:1 18:1 263:1 402:1 2399:1 2402:1 3285:1
0.04403864584697828 204:1 2974:1 3689:1 3766:1 4647:1 7182:1 8776:1 10346:1 10347:1 10348:1 10349:1
0.2976791401524667 177:1 1352:1 2568:1 2569:1 3718:1 7742:1 10353:1 10354:1
0.4369960926249844 385:1 624:1 672:1 3724:1 9236:1
0.6110320495496627 26:1 1220:1 1457:1 2111:1 2712:1 3040:1 4256:1 4391:1
0.3347782156633952 45:1 147:1 402:1 937:1 2036:1 2414:1 2415:1 7550:1 8780:1 10367:1 10368:1 10369:1 10370:1
0.2718461004193036 18:1 21:1 78:1 258:1 519:1 652:1 1915:1 3272:1 3969:1 4723:1 5728:1 8572:1 8850:1 10211:1
0.0255205651591878 341:1 488:1 506:1 656:1 1198:1 1287:1 2384:1 3819:1 3959:1 9217:1 10380:1 10381:1 10382:1
1 21:1 44:1 53:1 116:1 332:1 341:1 399:1 479:1 570:1 639:1 817:1 1287:1 1627:1 9388:1
0.2931903621890471 271:1 450:1 480:1 1180:1 2286:1 3685:1 3778:1 9746:1 9868:1 10392:1 10393:1
0.1833611377875299 66:1 204:1 4804:1 8392:1 8465:1 10403:1 10404:1
0.7768395286560975 101:1 438:1 457:1 467:1 585:1 718:1 5033:1 8845:1
1 56:1 250:1 1790:1 2111:1 5023:1
1 719:1 926:1 2748:1 5849:1 10008:1 10405:1
0.1509761343540135 18:1 112:1 121:1 323:1 1210:1 1609:1 4899:1 10417:1 10418:1
0.2669733554409062 62:1 76:1 85:1 883:1 979:1 1668:1 1872:1 2160:1 2484:1 10419:1 10420:1
0.2303840901951695 1132:1 1162:1 1272:1 1444:1 1678:1 1729:1 2974:1 4636:1 7118:1 10423:1 10424:1
0.3407817923449339 21:1 44:1 46:1 1299:1 2298:1 10428:1 10429:1
0.5612999265349993 198:1 281:1 317:1 361:1 366:1 421:1 1131:1 1722:1 1984:1 2175:1 2433:1 3176:1 3590:1 4314:1 5813:1 7215:1
0.2248930102785629 910:1 4758:1 7289:1 7660:1 7674:1 10434:1 10435:1 10436:1
0.5112734523063365 365:1 3033:1 6066:1 10451:1
0.2189631581747526 34:1 371:1 10456:2
0.1874741075548018 18:1 250:1 546:1 1001:1 1641:1 1816:1 2273:1 2892:1 5512:1 5793:1 7254:1 10465:1 10466:1
1 256:1 293:1 857:1 5109:1 5971:1 9511:1
0.4440678701791402 26:1 83:1 96:1 357:1 414:1 462:1 527:1 643:1 989:2 1047:1 2180:1 6900:1 7114:1 10469:1 10470:1
0.2888770372410589 458:1 1410:1 1528:1 5997:1 10471:1 10472:1 10473:1 10474:1
0.5519191957371632 139:1 390:1 659:1 688:1 705:1 3307:1 7002:1 8939:1 10182:1 10475:1
1 481:1 2531:1
0.5691551937938272 33:1 76:1 980:1 1171:1 1294:1 3199:1 3905:1 5255:1 6683:1 10489:1
0.8248547813384802 258:1 284:1 624:1 1547:1 2234:1 2424:1 3631:1 4366:1 6332:1
0.2689844782766274 238:1 374:1 458:1 889:1 1063:1 2457:1 4282:1 10498:1 10499:1 10500:1
0.3712732151890058 21:1 45:1 177:1 253:1 258:1 271:2 639:1 657:1 734:1 791:1 980:1 1156:1 1293:1 1366:1 1549:1 3090:1 3213:1 9922:1 10504:1 10505:1
0.08258096561261376 21:1 250:1 399:1 842:1 982:1 1365:2 1594:1 1773:1 2983:1 5293:1
0.9701176676197778 1095:1 10520:1
0.06606395028771829 83:1 579:1 731:1 4068:1 5581:1 7698:1 10521:1
1 31:1 174:1 250:1 550:1 1332:1 1334:1
0.1653513274699949 34:1 101:1 230:1 374:1 571:1 644:1 701:1 1231:1 1607:1 3842:1 4795:1 10524:1
1 18:1 96:1 250:1 775:1 1365:1 2376:1
0.8640129811301154 125:1 1795:1
0.08564814265426712 649:1 719:1 1166:1 10536:1
0.04301016704653816 46:1 160:1 225:1 258:1 384:1 402:1 470:1 1306:1 1307:1 1333:1 1584:1 2424:1 3707:1 3793:1 3795:1 4988:1 6182:1 10537:1 10538:1
0.3789225664210548 121:1 219:1 1405:1 1418:1 3709:1 4210:1 5403:1 8769:1 10545:1 10546:1
0.2127380820352335 18:1 139:1 160:1 290:1 857:1 877:1 926:1 3040:1 9610:1 10006:1 10550:1 10551:1
0.6850480774615804 109:1 186:1 332:2 695:1 857:1 987:1 1648:1 1952:1 2164:1 3226:1 10561:1 10562:1
0.4530840658517278 421:1 653:1 672:1 926:1 1334:1 1359:1 1693:1 1957:1 4174:1 6516:1 6684:1 10567:1 10568:1
0.165569632505375 45:1 226:2 575:1 1903:1 1996:1 2482:1 10569:1 10570:1 10571:1 10572:1 10573:1
0.3552760260634382 21:1 177:1 791:1 834:1 1774:1 2384:1 5953:1 8759:1 9862:1 10117:1 10576:1 10577:1
0.1752081116644674 6:1 255:1 635:1 1129:1 1213:1 1970:1 2298:1 2451:1 3954:1 5311:1 5312:1 10582:1 10583:1 10584:1 10585:1
0.00507742011750978 705:1 1300:1 1365:1 3168:1 3406:1 4306:1 10587:1
0.02343767979162384 50:1 177:1 232:1 964:1 1008:1 2304:1 10588:1 10589:1
0.1316664824497703 8:1 83:1 109:1 962:1 988:1 1370:1 1552:1 1709:1 2694:1 3722:1 6402:1 7933:1 9398:1 10591:1
0.9419521500181274 26:1 45:1 49:1 495:1 1071:1 4339:1 7908:1 9681:1 10593:1 10594:1
0.2132144149295209 212:1 295:1 641:1 1966:1 2002:1 3176:1 3177:1 5311:1 5312:1 6908:1 8202:1 9016:1
0.4152956694493231 33:1 45:1 109:1 519:1 655:1 1147:1 2555:1 2561:1 2568:1 2569:1 2871:1 10306:1 10614:1 10615:1 10616:1 10617:1 10618:1 10619:1
0.1712013542743739 388:1 529:1 791:1 1207:1 4366:1 6497:1 8210:1 9184:1 10626:1 10627:1 10628:1 10629:1
0.06669616920433741 121:1 258:1 546:1 575:1 733:1 763:1 802:1 834:1 987:1 1409:1 2424:1 3111:1 3866:1 4278:1 5083:1 10264:1 10634:1 10635:1 10636:1
1 96:1 1773:1
0.1049920752092262 127:1 415:1 926:1 963:1 968:1 1645:1 2304:1 3228:1 4703:1 6276:1 10642:1 10643:1 10644:1 10645:1
0.1237552066422322 247:1 362:1 573:1 1707:1 2082:1 2163:1 3154:1 3731:1 3732:1 3734:1 3736:1 3737:1 3969:1 10646:1
0.6414808462974511 45:1 665:1 1259:2 1316:1 1552:1 1773:1 1865:1 3111:1 4048:1 4080:1 7254:1
0.6246202114834422 111:1 255:1 695:1 857:1 1410:1 1447:1 2074:1 2170:1 3068:1 3225:1 4968:1 9011:1 10647:1 10648:1 10649:1
0.526250645555817 21:1 444:1 587:1 1139:1 1272:1 2149:1 2722:1 4232:1 10650:1 10651:1
0.2300386322847027 4980:1 5030:1 9496:1 9798:1 10659:1
0.02588386105768536 33:1 383:1 559:1 585:1 641:1 672:1 1332:1 4007:1 8151:1 10660:1 10661:1 10662:1 10663:1 10664:1 10665:1
0.0249177289058941 121:1 127:1 142:1 287:1 649:1 749:1 760:1 842:1 1020:1 1129:1 1133:1 2971:1 7800:1 10670:1 10671:1 10672:1 10673:1 10674:1
0.07159333238555474 21:1 250:1 332:1 681:1 749:1 1060:1 1716:1 1795:1 2264:1 2454:1 3212:1 4081:1 6081:1 6873:1 7271:1
0.588325340752173 199:1 4497:1 10698:1
0.363983882219465 21:1 1670:1 2105:1 3842:1 4813:1 5694:1 5975:1 7118:1 8123:1 8169:1 10699:1 10700:1 10701:1
0.5733595675679065 50:1 93:1 212:1 250:1 771:1 1730:1 2318:1 3174:1 3687:1 3751:1 5082:1 10721:1 10722:1
0.7802655527589873 55:1 82:1 287:1 481:1 720:1 791:1 1106:1 1730:1 6016:1 10724:1
0.0537498219610723 46:1 112:1 529:1 910:1 1685:1 2152:1 2605:1 3844:1 4391:1 6561:1 6562:1 10731:1
0.5619297099603753 780:1 785:1 1570:1 10742:1
1 529:1 547:1 588:1 883:1 1119:1 2871:1 5441:1 6182:1 10743:1
0.4113752407988505 109:1 989:1 1218:1 1317:1 1332:1 2524:1 5203:1 10508:1
0.05418559867482516 21:1 314:1 749:1 894:1 4780:1 5076:1 5081:1 7343:1 10745:1 10746:1 10747:1
0.04367840196767769 250:1 611:1 883:1 1171:1 1479:1 3677:1 3689:1 6180:1 6940:1 8129:1 8964:1 10750:1 10751:1
1 569:1 2160:1 4388:1
0.6692131958967734 61:1 416:1 609:1 894:1 1147:1 1283:1 2786:1 5908:1 5940:1 9909:1 10754:1
0.04723056043313073 39:1 1207:1 1915:1 2531:1 3410:1 3946:1 5329:1 5401:1 6306:1
0.04023880102995169 79:1 181:1 194:1 313:1 373:1 432:1 608:1 629:1 665:1 2589:1 10766:1 10767:1
1 46:1 371:1 477:1 882:1 6975:1
1 250:1 479:1 652:1 1073:1 9681:1
0.5514029677855206 380:1 577:1 585:1 587:1 4380:1 10785:1 10786:1
1 105:1 625:1 1077:1 1098:1 2657:1 7329:1
0.304349904852498 661:1 718:1 1408:1 5101:1 5993:1 9537:1
0.3733194873477875 21:1 142:1 4120:1 10791:1 10792:1 10793:1
0.3876781276319068 160:1 290:1 1848:1 2750:1 3773:1 3824:1 6290:1 8738:1 10801:1 10802:1
1 250:1 258:1 421:1 1790:1 2086:1 4044:1
0.3551912396456864 226:1 256:1 374:1 588:1 1725:1 1912:1 2271:1 2298:1 3468:1 5934:1 6046:1 8113:1 9473:1 10809:1 10810:1 10811:1
0.7073250430178171 33:1 46:1 138:1 583:1 589:1 989:1 1365:1 1381:1 1399:1 2090:1 3368:1 10816:1 10817:1
0.07702892604553016 101:1 199:1 258:1 261:1 313:1 546:1 665:1 1210:1 1632:1 2659:1 5448:1 8386:1 9745:1 10821:1
0.6155609143729457 45:1 644:1 1784:1 10829:1
0.9731663760134996 49:1 250:1 304:1 3712:1 5140:1 5983:1 6000:1
0.09038885235297701 18:1 205:1 1251:1 1563:1 6310:1 10830:1 10831:1
0.02833746126333518 160:1 916:1 920:3 2245:1 2246:1 2250:1 2344:2 2889:1 6597:1 7127:1 8688:1 10835:1 10836:1 10837:1 10838:1 10839:1 10840:1 10841:2
0.1220770298658898 238:1 458:1 574:1 669:1 1171:1 1359:1 1922:1 2098:1 2901:1 8683:1 10843:1 10844:1 10845:1
0.1116919196290982 121:1 198:1 226:1 402:2 1129:1 1631:1 1881:1 2421:1 2831:1 3315:1 5022:1 7728:1 10332:1 10847:1 10848:1 10849:1
0.5138114994920331 18:1 481:1 886:1 1180:1 2615:1 10850:1 10851:1
0.0715889544411879 83:1 232:1 667:1 1108:1 1332:1 4825:1 5101:1 7334:1
0.5347631491709254 21:1 445:1 455:1 1791:1 2422:1 10854:1 10855:1
0.1290968920346667 21:1 820:1 1140:1 2940:1 2957:1 10862:1
0.4702682002217625 446:1 791:1 845:1 1648:1 1984:1 4505:1 8083:1 10869:1
0.04110795976336781 474:1 477:1 695:1 905:1 2384:1 2524:1 2589:1 6304:1 6760:1 7505:1 7953:1 9765:1
0.6369485954542226 33:1 55:1 326:1 508:1 585:1 1122:1 5492:1 6516:1 6918:1 9339:1 10873:1 10874:1
1 22:1 272:1 639:1 672:1 1716:1 3473:1 5481:1 8204:1 8836:1
0.1169938086479604 21:1 258:1 399:1 791:1 978:1 1774:1 5250:1 10875:1
1 45:1 127:1 203:1 529:1 639:1 643:1 721:1 3117:1 3271:1
0.02206559227342349 365:1 761:1 1365:1 7192:1 10880:1 10881:1
0.1321131084734408 21:1 438:1 478:1 492:1 2299:1 2770:1 3722:1 6857:1 10882:1 10883:1
0.3715199089454064 15:1 154:1 643:1 732:1 881:1 971:1 1804:1 10898:1
0.08006142178544956 330:1 508:1 1549:1 1609:1 2609:1 10899:1
0.23277541904093 45:1 50:1 241:1 344:1 3171:1 10900:1
0.3559475720683631 731:1 910:1 1480:1 4186:1 5775:1 7091:1
0.1371420345628642 265:1 365:1 468:1 1521:1 2419:1 3362:1 3609:1 4276:1 6987:1 10903:1 10904:1 10905:1
0.006762191478160079 101:1 186:1 338:1 421:1 758:1 990:1 1302:1 1358:1 1388:1 3819:1 4637:1 8640:1 10911:1
0.570016054706509 74:1 941:1 2295:1 2605:1 6865:1 10915:1 10916:1
0.1644100431648191 21:1 361:1 659:1 688:1 1813:1 3078:1 3213:1 4276:1 9533:1 10917:1 10918:1
0.4125904725404662 232:1 250:1 771:1 780:1 3121:1 3176:1 3453:1 8189:1 9016:1 10919:1 10920:1 10921:1
0.01004407927525811 130:1 791:1 880:1 1275:1 1402:1 1670:1 4804:1 10922:1 10923:1 10924:1
0.7923766349371182 225:1 226:1 1530:1 3106:1 3108:1 7372:1 10804:1
0.5295923829643422 21:1 112:1 174:1 177:1 312:1 1075:1 1297:1 2138:1 3981:1 4284:1 10311:1 10925:1
1 250:1 4151:1 4829:1
1 6:1 365:1 478:1 2234:1
0.1137762480778126 0:1 187:1 4671:1 5474:2 9128:1 10940:1 10941:1 10942:1
0.7268262764011587 109:1 200:1 905:1 1299:1 3206:1 10946:1
1 20:1 438:1 477:1 1385:1 5866:1
1 21:1 6409:1 10803:1
0.1980087956335811 88:1 287:1 342:1 411:1 462:1 4115:1 10953:1 10954:1
0.8224706907647089 45:2 49:1 90:1 198:1 639:1 1893:1 4049:1 5076:1 10976:1
0.2575815591608254 45:1 46:1 212:1 476:1 493:1 699:1 718:1 1139:1 1684:1 1921:1 2158:1 2175:1 3644:1 6704:1 9053:1 10977:1 10978:1 10979:1 10980:1 10981:1 10982:1
1 39:1 96:1 363:1 381:1 445:1 639:1 2570:1 2977:1 4484:1 10732:1 10986:1
0.4972407484771847 21:1 33:1 127:1 132:1 182:1 255:1 574:1 995:1 1643:1 3000:1 4218:1 4949:1 8602:1 10990:1
0.01069760691263532 15:1 30:1 46:1 70:1 174:1 190:1 199:1 250:1 625:1 791:1 926:1 3076:1 3302:1 6379:1 6515:1 7214:1 8343:1
0.7277884112432051 46:1 56:1 1410:1 3303:1 5449:1
0.6402195127529584 109:1 137:1 198:1 205:1 380:1 479:1 758:1 1163:1 1192:1 1272:1 1610:1 1613:1 6252:1 8564:1 9611:1
0.3067024845102825 21:1 3689:1 5954:1 11006:1
0.129613970893672 21:1 81:1 93:1 109:1 256:1 1594:1 2881:1 4007:1 11007:1 11008:1
0.1231310533079929 21:1 83:1 519:1 575:1 2609:1 2671:1 2964:1 4808:1 6249:1 10795:1 11014:1 11015:1 11016:1
1 1211:1
0.371280331697276 18:1 21:1 45:1 402:1 785:1 2331:1 2605:1 3122:1 3149:1 3488:1 5655:1 9437:1 10340:1 11017:1
